[
    {
        "weight": [
            -0.05429138916737488,
            -0.010777996254147526,
            0.0043890516693446515,
            0.037667257695468886,
            -0.01920788907267835,
            -0.024054139267674995,
            -0.009568121486389209,
            0.043826409429251624,
            -0.037398053956703925,
            0.05759064291748711,
            0.07342905952856947,
            0.03968008734951732,
            0.04801454557307491,
            -0.02683429365371057,
            0.015664225478474555,
            -0.0014767847209817115,
            -0.016609697552803233,
            0.007338612521865437,
            -0.015676298066566403,
            -0.020058015852227898,
            -0.01917624032586815,
            0.030212053499895045,
            0.02361495096968111,
            -0.03574146585334129,
            -0.0032394841024920265,
            0.005338368568975201,
            -0.04494770115746282,
            0.04681663581371346,
            -0.01945391343694931,
            -0.011844706868006757,
            0.024494512582614,
            0.004748789813812264
        ],
        "bias": 0.0
    },
    {
        "weight": [
            -0.041814188859571576,
            0.020679818841069456,
            0.0398094657289051,
            0.03860507531623159,
            -0.00284176184015491,
            -0.04579468368802223,
            -0.0130757205328975,
            0.0507046664144794,
            -0.005114789616494566,
            0.07177055798974027,
            0.06355053839495566,
            -0.00499075790860745,
            0.03656775345547725,
            -0.005634731453264193,
            -0.016483726346005978,
            -0.010881667008431236,
            -0.008194271484159701,
            -0.03507132020999616,
            -0.02947842186566074,
            0.02447269178219671,
            0.023698536660428395,
            0.004382786380546158,
            0.021262039348964125,
            -0.04665267177397659,
            0.02124321703818323,
            -0.002946683558447764,
            -0.007457118539388538,
            0.01748237063485746,
            -0.012472263994450894,
            -0.014829859504738136,
            0.02233738389960053,
            0.0275386694379684
        ],
        "bias": 0.0
    },
    {
        "weight": [
            -0.01716003061208207,
            -0.01533432442039856,
            0.009839427387582063,
            0.07317098977080824,
            -0.00988071008768292,
            -0.022531168506819455,
            0.01311588003235826,
            0.06070570241892967,
            0.00626002624185601,
            0.06284223699350094,
            0.058657626983431854,
            0.019872928678799237,
            0.06510166554650418,
            0.007130767510390091,
            0.012250920862351607,
            0.016892239880065215,
            0.01785351353163938,
            -0.0137006044566687,
            -0.018742740953204873,
            0.026474764687913044,
            0.000660516233146562,
            0.049761615590789086,
            0.005102671231164772,
            -0.042035391137532616,
            -0.008139251250715329,
            0.028536828764736993,
            -0.02480563584409807,
            0.0365823982680162,
            -0.0096664517012349,
            -0.0008680288696907159,
            0.010134454318558004,
            -0.007391630437163094
        ],
        "bias": 0.0
    },
    {
        "weight": [
            -0.005452448716299111,
            0.025278677586903553,
            0.018768868161356568,
            0.060667702747314374,
            -0.017655912209742226,
            -0.0352516272343041,
            -0.00671999405074562,
            0.07312910063163246,
            0.0048461592051695776,
            0.06805872871532113,
            0.03285426569331279,
            0.00040186564136248374,
            0.03553397266283869,
            0.030115123117893102,
            0.0011532866289617907,
            -0.02991248064370889,
            -0.012468476661128991,
            0.009773485244856044,
            -0.023320525653202702,
            0.01761038581314256,
            0.017905164461363914,
            0.04838919376523787,
            0.031530708885950026,
            -0.03328149376336797,
            0.027593448370445067,
            -0.021451980519888024,
            -0.04253525750941072,
            0.0251922057315063,
            -0.01569679455644799,
            -0.01932292809786692,
            -0.019547209922209048,
            0.002458421316407595
        ],
        "bias": 0.0
    },
    {
        "weight": [
            -0.0030027161904771843,
            0.028819896402279454,
            0.01899161114807357,
            0.0063428301493631154,
            -0.027537872276084386,
            -0.027621330976311066,
            0.012527263843408479,
            0.05027813907629136,
            -0.03820811775070844,
            0.06487053696349135,
            0.05510742039966313,
            0.01456372824297715,
            0.0613514602920762,
            0.036090132053774086,
            -0.0210453189007125,
            0.00940443860223334,
            -0.033203951220730915,
            -0.0407689332234654,
            -0.0004937966754477021,
            -0.002978989640902426,
            -0.011654686434418162,
            0.004515943663498246,
            0.0236019240375066,
            -0.026142705481382474,
            -0.003728025386754339,
            0.01854262783371791,
            0.0026351770134889142,
            0.01813121718481664,
            -0.04548019351731507,
            -0.020069210402789934,
            -0.023014255805656504,
            0.027388506244755223
        ],
        "bias": 0.0
    },
    {
        "weight": [
            -0.04459977449268261,
            0.009387415571470966,
            0.04152745971049968,
            0.013682581633172606,
            -0.042333620033942095,
            0.003312055810255985,
            -0.028979526945981895,
            0.024228407397595155,
            0.003750482904197149,
            0.05493769239474541,
            0.03267570215391724,
            0.015166180626146941,
            0.02933044650190606,
            -0.009070954364269657,
            0.009173948886165392,
            -0.0008780386543660192,
            -0.01366046179506948,
            -0.030066635244687476,
            -0.0005311727613049574,
            -0.015708796157322617,
            -0.026084056948888875,
            0.028450522548133406,
            -0.0001548835939767558,
            -0.01800560345225269,
            -0.014976184237986497,
            -0.014154864591383915,
            -0.005757036254568375,
            0.012341611652930587,
            -0.03466527112776073,
            -0.018952028801797857,
            -0.023741576598553575,
            0.0177094799963695
        ],
        "bias": 0.0
    },
    {
        "weight": [
            -0.02390474825388673,
            0.02473285750770603,
            0.03818702148160628,
            0.060041475665585375,
            -0.004210930463910213,
            0.010094963406326414,
            -0.004820206646962238,
            0.05886088528274297,
            -0.0406086154630659,
            0.037600049774722824,
            0.04087334452433964,
            -0.00977966735000338,
            0.06404293124395732,
            0.009418374964944402,
            -0.00029767805760444655,
            -0.01982893819859793,
            -0.016125694073887677,
            -0.03465489378972649,
            0.007308735642985127,
            -0.011824029710716142,
            0.017066195980397936,
            0.026857542173736013,
            0.011990549627467468,
            -0.044697756796509905,
            0.030321038152591604,
            -0.003019736793655407,
            -0.024328427366276623,
            0.043762773242655366,
            -0.0017155170871446118,
            -0.023368848587224014,
            -0.007027850755711465,
            -0.008912976303100725
        ],
        "bias": 0.0
    },
    {
        "weight": [
            0.0006284863348685273,
            0.030455375605810898,
            0.02104287053850412,
            0.06921830311110859,
            -0.0021227162193862667,
            -0.007807510889305251,
            -0.014438616414364272,
            0.07190454276280148,
            -0.02771061553606296,
            0.011840641137330403,
            0.021262011608888055,
            -0.020423763394146158,
            0.03756421915637391,
            0.03734308201300179,
            -0.017536971968139574,
            -0.005885182130649994,
            -0.011968617704623876,
            -0.02401546061727588,
            -0.01950786108115782,
            0.025817448703665376,
            0.015962067763888206,
            0.0011519916591024573,
            0.019393468152422242,
            -0.021811103427161273,
            0.009274058829114551,
            0.008826977392284496,
            0.0035280291116760744,
            0.007366282157693492,
            -0.009707876701255225,
            -0.00011473068555300386,
            -0.035873260568471094,
            0.007658975548850757
        ],
        "bias": 0.0
    },
    {
        "weight": [
            -0.004697076854235302,
            -0.017538972290177732,
            0.024272204248613698,
            0.04909292078489947,
            -0.01393019119351201,
            -0.012711321826865294,
            0.013827815602217665,
            0.07398007738144091,
            -0.01779609880134276,
            0.05759352861895062,
            0.027063863458347,
            -0.016769179228511014,
            0.04729846880720085,
            0.022728482206806774,
            0.008021687552575688,
            0.015822961895716844,
            -0.03220878603060917,
            -0.04235263608307911,
            0.02086175140312722,
            0.014090373443964832,
            -0.002991477603114246,
            0.017347574592780243,
            0.010466296932021552,
            -0.021189952519654717,
            0.02620147185059144,
            0.0159375143460302,
            -0.0238399910201023,
            0.011513883838512625,
            -0.03345280457703067,
            0.004637298174593538,
            -0.009279906997943647,
            0.009247116885263461
        ],
        "bias": 0.0
    },
    {
        "weight": [
            -0.05677671014653842,
            0.03228527392048906,
            0.04007935549847757,
            0.022685226844475,
            -0.021441908015440603,
            -0.05077311144289154,
            0.01829379607547317,
            0.06920575271160566,
            -0.013180999720469135,
            0.0363585829004603,
            0.06905793036658252,
            0.0013403481580296554,
            0.06599880560274549,
            0.023306678195079162,
            0.01806982701929715,
            0.010651546477298,
            -0.020938747599369877,
            -0.036681950018184424,
            0.01024684425973737,
            0.034194729376819985,
            0.023805912736854076,
            0.018232263291754994,
            -0.0015509098239099139,
            -0.01888956442074425,
            -0.010417153229088488,
            -0.0007068135368213276,
            -0.016883793693864904,
            0.04728113480497719,
            -0.0022640375889543688,
            -0.0076133170225319005,
            -0.013743562649337076,
            -0.003941813387577295
        ],
        "bias": 0.0
    },
    {
        "weight": [
            -0.024039598140073584,
            -0.0024775388631557054,
            0.029826632299458335,
            0.008818743683669047,
            -0.02748308615939512,
            -0.04224589750568029,
            -0.012027049561357016,
            0.01005432317174433,
            0.015060471928054778,
            0.07484085793047837,
            0.09037241889943202,
            0.03157221603785827,
            0.025228626159943045,
            0.026182520750344232,
            -0.026878980777799523,
            0.026657354133981175,
            -0.037488907141839105,
            0.006541193247865129,
            -0.011838062668590863,
            0.022830219770671,
            0.015347308504446485,
            0.02980606725045899,
            0.019447829731624153,
            -0.0506521132141003,
            0.022334351013573037,
            -0.0018879280002642056,
            -0.024984584131319272,
            0.018853959530853528,
            -0.024786935370003038,
            0.003590944524618052,
            -0.009920433185977332,
            -0.013244790551790873
        ],
        "bias": 0.0
    },
    {
        "weight": [
            -0.02038993273436482,
            -0.005579403115152465,
            0.021842319942355394,
            0.039847027057851994,
            -0.03849785972677119,
            -0.029100196350913515,
            -0.03309075611230955,
            0.02415740958740529,
            -0.06537760699661399,
            0.05824870390178848,
            0.04928683126976075,
            -0.03503843413575208,
            0.05519210029315151,
            -0.00480657138174404,
            0.004805043555203888,
            0.009962135723840148,
            0.015812057010493267,
            -0.015098457291835933,
            -0.016640831624969297,
            0.010053106607162951,
            0.0017176558127961065,
            -0.012181040553619939,
            -0.009447794517861156,
            -0.021045435559899423,
            0.016426448188631367,
            -0.019132205803695918,
            -0.02993077829065516,
            0.02344813886809615,
            -0.03032204764077977,
            0.01812798559195046,
            0.030132402215008337,
            0.0011935455591425307
        ],
        "bias": 0.0
    },
    {
        "weight": [
            -0.04938946882531352,
            0.01324267270209417,
            -0.0025926758505459995,
            0.042690331374583786,
            -0.05012864450147876,
            0.0005376950018131666,
            -0.012633307301163575,
            0.04758876370990035,
            -0.06411906404048803,
            0.054683790339034616,
            0.05649435853196063,
            -0.03147046446955439,
            0.050125355536701506,
            -0.024078060827943826,
            0.0067062450156762,
            0.005791794619391167,
            0.01579900470121193,
            -0.04503897807089854,
            -0.024070304735037924,
            0.023044394254937622,
            0.007401357911575988,
            -0.0321879005015754,
            0.025676389941680405,
            0.004166213836614929,
            0.007320503100497225,
            -0.03907913873720059,
            -0.051711853774070504,
            0.006720692016861444,
            0.011045340774762342,
            0.008574120513975008,
            0.02748321764636039,
            -0.01492532117107736
        ],
        "bias": 0.0
    },
    {
        "weight": [
            -0.0436512431404105,
            0.0032160430625686547,
            0.016529746684333022,
            0.06032377229460891,
            -0.04616726976935299,
            -0.012729226945804523,
            -0.005349275514801533,
            0.06357527600480449,
            -0.061589372066178184,
            0.03614620466381325,
            0.047219594350730365,
            -0.03082682048271777,
            0.03974776667799567,
            -0.02594397722229111,
            -0.023545662060290642,
            -0.006098081578895617,
            0.021170949146286172,
            -0.04698986358859011,
            -0.04512775792967508,
            0.006395748392381225,
            0.003932302617980555,
            -0.010408049041944213,
            0.043444913257420455,
            -0.0011349547238241697,
            0.0121537227974096,
            -0.021904838555541074,
            -0.040939447741704944,
            -0.01177527399060905,
            0.019920223106242304,
            -0.02191942192958483,
            0.04851425166384186,
            -0.003898563961927303
        ],
        "bias": 0.0
    },
    {
        "weight": [
            -0.02890849961282393,
            -0.029537869619540476,
            -0.000541857806274636,
            -1.0791190411474766e-05,
            -0.051991993674885266,
            0.03366219691820502,
            -0.017225782251542504,
            0.03938199952051014,
            -0.018941196897647953,
            0.042177467098097055,
            0.04902345823849848,
            -0.0015529832323149025,
            0.02460750672072764,
            -0.004276597363382158,
            0.006748549595535499,
            0.021364188536090005,
            -0.00017051493427975507,
            -0.0352315677848569,
            -0.021176318876602096,
            0.002212410907581406,
            0.002762752524432084,
            0.03801597914368782,
            -0.0049201351147549425,
            -0.05756726760654973,
            0.0112790146947503,
            -0.007337058884285211,
            0.0004536524813128604,
            0.018988901664913172,
            0.006327294530845336,
            0.017246465135926765,
            0.0034716175935584877,
            -0.015201675377237158
        ],
        "bias": 0.0
    },
    {
        "weight": [
            -0.01683163331869317,
            -0.01022495290989041,
            0.0003486843031046384,
            0.015562201899122344,
            -0.05600604440432984,
            0.00774970289834279,
            0.020225881681498036,
            0.042355703701529517,
            -0.023511422722672735,
            0.02720597508753587,
            0.0447943322020872,
            -0.00808652840531312,
            0.03931988934216842,
            -0.002109889321303743,
            0.01931762632177074,
            0.019639179375215095,
            0.005131630085735105,
            -0.02647744545232667,
            -0.0011321297771759013,
            0.018124440678756577,
            -2.8590497693623248e-05,
            0.012040768067368162,
            -0.00560761575532483,
            -0.026241259392591126,
            0.016265667543172924,
            -0.028962396430964283,
            -0.032559722504836235,
            0.024290507121322302,
            -0.03032518365497837,
            -0.01957631985027842,
            0.016865303569474962,
            0.002331510728645088
        ],
        "bias": 0.0
    },
    {
        "weight": [
            -0.014375838194667982,
            -0.008333580573494608,
            0.003765757187010807,
            0.005712638748005235,
            -0.016549451358630358,
            0.003575784029818704,
            -0.012921474417032352,
            0.059221380876946776,
            -0.03607736143700497,
            -0.00817948995233799,
            0.036075363011591775,
            0.01793385130698878,
            -0.0019036887042554417,
            -0.02974414102833946,
            0.009305256885291402,
            0.008494126532097999,
            0.03255367983041268,
            -0.01075699323316792,
            -0.018875350301544008,
            0.002768668917439501,
            0.020566238725994977,
            0.00965072683365924,
            -0.005787946810704351,
            -0.027056641457553664,
            -0.010598666493525559,
            -0.01151529685879397,
            -1.247318829282949e-05,
            -0.0005459631390313059,
            -0.020152357995938515,
            0.011007686651936948,
            -0.0016766462222890229,
            -0.023207123478978416
        ],
        "bias": 0.0
    },
    {
        "weight": [
            -0.02045657675079657,
            -0.004950214799070724,
            -0.004031131813285539,
            0.03780681386183665,
            0.0021221101949913525,
            -0.01782687294554358,
            -0.016337333485743625,
            0.06351320655789759,
            -0.0064023510445811735,
            -0.0006398021468262582,
            -0.0043563219047231165,
            0.023370517826277307,
            0.0367226051647116,
            -0.015418620275929924,
            -0.020612049657372632,
            -0.0013943730816464,
            0.0039787474858090635,
            -0.04069180617550772,
            -0.0022136490036164646,
            -0.018094282803006376,
            -0.017092412274628762,
            -0.007371476102445249,
            0.02717154118815704,
            0.0003661408366258116,
            -0.016246737515761826,
            -0.040421850243262065,
            0.007394034776082943,
            -0.01995503404644012,
            0.013264398109178467,
            -0.046061330736344906,
            0.025989133957226507,
            -0.01563135778580689
        ],
        "bias": 0.0
    },
    {
        "weight": [
            0.0012064043712217381,
            0.005436933949630435,
            0.01566307889925163,
            -0.005640790288313703,
            -0.013858068442590942,
            -0.014996604074970941,
            0.00419098597982321,
            -0.021992907474831316,
            -0.025955842910699686,
            0.012915054290202822,
            0.0005169042580694682,
            -0.0228249200158246,
            0.01716682940909739,
            -0.009884433890141367,
            -0.007448655035857919,
            -0.019310666024690958,
            -0.004895661522125696,
            -0.0013567591181302373,
            -0.031499750238025294,
            0.010113510700331542,
            -0.011605097230367041,
            0.0018086145403971845,
            -0.0023434343093765232,
            0.008846689132730777,
            -0.022512872293403374,
            -0.005825109741748423,
            -0.012056568351379677,
            -0.02373445781861144,
            0.0035037944109221853,
            -0.02624407280830677,
            0.012182569429049207,
            0.009603660852241723
        ],
        "bias": 0.0
    },
    {
        "weight": [
            -0.015930192246656955,
            -0.003981505971369287,
            0.03411719508389948,
            0.033739908174787545,
            0.00183790760403188,
            -0.016178502873375963,
            0.01577906479823678,
            0.0172622358899006,
            -0.010623073112735757,
            -0.025917576438260353,
            -0.009354105439861565,
            -0.024791397404794913,
            0.04117502153472787,
            0.0026353944035954857,
            -0.016916443006312776,
            0.014705611700720728,
            -0.013563842210534163,
            -0.009171383837034584,
            -0.014599533604103453,
            0.011423812668053238,
            0.012123241662447003,
            -0.0012586944790038263,
            -0.0017645749470506088,
            0.0146494031125204,
            0.02405428708065597,
            -0.01485916339494506,
            -0.039970040454862445,
            0.027978894402038837,
            0.016994811865425,
            0.005012808029780709,
            0.019956341546571988,
            0.031709528989432856
        ],
        "bias": 0.0
    },
    {
        "weight": [
            0.00013159599777741888,
            0.0055222735036870516,
            -0.00549673126268437,
            0.023893589287836036,
            -0.020832053041603012,
            -0.02587721702090182,
            -0.01850172249972638,
            0.021248209493223355,
            0.024303682933168296,
            -0.033489939493922226,
            0.03409906207926029,
            -0.00793650773680341,
            0.016526478244412973,
            0.02458035995452807,
            -0.009011379188780127,
            0.03360203086345852,
            0.023034182319646275,
            -0.00805923738570755,
            -0.02707041419037121,
            -0.018681365473688212,
            0.023269920675128723,
            -0.005173156592856242,
            -0.0059564838168025755,
            0.01830465538720084,
            -0.03417748021297782,
            0.005790990601247403,
            -0.014595693101693692,
            -0.04360503676641465,
            -0.026662899689927654,
            0.017011810100553786,
            0.016329288467053824,
            0.002328634592463996
        ],
        "bias": 0.0
    },
    {
        "weight": [
            -0.041383314501674706,
            0.0012592437413615043,
            -0.00309156761862673,
            0.010780856561789525,
            -0.013161749224756403,
            -0.012248085794110521,
            -0.016800322818932623,
            0.032282968693119383,
            -0.007943299271128567,
            0.0010504628542546224,
            0.024453643993507516,
            0.006823638674843492,
            0.046930003581667996,
            0.012947401288837174,
            -0.01073608357462274,
            0.03927141942228929,
            -0.006773961471635925,
            -0.015370718292800758,
            0.008449904612192492,
            -0.012042695017564654,
            0.004331720410490551,
            -0.015422660134881031,
            0.03446107368917801,
            -0.01181670845915454,
            0.026146566609944612,
            0.007803181747556558,
            -0.044221679461494634,
            0.04836947771250246,
            -0.008268232810443808,
            -0.019351592538400755,
            -0.028010778798473815,
            0.03112476549125282
        ],
        "bias": 0.0
    },
    {
        "weight": [
            -0.012552193011430669,
            -0.019883540655083125,
            -0.008270085205589185,
            0.024626623729242576,
            0.003191612657904435,
            -0.006484507026564052,
            0.02050861038228149,
            0.008890606920801439,
            0.0041380549197339205,
            0.018979594856905528,
            0.02489831238564955,
            -0.003802035453504462,
            0.06473093131271136,
            -0.01652170666238207,
            0.009800059749841364,
            -0.015308036535307228,
            -0.019435644224440052,
            0.0030851253453754507,
            -0.027881570823850232,
            -0.013851833469061358,
            -0.013787092545179938,
            -0.01402325491952477,
            0.020066458499582513,
            0.008412825364063277,
            0.0193478132756263,
            0.01029707183810436,
            -0.04405891315335542,
            -0.005240266458492752,
            -0.025809965536822157,
            0.01985731527454315,
            0.010507590484891012,
            0.017618178847409904
        ],
        "bias": 0.0
    },
    {
        "weight": [
            -0.023880949686404807,
            0.012742450190470185,
            0.035506806232754144,
            0.05022599483722466,
            -0.012790481926700775,
            -0.013406919211136037,
            -0.018945233195288284,
            0.03670609024955244,
            0.012985743036206187,
            0.030578935121693837,
            0.011701856278451973,
            -0.030115724612152353,
            0.05817215937240709,
            0.02785956916705658,
            0.022268429533084687,
            -0.0010283220065065441,
            0.0060465250166790085,
            0.011227235610593578,
            0.026564921486442315,
            -0.011681837742541763,
            -0.02077414092079714,
            0.022981460426342373,
            0.028904475975518405,
            -0.019777790613924547,
            -0.004057003973768268,
            0.017522401784393363,
            -0.02419448368625926,
            0.034806983526062034,
            -0.048283956608867834,
            0.009925805866062265,
            0.005148206275881589,
            0.02631127383177431
        ],
        "bias": 0.0
    },
    {
        "weight": [
            -0.014252586623246565,
            -0.00450502473657549,
            0.03754230150898872,
            0.0441056911296655,
            -0.0027446270458241937,
            -0.030426803420081704,
            0.01634785398275073,
            -0.010550982301811514,
            0.010162080036749763,
            0.02844148196051898,
            0.0229762578900202,
            -0.02432613361696324,
            0.06678612786569725,
            -0.012451381083059354,
            -0.007388909296899342,
            -0.02811511295762303,
            0.012726396361526627,
            -0.03721029475131317,
            0.023989518851628894,
            0.018027281653677122,
            -0.01876674629829782,
            0.006076254851406354,
            -0.00339389135638634,
            -0.0055206287472764955,
            0.016679393936625275,
            0.02406552682401743,
            -0.04062915608191637,
            0.04385444513326088,
            -0.0322611952320884,
            -0.019786048998976968,
            -0.02689941381352145,
            0.019835186652770523
        ],
        "bias": 0.0
    },
    {
        "weight": [
            -0.03543469105953671,
            -0.0031289116800276183,
            0.0009042315887160179,
            0.055975623531048124,
            -0.03229322195360633,
            -0.02329551207868835,
            0.014439045292967117,
            0.06822103148711652,
            -0.0191433126681221,
            0.07367247747010625,
            0.020634591844897816,
            0.012168597720806461,
            0.0623737553069091,
            -0.005542968559031301,
            0.009079798674207204,
            0.0022083954172856623,
            -0.007973265159225855,
            -0.02670399381585288,
            -0.01587933054790089,
            0.011026711666752415,
            0.0030662155592951737,
            0.03509776051005816,
            0.00117098418241059,
            -0.014594040400513065,
            0.02018552264365397,
            0.003549912411598949,
            -0.04140210940428614,
            0.02280782321001927,
            -0.013925182116194734,
            -0.0041786869608324015,
            -0.0014394495875161934,
            0.019299123273195558
        ],
        "bias": 0.0
    },
    {
        "weight": [
            -0.0467001781458038,
            -0.003581953174598021,
            0.04486665626405685,
            0.05637430582766953,
            -0.027525017185855333,
            -0.020998174765836774,
            -0.0046516692924180696,
            0.049343816056606885,
            -0.01249272468579734,
            0.031882499503188735,
            0.044314850466686165,
            0.011435738293402282,
            0.020347772688001767,
            -0.010357014636529454,
            0.019042456120814913,
            0.011561994847065897,
            -0.012904607526527933,
            -0.007341116868836064,
            0.0045583242203202185,
            -0.0003734522622080347,
            0.025400461158852975,
            0.029145251784618336,
            0.042444269172490286,
            -0.012647750071876698,
            0.030088861231255287,
            -0.004385909452494809,
            -0.017847694997998646,
            0.01842717939966019,
            -0.017179593528790636,
            -0.026837703991515402,
            -0.023105351002749113,
            -0.017137235682013013
        ],
        "bias": 0.0
    },
    {
        "weight": [
            -0.017072355109446574,
            0.01573372217664505,
            0.03778602961059199,
            0.028765231593621425,
            -0.04089203005858519,
            -0.01824069020846439,
            -0.011398425081651262,
            0.06049656300199876,
            -0.008009831088329828,
            0.03259945633260365,
            0.07381914768593695,
            0.006821879288614981,
            0.06360596677598176,
            0.01642411540124035,
            -0.013503315684393499,
            -0.018661470393298827,
            -0.03747916292764967,
            -0.040066381630700115,
            0.006787482467846159,
            0.0316847846192434,
            0.005532554956736145,
            0.023858159681658744,
            0.033843262440838545,
            -0.04489264549579569,
            0.025901116313277264,
            0.02757792668956511,
            -0.013061657601556939,
            0.02945465643703404,
            -0.018376243824343223,
            -0.0009857980833579336,
            -0.002155380612870109,
            0.0008442041779865297
        ],
        "bias": 0.0
    },
    {
        "weight": [
            0.01069833591768964,
            -0.020331226402993445,
            0.009131431217725,
            0.0367338463449509,
            -0.0016960342767908829,
            -0.02099750430632674,
            -0.005198661597343499,
            0.06993402965520808,
            -0.019075465001537385,
            0.06096035165587648,
            0.047162759821329434,
            0.01944621006418059,
            0.022598698566005316,
            0.0208831686920841,
            0.016406912759700815,
            0.01117275582213081,
            0.011133226552043516,
            -0.027140134388856214,
            -0.014194502133460895,
            0.01075991504670887,
            -0.019703942560709498,
            -0.0016452763640702971,
            0.018130557459123352,
            0.00928796876418279,
            0.01948475802049251,
            -0.00873128592626064,
            -0.050941178947884164,
            0.037494046146215744,
            0.0192621479273047,
            0.013267311030592905,
            -0.02284869549396966,
            0.007320669114555594
        ],
        "bias": 0.0
    },
    {
        "weight": [
            -0.0494363618281106,
            -0.026813599491485755,
            0.03617349921687958,
            0.06931784916887318,
            -0.038412874982529065,
            -0.025527720255641696,
            0.004078355458671158,
            0.05048459127968251,
            -0.002070762397479475,
            0.04222077508568699,
            0.04668672281485919,
            0.022476997380593187,
            0.030402734505884557,
            -0.010859795733011646,
            -0.018722250632129067,
            -0.018160216128238132,
            -0.011489143397756807,
            -0.007015288381156566,
            -0.02637777890963217,
            0.03263913449690285,
            -0.02619885583650905,
            0.017636709172873907,
            0.020551618272824597,
            -0.04941960535561244,
            0.033805368031320886,
            0.011453536598497304,
            -0.015850183849604096,
            0.018126961754842085,
            0.00012269460210069484,
            0.005456251977346447,
            -0.022682290858989995,
            0.015173125443863532
        ],
        "bias": 0.0
    },
    {
        "weight": [
            -0.029301558361360287,
            0.029433605420668228,
            0.014249434983764532,
            0.012140752256983297,
            0.0063638239436265035,
            -0.00493765920196467,
            -0.024397082168072674,
            0.026760976430357464,
            -0.013847860770061797,
            0.07245337027686216,
            0.055933562358171214,
            -0.01220829633255276,
            0.0508362335763308,
            0.028574036078514265,
            0.022281493922899614,
            -0.007492159251924569,
            -0.004764002537456188,
            -0.022683456006013313,
            0.019832577588361683,
            0.008692436854153192,
            -0.022221451905587927,
            0.04856003445245636,
            0.010649384771097802,
            -0.00993522578285875,
            0.0006107361858028824,
            -0.01867583372032806,
            -0.013474014513432619,
            0.03285234909124533,
            -0.035170034970200915,
            -0.048272488825509934,
            -0.013355520017219867,
            0.0056360745847241715
        ],
        "bias": 0.0
    },
    {
        "weight": [
            -0.03481156274146197,
            0.021305038047552138,
            0.04575671806815616,
            0.00024528615438422545,
            -0.014335684245282714,
            -0.0008426321391973732,
            0.011555561350213997,
            0.04252775243615264,
            -0.016897784727212154,
            0.050821429922539775,
            0.05704142240625641,
            0.02527769322029726,
            0.032377211309718795,
            0.019078545616841344,
            0.005030238003561571,
            -0.037704711274343466,
            0.026333620186511388,
            -0.015659431158856197,
            0.01991504143417087,
            0.017633425043345214,
            -0.03088083691523562,
            0.04154756716061195,
            0.005404537540341541,
            -0.008980145574262344,
            -0.03084727003989108,
            0.006961805119529534,
            -0.0388485858367138,
            0.02203923271927682,
            -0.00019654728857822288,
            -0.0388704295181647,
            -0.02653982165141038,
            -0.0036651025559107857
        ],
        "bias": 0.0
    },
    {
        "weight": [
            -0.015043239762032317,
            0.03174577196759863,
            0.0211644588897888,
            0.023238381445954855,
            -0.018805648144595875,
            0.010607799975951297,
            0.019497484571556534,
            0.06518762437532154,
            -0.04996652146433902,
            0.010604840630293948,
            -0.007397362313086536,
            0.01832830618397533,
            0.03629890920412239,
            0.01685143475806028,
            -0.011930165389059125,
            0.02234840411971123,
            -0.044676440638383434,
            -0.06096805104185052,
            -0.017005418971837136,
            0.0048156766303002856,
            -0.022199028549207137,
            0.04081301286873873,
            0.02449335894342126,
            -0.0027181791937414207,
            -0.02251701374088624,
            -0.020017947542868616,
            0.0019822414358789398,
            0.012047097779766126,
            0.0234774490849946,
            -0.03447313571269653,
            -0.03371911994448881,
            0.017119930466598574
        ],
        "bias": 0.0
    },
    {
        "weight": [
            -0.05453599969092679,
            0.03744586954883477,
            0.05462483035934877,
            0.04722444650634371,
            -0.009606352297678436,
            -0.0010019336715901867,
            0.001553436261437886,
            0.017110621393000583,
            0.0028698011851892302,
            0.03133826318320931,
            0.032466122127973084,
            0.008191339292040885,
            -0.005304592161210505,
            0.0022831876804120612,
            -0.02160780002735655,
            0.025737295229856183,
            -0.05360357041502694,
            -0.06603652446212596,
            -0.01673425971274814,
            -0.008265881219340347,
            -0.0060834083794971535,
            0.0009977043088272128,
            -0.007683684445828684,
            -0.03373998964244742,
            -0.0027488279781763742,
            -0.07105218408236139,
            -0.0012333874301329656,
            0.009436723931192872,
            0.03944107600133889,
            -0.03740354483431504,
            -0.050756008219991024,
            0.01793521383038696
        ],
        "bias": 0.0
    },
    {
        "weight": [
            -0.04360509518610856,
            0.06205734290550784,
            0.02135623123395469,
            0.0422490808094172,
            -0.012133169045468191,
            -0.016960548719487024,
            0.015574101190637157,
            0.037553085488951095,
            -0.022283004310261065,
            0.024560671007983002,
            0.011995251200843533,
            0.008586137754970129,
            0.014678211937894493,
            0.02651073372430198,
            -0.03143255914979099,
            -0.011708303258266682,
            -0.0318698369913944,
            -0.05781857000720096,
            0.01731913617882063,
            0.0031298729884400595,
            -0.022475519992609244,
            0.031331160460906234,
            0.02795738636203206,
            -0.0007346205274610633,
            -0.00471662604643701,
            -0.02437886055815296,
            0.012381154012272516,
            -0.0056458902780773135,
            0.05309593165974629,
            -0.09297902880509064,
            -0.004490007851899875,
            -0.008206137830861576
        ],
        "bias": 0.0
    },
    {
        "weight": [
            -0.0007335862371009259,
            -0.01600974772932324,
            0.030726077900721703,
            0.02725505689617146,
            0.014317601122938737,
            0.01818288668087184,
            0.00837208788192112,
            0.024877606999772147,
            -0.015196072848596115,
            -0.011373614144817168,
            -0.005469473416436575,
            0.026181946493867292,
            -0.018363740486343653,
            0.028140111980672306,
            -0.03439203075167604,
            0.022773038283690043,
            -0.005471110511965875,
            -0.04065028478870464,
            0.020500643712461082,
            -0.012385119853958767,
            -0.010013746209265399,
            -0.003200888447713076,
            0.017400666090749427,
            -0.0029472208802484795,
            -0.024749235370459727,
            0.008415175242230996,
            -0.01658892462037033,
            0.038811401669448936,
            -0.0022915110452938225,
            -0.005411809647795349,
            -0.0382655616573709,
            0.022156531109395264
        ],
        "bias": 0.0
    },
    {
        "weight": [
            0.020988331871635863,
            -0.04343011417539025,
            0.030738820180941664,
            -0.005707728611670664,
            -0.0014846096457716705,
            -0.0020811933230765905,
            -0.0057629639071983315,
            0.02675085597298238,
            -0.019958952126581133,
            0.010757996752984816,
            0.0008217475982608957,
            0.014437282067459593,
            -0.005140133780169174,
            0.003944544072659244,
            0.016889415682466283,
            -0.04400292773079033,
            0.013537580291092512,
            0.0029873385429686618,
            -0.005039119932346055,
            -0.01944992657963746,
            -0.00743069738116515,
            0.026172453240889227,
            0.005696973912536925,
            -0.009400721667391608,
            0.016925040334544148,
            0.006631301044318263,
            0.0016444526314324296,
            0.03252064129364352,
            -0.016711453594979463,
            -0.041519693896640716,
            -0.0027514913963909687,
            -0.010818129371783542
        ],
        "bias": 0.0
    },
    {
        "weight": [
            0.005615310832522564,
            -0.007701032579944458,
            0.03344966110102985,
            0.006298552600337871,
            0.038717539812720435,
            -0.033403888482847276,
            0.012257055490934105,
            0.003112466807947917,
            -0.021534692579363197,
            0.05124661473438157,
            0.02206864563938602,
            0.015932400060419454,
            -0.007522656186084998,
            -0.013805609197948732,
            0.015044499714544681,
            0.003084935020312169,
            -0.018912638458517674,
            -0.005038010279148342,
            0.00815826195901465,
            0.01642737074707706,
            -0.020370231026363397,
            0.02995255928237669,
            0.03252171546774029,
            0.027960265200738098,
            -0.008007990089450835,
            0.050881468742008606,
            -0.032080753209249,
            0.058682507381697065,
            -0.004560323767247845,
            -0.054749679440346026,
            -0.028043063009662802,
            -0.017471545631272914
        ],
        "bias": 0.0
    },
    {
        "weight": [
            -0.04386464285132131,
            -3.146415400170009e-05,
            -0.01636693890223092,
            0.007029611844522838,
            -0.009927516394824724,
            0.015405974944749939,
            0.013719880165241893,
            -0.01847687859966295,
            -0.07175227208646075,
            0.04843200525533555,
            0.015489339827748486,
            -0.050038283438961335,
            0.02328867762443809,
            -0.016777177356054582,
            -0.003251380252081787,
            0.0009993928541942667,
            -0.05507148276875083,
            -0.004459429630979997,
            0.0024605410141902715,
            0.027323044810233958,
            -0.010560551465050333,
            -0.022789545336356725,
            0.034249163743742046,
            -0.04455254734750373,
            0.03031855130988449,
            0.014784078447415607,
            -0.00729213029803867,
            0.06078524531146494,
            -0.01294876815545001,
            0.03792291350070797,
            1.8200794217973037e-05,
            0.022103347795875573
        ],
        "bias": 0.0
    },
    {
        "weight": [
            -0.03319391196405821,
            -0.010036416112092933,
            0.011859950096185227,
            0.026376669747135578,
            -0.022606707489971012,
            0.04238306780562884,
            0.005096482871708205,
            -0.04228304094332609,
            -0.07352248237695543,
            0.0566830937563439,
            0.07696553421947505,
            -0.04429245103477009,
            -0.002778192883787086,
            -0.007993529494501746,
            -0.01944539668930218,
            -0.01642055360473045,
            -0.009646438229201497,
            0.00946432231677199,
            0.032219970951332035,
            0.04065089488646072,
            0.005562391313484326,
            -0.04315102214789057,
            -0.0025579679728760345,
            -0.029833287344955037,
            0.04621247940190656,
            0.005644058644024919,
            -0.0896857575775522,
            0.08992127615194229,
            -0.010138236279202979,
            0.07424743222283386,
            -0.031150223973614263,
            0.030888917819310358
        ],
        "bias": 0.0
    },
    {
        "weight": [
            -0.027281966579759447,
            0.00023221872584394313,
            -0.0064974060431534685,
            0.012530854702388608,
            -0.053690692562799916,
            0.01570754643693033,
            -0.011858067217731723,
            -0.01851223668660936,
            -0.041082892354365456,
            0.05913109590304491,
            0.054692542453432386,
            0.010715340897353423,
            0.04207891414211527,
            -0.033552792377926244,
            -0.02111063822262107,
            -0.01445168093434719,
            -0.00035576293935112106,
            -0.002775591771367375,
            0.0007039511907971694,
            0.03316352760938969,
            0.008993250411156159,
            -0.033494834348833095,
            0.03576194206796454,
            -0.0432588332277336,
            0.045277869583368775,
            -0.036497895587285334,
            -0.06269419836750882,
            0.029981277260343678,
            -0.04013647584576092,
            0.02527530001653276,
            0.024718392024580888,
            0.003204411090127453
        ],
        "bias": 0.0
    },
    {
        "weight": [
            -0.058127525880344054,
            0.004499521737346803,
            0.04582959035734345,
            0.0211372483867432,
            -0.011216694975618247,
            0.07078417729165025,
            -0.019179177501440398,
            -0.025114323846716982,
            0.001898023962165699,
            0.01738726715213057,
            0.02572850073893343,
            0.009099018215280157,
            -0.013646423831974114,
            -0.007956604055031152,
            -0.02903224137803215,
            -0.00831657238830321,
            -0.054535724411224444,
            -0.002093395619287469,
            -0.00435999769455753,
            0.027512799870831266,
            0.00448629389866351,
            -0.007562292909398424,
            -0.008140209428776626,
            -0.02541186469841925,
            0.012272125999030615,
            -0.01029304808829313,
            -0.08269688719554076,
            0.06865901497592238,
            -0.00767612251928597,
            -0.01470781433180415,
            0.012702548183220063,
            0.003980061133367345
        ],
        "bias": 0.0
    },
    {
        "weight": [
            -0.005044500040553854,
            -0.006460250966431448,
            -0.01486712573697933,
            0.033116845346307204,
            -0.0012140070155135965,
            0.037649990611655776,
            -0.013892713382095934,
            -0.025877521486327233,
            0.0007057213875137707,
            -0.046891198770829166,
            0.025587493652424874,
            -0.03376569254496782,
            0.026132498181913228,
            0.009466122041170156,
            0.008634370571186878,
            0.0202190020368185,
            -0.005196678115579685,
            -0.03328406680224457,
            -0.010897646666568594,
            -0.0007827877905065446,
            -0.022594068039856256,
            -0.030285588083235764,
            0.015205801997840933,
            -0.03552315634192768,
            0.0015242714751456776,
            -0.004700565475127477,
            -0.0359313899593752,
            0.02256817943406414,
            0.013371167035662856,
            -0.030840721588119055,
            0.017115924735774182,
            -0.007751878684088657
        ],
        "bias": 0.0
    },
    {
        "weight": [
            0.026195812440640124,
            -0.05776108582291751,
            0.008823526124208475,
            0.045709489388134635,
            0.04533950095743753,
            0.0004809125374422006,
            -0.023140033147287666,
            0.035961934733554794,
            0.02600663936760922,
            -0.04066935400783934,
            -0.026919502041595992,
            -0.020540176713215664,
            0.016725835235082184,
            -0.031661139121522915,
            0.03471967038447342,
            -0.032635983132014316,
            0.05157305840205494,
            -0.00407381155718132,
            -0.02565543201960081,
            0.039657024666214895,
            0.007301138612504916,
            -0.013557739113958859,
            0.019893192451813996,
            -0.021690719865211823,
            -0.00803776144762562,
            -0.004628916771088402,
            0.016277296347823142,
            0.009090312159617225,
            -0.006503946344161731,
            0.007814222185521785,
            0.02082524363043934,
            0.002138742945116495
        ],
        "bias": 0.0
    },
    {
        "weight": [
            0.027490784128410807,
            -0.04687117854256346,
            -0.018797168417353804,
            -0.016056097608352447,
            0.013319390462089584,
            0.0006244817855863699,
            -0.02890921999848472,
            -0.00712989024089541,
            -0.006607633738831179,
            -0.09313334169625681,
            -0.010878341270380964,
            0.014715778309725138,
            0.017187354779929873,
            -0.048406832766665485,
            0.014610604917600975,
            -0.011423917228796928,
            -0.00492796380583206,
            -0.02883129862281807,
            -0.015474043604094304,
            0.0038668386636465046,
            -0.008517340914224106,
            -0.05595515509374918,
            -0.005945573947320341,
            0.020042175519422004,
            -0.025095030846112483,
            0.01367317405177401,
            -0.03585156990888315,
            -0.015662793515901906,
            0.0021058976856130423,
            -0.02156204784677979,
            0.02057802379568876,
            -0.004332088423518068
        ],
        "bias": 0.0
    },
    {
        "weight": [
            0.05344596072703118,
            -0.04558776171694277,
            -0.006439594202626005,
            0.004576423169174565,
            -0.0026574912349630803,
            0.009486266591104887,
            0.00818114235381465,
            -0.014071860228271942,
            0.03770163476850288,
            -0.08459884173554814,
            -0.006190670221379006,
            0.041084013257712035,
            0.02220000331137833,
            -0.03455060099057599,
            0.014897573235913297,
            -0.003619884205173077,
            0.003042600109646717,
            -0.04647447748132878,
            -0.0038456659281220383,
            -0.004428919650961389,
            0.023365000603900583,
            0.003413513997034875,
            0.020242186131637203,
            0.028268614453229087,
            0.02214402426299065,
            -0.00865714688691832,
            0.010545283559700074,
            -0.032014920236147076,
            -0.024510341333341817,
            0.019424962374359235,
            0.028692038670707968,
            0.02319433107848472
        ],
        "bias": 0.0
    },
    {
        "weight": [
            0.019838808925384623,
            -0.01665894752090706,
            -0.018638964189306297,
            0.024018359684713338,
            0.05474348890190705,
            -0.0323275896413831,
            -0.011906292933377421,
            -0.017223198174124713,
            0.004487526388333607,
            -0.05580831580541042,
            -0.043054444787740204,
            0.033316484852884194,
            -0.021841447118859558,
            -0.008054438208954543,
            -0.02407235964814781,
            0.029835454076732673,
            -0.011345816866827141,
            -0.03485877056560561,
            -0.006500914652376478,
            0.010219823974553269,
            -0.006979276554831792,
            -0.0071381405730074725,
            -0.010107381369925722,
            0.026864770659257218,
            0.000351207992310315,
            0.024550996595365814,
            0.03549392804768861,
            -0.017135460256503032,
            -0.005766224890510835,
            -0.024500973367934838,
            -0.028242383127729937,
            0.007211016809497436
        ],
        "bias": 0.0
    },
    {
        "weight": [
            0.037613670333406304,
            -0.0393838748244468,
            -0.007359835563005202,
            -0.007701081976485514,
            0.008926148560025039,
            -0.003430450989270766,
            -0.02104826623466778,
            -0.02162466463581294,
            0.023920872826020248,
            -0.06308397816967891,
            0.006216894973183203,
            0.011178095901496073,
            -0.028049825356577036,
            0.0005552298728003901,
            -0.034418428893274775,
            0.016432164281653824,
            -0.0422059598177483,
            -0.009910916640340595,
            -0.024995590216104327,
            0.007525885140471964,
            0.009897848278515522,
            -0.023152674973668113,
            0.013457082999602153,
            0.021441123621041967,
            -0.0018180256727055978,
            0.012073023478645476,
            0.03654321212073511,
            -0.02466603812394974,
            -0.015686774833328844,
            0.10392912415884759,
            -0.011376208873752918,
            0.02543771991797981
        ],
        "bias": 0.0
    },
    {
        "weight": [
            -0.03333423056514229,
            -0.01805446957287997,
            0.018245265077637515,
            0.006642387247906093,
            0.012661177859539097,
            -0.04754926344858142,
            0.021162774285377554,
            -0.025216032069788688,
            0.030965372475838592,
            -0.05793866696449636,
            0.003532724396213364,
            -0.005473352210946864,
            -0.006514732817787616,
            -0.02027397115806055,
            0.006534478191776482,
            0.029100658141667263,
            0.004742270076491693,
            0.006656324566283738,
            -0.0007762326666396629,
            0.02240707694605093,
            0.012407341781735538,
            -0.02574808974692245,
            0.022749089287692738,
            -0.008740173988542219,
            0.020556310893220537,
            0.014129288496056627,
            0.027835106729751292,
            -0.11746779527114838,
            -0.044928939315538714,
            0.04642423506130439,
            0.028693801878187014,
            -0.018539821093432576
        ],
        "bias": 0.0
    },
    {
        "weight": [
            -0.03941241763456587,
            -0.029527264543914106,
            -0.009814003033378498,
            0.013764780357814192,
            0.0104203270360868,
            -0.015275524511959519,
            -0.005795473225558969,
            0.03388494844211208,
            0.04961775287507035,
            -0.01461401481433836,
            0.046706562785125555,
            -0.007281468538160262,
            -0.013584309373861826,
            -0.021696686509467517,
            0.008205418756007098,
            -0.012245537742943855,
            0.0037611445815017163,
            -0.03071793781507123,
            -0.013238636047645937,
            -0.004685453753979937,
            -0.013330740352088062,
            -0.026569218377767167,
            -0.006729637658561874,
            -0.003822712490098609,
            -0.017389153682838186,
            -0.05955931129948099,
            0.006459802995461005,
            -0.034021010621349795,
            0.0074737145821273,
            -0.024458478632987973,
            0.020086825447834692,
            0.01044579181712399
        ],
        "bias": 0.0
    },
    {
        "weight": [
            -0.020574588584197046,
            -0.04188201675507997,
            -0.015308588093710038,
            0.008666507698979392,
            -0.017035136527286762,
            -0.013536257078549774,
            -0.0006516174993845036,
            0.01880411430004433,
            0.015101682419515984,
            -0.06910593193283274,
            0.01040002727134493,
            0.00047101432258606166,
            0.03042863590097133,
            -0.008161939890000053,
            0.0008198826709611078,
            0.02978640402771623,
            0.007585465871218119,
            -0.031114715086679817,
            0.02454697364147993,
            -0.018562630136411944,
            0.020020232063238365,
            0.009145895185314763,
            -0.0004767987447614404,
            -0.0364368361043502,
            0.01671292699896311,
            -0.007930313287577583,
            -0.016649210307458938,
            0.010947659483206215,
            -0.018785535706079638,
            -0.014002959284204574,
            -0.0271450370268595,
            0.007802454392361198
        ],
        "bias": 0.0
    },
    {
        "weight": [
            -0.019735998101525026,
            -0.025894735106125905,
            0.0009430318861123304,
            0.0015839456091068294,
            0.023216778331628926,
            0.01642513208185989,
            0.02183330664174613,
            -0.04048453157479252,
            -0.004063709934107114,
            -0.030816702742953995,
            0.018958096023596785,
            0.012923464704905031,
            0.041842610218122724,
            -0.029166134218104725,
            -0.013453363628061543,
            0.044407820989815855,
            0.0020056052613275036,
            -0.017271936659357726,
            -0.016240818888130115,
            -0.001344078469030451,
            0.014346974725877766,
            0.004707950891263997,
            0.0050185250685120955,
            -0.018507771583063198,
            -0.02378817767310593,
            0.011706999624935491,
            -0.037200416013260185,
            -0.008581754606907351,
            -0.031445877625580036,
            0.015897514648643214,
            0.001571259382109543,
            -0.0042054961364337146
        ],
        "bias": 0.0
    },
    {
        "weight": [
            0.007924383656672298,
            -0.020210573386631448,
            0.004913821668522542,
            0.032647552817751606,
            -0.025110960335012464,
            -0.015603516327660015,
            -0.014126409719489764,
            -0.04306213060222679,
            0.028880852776663905,
            -0.011254145725296958,
            0.019601470307823964,
            -0.018770982578594195,
            0.01668353107413587,
            -0.0027805953763496657,
            0.021430921269042252,
            0.0014617580339225263,
            -0.01673276464909122,
            0.00238132954030451,
            -0.010194908112520627,
            0.002905065660615992,
            -0.028779285636083247,
            -0.008197088636849008,
            -0.005219052490658606,
            -0.02074834010639257,
            -0.00462018164307934,
            -0.029376723346973797,
            -0.025094442449029072,
            -0.015087887706592328,
            -0.02934544388898287,
            0.013279733325872085,
            -0.013617088638760853,
            0.014939063875457572
        ],
        "bias": 0.0
    },
    {
        "weight": [
            -0.049745432255295444,
            0.01068317548408194,
            -0.008517031807534211,
            0.03912064594873776,
            -0.007439117086083376,
            -0.01728824597479836,
            -0.010103681552805483,
            0.03330116655046556,
            -0.019901566950360664,
            -0.005357276681956316,
            0.05120428588307364,
            0.025935782780970616,
            0.06399563300847592,
            0.01208193418307946,
            -0.02507037854486613,
            0.020905322800478156,
            0.015146607924955131,
            -0.016797898508902526,
            -0.01754430416731485,
            0.017350499269828464,
            0.0070071912087668635,
            0.022816722792611564,
            0.009806807684913418,
            -0.02393604947922238,
            -0.021843407682177813,
            -0.009890627980732382,
            0.004875780337202247,
            0.038481620871633135,
            -0.02514324542470032,
            0.025142166102214782,
            -0.005467716044544526,
            -0.010693939017996451
        ],
        "bias": 0.0
    },
    {
        "weight": [
            -0.03726832949636884,
            0.03186686547034108,
            0.008737091327075482,
            0.05777310582946307,
            -0.011262578018474719,
            -0.04765427702669825,
            0.013711936786063054,
            0.07556352764771333,
            -0.0344132431271244,
            0.03816936751851011,
            0.06184700416563651,
            -0.006765926975805418,
            0.061245862311934546,
            0.038078315433231515,
            -0.021740715504399277,
            0.00322627204267281,
            -0.0008785945281845495,
            -0.03711447698279411,
            -0.017773991620498707,
            0.03799123777880614,
            0.00014144098088191579,
            0.048502764249541065,
            -0.0022439813110523323,
            -0.0004534372575565886,
            0.025371760895735375,
            -0.005243642093475623,
            -0.01645442637615415,
            0.021284828962232955,
            0.012459008369835938,
            0.0037376362078956945,
            -0.023865009666574614,
            -0.015848010367299395
        ],
        "bias": 0.0
    },
    {
        "weight": [
            -0.018569657187006174,
            0.0009240137858893006,
            0.011513999447100517,
            0.017999361683417512,
            -0.02739029166975148,
            -0.015732328845306107,
            0.00857069924803158,
            0.06714334281879615,
            -0.033052307649493386,
            0.029339739160356385,
            0.03355632375929643,
            -0.005965386365794035,
            0.0694494955145744,
            0.0026499760278290174,
            0.0055168205773262315,
            -0.008824145017290725,
            -0.03128339767687804,
            0.001674558275396897,
            -0.034686438833398586,
            0.016526197186486603,
            -0.01961727444760928,
            0.00677269662897363,
            -0.007323046271605718,
            0.01183056456429257,
            -0.0013568669056956742,
            0.022447693395905282,
            -0.053902515235655105,
            0.021544126637930247,
            -0.006950479427613677,
            -0.011924748995940551,
            0.004445850408023097,
            -0.015445037206069268
        ],
        "bias": 0.0
    },
    {
        "weight": [
            -0.004088175826463385,
            0.01660071186823199,
            0.024389008642564654,
            0.03207849215365021,
            -0.02167609457796251,
            -0.018105542819592188,
            -0.023840515436334038,
            0.054872774015842056,
            0.002204108001552485,
            0.05939332189300003,
            0.05364680385362226,
            0.025726261408154094,
            0.045060648695842274,
            0.02707026753050576,
            0.010358387599171692,
            -0.016511145038762783,
            -0.012170741217203622,
            -0.028252872586481476,
            0.009686116519043733,
            0.03746000702489197,
            0.020614621033287803,
            1.1750910101663405e-07,
            -0.00036624371998042634,
            -0.007533805795351172,
            -0.002895661862498379,
            -0.01510669948848331,
            -0.00334866638939343,
            0.002694767343542695,
            -0.022911623392584807,
            0.0028580558163392466,
            -0.01281687705438271,
            -0.0029553868481671363
        ],
        "bias": 0.0
    },
    {
        "weight": [
            -0.02924871519499071,
            -0.007527680623647809,
            0.023324459134272668,
            0.06755547721441141,
            -0.05034015052776445,
            -0.03504034492948857,
            0.013336609522815289,
            0.05436237905010737,
            -0.030218327225894768,
            0.06971798956976007,
            0.05371739074417428,
            -0.005353227846262782,
            0.04051216505114931,
            0.004970877633023853,
            0.007270699552322628,
            0.012330040196103939,
            -0.0037762677355743517,
            -0.03635830756281197,
            -0.033187152371799734,
            -0.004998423452901843,
            -0.02025884315697063,
            0.03963919078708258,
            0.05471929742111078,
            -0.029454104892607448,
            0.022927551862377493,
            0.01689827709668115,
            -0.030198386869305413,
            0.006481686632872789,
            -0.017119065712816857,
            -0.0042087682911663565,
            -0.02418222047795965,
            -0.006000550236755633
        ],
        "bias": 0.0
    },
    {
        "weight": [
            -0.031168648819292072,
            -0.023455275368390854,
            0.01497485702329873,
            0.05918879378198991,
            0.013439209023190186,
            -0.009746825870470108,
            -0.016823143118059963,
            0.06340812131417292,
            0.01217480054410817,
            0.05330185898365154,
            0.021868892032536176,
            -0.010316942432233234,
            0.025989194660276677,
            0.018472921219629547,
            0.00032658127894126277,
            0.001027302070703854,
            -0.03207413086432378,
            -0.012836829467196316,
            -0.018956943098142984,
            0.04205893653722766,
            0.006344045818391722,
            0.0266292166274679,
            0.05363266050401064,
            -0.02908442425276831,
            0.03125234910960825,
            0.019410329773474008,
            0.01698305557096144,
            0.006722342585446067,
            -0.028020769734661003,
            -0.02808800616314387,
            -0.011061746760464128,
            0.034449184863479226
        ],
        "bias": 0.0
    },
    {
        "weight": [
            0.0015321498133087706,
            -0.015677036197533915,
            0.048308400216000094,
            0.05857067504588866,
            0.0032424069228326343,
            0.013460774370240895,
            0.013895088282714482,
            0.022812203797751587,
            0.0076823698371690915,
            0.020835700745187893,
            0.0327652324568564,
            0.02725125013090724,
            -0.003148868901035504,
            0.010611359613039596,
            -0.01409055770680538,
            -0.023960667254607985,
            -0.031199301528489085,
            -0.03707966542486201,
            -0.013297656497311544,
            0.0020760780091572772,
            -0.026325800836044102,
            0.01170287277669793,
            0.0344642902634817,
            -0.033652521225408356,
            0.0073544186531021875,
            0.013914871150910424,
            0.01954113874221952,
            0.030309948783834757,
            0.044094652211631516,
            -0.12828260487111892,
            -0.051187853612391504,
            -0.00899195441400979
        ],
        "bias": 0.0
    },
    {
        "weight": [
            0.0040156303230397495,
            -0.0013510505515192154,
            0.038235754461465876,
            0.0011278877057220669,
            0.0003471468598949604,
            0.05728578619375358,
            0.020321985620150987,
            0.06481134227893064,
            -0.015949931671582124,
            0.03409882534472825,
            -0.048601106603734276,
            0.015193740362378132,
            0.012034287388871126,
            0.01998257048752321,
            0.025895104489574293,
            0.01970825812177019,
            -0.04078460798407479,
            -0.054580319592802726,
            0.015099776334221559,
            -0.004420257520799867,
            -0.024131927625577768,
            0.02173797902659903,
            -0.00681389835074715,
            0.027062839797273662,
            -0.0001484978444609469,
            -0.040724317710263074,
            0.01711011828252878,
            0.041980317505848685,
            0.04023965940570446,
            -0.04622825629159538,
            -0.05348808651959517,
            -0.02292499812716247
        ],
        "bias": 0.0
    },
    {
        "weight": [
            0.027495837602051407,
            0.024498821108317134,
            0.06501184855575458,
            0.037118044752137196,
            0.020855095994520016,
            0.026329498631053567,
            -0.031246759131005445,
            0.021246631512160323,
            0.03190901089056448,
            0.025418927443922133,
            -0.04196225098895835,
            0.02810274122787242,
            0.03177329115084505,
            0.009407709976123441,
            -0.024580812191562187,
            0.011955360032665206,
            -0.05151744059086292,
            -0.013909167719272947,
            -0.005428089104480859,
            0.012144528804154918,
            -1.3939647927506864e-05,
            0.035143992790617175,
            0.014612441276247144,
            0.052738643372361976,
            -0.0425197117133729,
            0.024183165816388803,
            0.04481635019445888,
            0.0383569489642254,
            0.024706808279757422,
            -0.10972631598367828,
            -0.06660207802306116,
            0.017728596105927863
        ],
        "bias": 0.0
    },
    {
        "weight": [
            0.006691606124694911,
            0.0011511640524407445,
            0.05688723309259299,
            0.01696155611075727,
            0.036132495534763207,
            -0.01342197671699329,
            -0.029293919169773842,
            0.02622285990838146,
            0.07407987197105043,
            0.05609717081678046,
            -0.021036477565959392,
            0.009560392856386376,
            -0.007425916925262986,
            0.0122458573825619,
            0.0076955952583750865,
            0.005151022111976937,
            -0.03177604529556014,
            -0.03918317656370401,
            -0.029087609347841145,
            -0.008339319023692733,
            -0.012039275791387045,
            0.045330698403101666,
            0.00788229658653968,
            0.013567435011516134,
            -0.028678815788728492,
            0.03760428029519371,
            0.04585555371537114,
            0.011896676766589422,
            0.033697374226073155,
            -0.11832654257984608,
            -0.04736528002289537,
            0.02921427198469284
        ],
        "bias": 0.0
    },
    {
        "weight": [
            0.049918596984258296,
            -0.01588394926573555,
            0.09566620652317444,
            0.03728295731267386,
            0.061498249071884656,
            0.012548373706955723,
            0.02334302226427717,
            0.015725677928168938,
            0.0686568398575014,
            0.02313906065450227,
            -0.024518036603416445,
            -0.01049699427257632,
            0.008907675743741792,
            1.1186247487784356e-05,
            -0.0014555655487870933,
            0.011841625156207743,
            -0.04124503436307978,
            -0.023892360521536902,
            0.020854892056437778,
            0.027513357568125753,
            0.01015951570141036,
            0.04493102549363563,
            0.021462616328832583,
            0.02178136464008492,
            -0.007147513900701795,
            0.053417274402136866,
            0.04507767199317052,
            0.06616302573754267,
            0.010759119097610929,
            -0.09927402089988417,
            -0.059002210855780855,
            -0.012342698429806639
        ],
        "bias": 0.0
    },
    {
        "weight": [
            0.07561964409071399,
            0.010220112223463059,
            0.08120431570355385,
            0.005338313579832767,
            0.07534926604752785,
            -0.045491444127300426,
            -0.013939806394033437,
            -0.06982137280949466,
            0.02505335963149971,
            0.0530532204996773,
            -0.07086845801254794,
            9.045075086591337e-05,
            -0.0036643140685191596,
            0.027206354700807917,
            -0.03799208055297342,
            -0.03427735557494262,
            -0.06072531405644485,
            0.03569567739674319,
            0.026642514121380446,
            0.02197543006576038,
            0.015273388341280215,
            0.044329482622021264,
            -0.016448207405302655,
            0.07607007789239877,
            -0.025533786230599445,
            0.08846004433067527,
            0.02476010452924067,
            0.10209739718887041,
            -0.030398433105583426,
            -0.02190153253181482,
            -0.016214100197513084,
            0.006271750018466761
        ],
        "bias": 0.0
    },
    {
        "weight": [
            0.10070669580217825,
            0.00039490394181259395,
            -0.01710080264758572,
            -0.05048190388498206,
            0.07117476278402664,
            -0.03345353167100115,
            -0.015057383631535907,
            -0.07981543839135319,
            -0.07267114363048956,
            0.08544404588425938,
            -0.06390928904708292,
            -0.011479229479875909,
            0.024581966044001067,
            -0.06517159284289863,
            -0.021982178048708903,
            -0.05138891013501341,
            -0.07688618875083232,
            0.09547111166087983,
            0.039367395451599084,
            -0.018225263508991084,
            0.0009925258285189845,
            -0.04282605091980137,
            -0.018743601346641804,
            0.07501421945111963,
            -0.030036121896652147,
            0.13295604882942572,
            0.003037214126142914,
            0.13661145992698498,
            -0.06409085185332498,
            0.019793298767731702,
            -0.05398019992390286,
            0.016659792385364858
        ],
        "bias": 0.0
    },
    {
        "weight": [
            0.00037920035971677503,
            -0.016201447372125168,
            -0.027077305875174568,
            -0.016807533608870242,
            0.036406147441312826,
            -0.00382233495769263,
            0.015552920826198902,
            -0.08015163939112559,
            -0.020800772133202597,
            0.08033073317431777,
            0.005891206147174878,
            -0.06499717356313581,
            0.03290067390952148,
            -0.010170824801437092,
            -0.01765508997700728,
            -0.00042640310298588306,
            -0.007610377562008603,
            0.0814767725993209,
            0.02806169783577055,
            0.01668659840399647,
            -0.006408189565341016,
            -0.03304263513378008,
            -0.027859735517964522,
            0.0147985528359838,
            0.009725275636843875,
            0.07144413979263776,
            -0.08172133077886755,
            0.10877126610107773,
            -0.07672111978391605,
            0.04343028427587775,
            0.025315601980430685,
            -0.01501871617688815
        ],
        "bias": 0.0
    },
    {
        "weight": [
            0.014406931575876582,
            0.031808052686253495,
            -0.008531348445619447,
            -0.044471938114448044,
            0.025009209725792517,
            -0.0008119217506820351,
            -0.029456345040780967,
            -0.07833143876949308,
            -0.038634388308492564,
            0.08904064150994079,
            0.020588092277786064,
            -0.03319991330105381,
            0.019020612134652195,
            -0.028138192920442142,
            -0.004621199864029032,
            0.0051761582055108455,
            -0.043219684642349106,
            0.047056415137010255,
            0.007912280364220106,
            0.06811137987616762,
            0.0010790781989686942,
            -0.10175137813327459,
            -0.017549868067556706,
            -0.05565762750963486,
            0.029332318652781738,
            0.07763322018656182,
            -0.13916479011613714,
            0.11889251002820585,
            -0.039522812812839356,
            0.11413154560526098,
            -0.06334939634341663,
            -0.018695349754124863
        ],
        "bias": 0.0
    },
    {
        "weight": [
            -0.041311215832644424,
            0.03225372037736383,
            -0.022641130266899272,
            0.003240404583641565,
            0.00470112179107321,
            0.04913873979522666,
            -0.005707750949391657,
            -0.05012185450941011,
            -0.06674457340383708,
            0.05861527777818283,
            0.03249280915850997,
            -0.09254504526334965,
            -0.017015847558997824,
            0.021331125478818828,
            0.018754793370175927,
            0.020940213646803707,
            -0.060418359349086376,
            0.038734522129574504,
            0.012788399975510645,
            0.05079825336021116,
            0.0038341685374809185,
            -0.07203936777206787,
            -0.027560316508520873,
            -0.09384151640697365,
            0.04186039087776698,
            0.021329768672919303,
            -0.1620909944109483,
            0.08510620701778421,
            -0.0342574543644795,
            0.05100511235335254,
            0.008208700455169225,
            -0.019520723437115244
        ],
        "bias": 0.0
    },
    {
        "weight": [
            -0.05412339870245549,
            -0.010293391714756187,
            -0.002033513047852631,
            0.000976784041289117,
            0.026517162083117787,
            0.03139012115143624,
            -0.0282810167550009,
            -0.05696312640459081,
            -0.04311457530019906,
            -0.015146649577897466,
            0.04979862852026038,
            -0.014882095241474672,
            0.026439194979216686,
            -0.02262354827271004,
            0.022831013366831326,
            -0.026333779108374256,
            0.04549705771359441,
            0.014836484413325104,
            -0.012344351018262879,
            -0.005066558369244038,
            -0.007274483001077294,
            -0.04617480967728747,
            -0.013823863167419063,
            -0.02905188777582576,
            0.002159551996253631,
            0.014147045772737546,
            -0.1340846063199008,
            0.08271216897583011,
            -0.009651065854846872,
            -0.03585518941249055,
            0.051937564466576255,
            0.007529761454759128
        ],
        "bias": 0.0
    },
    {
        "weight": [
            -0.030860057383202372,
            0.02161942149391735,
            -0.03943043269904523,
            0.025577277216229308,
            0.05324675474329408,
            0.010819365646351074,
            -0.012851157373158895,
            -0.02270536816051635,
            0.008873385888918013,
            -0.019996282775855165,
            0.0071346628080296804,
            -0.025347072064986365,
            0.008847488076315352,
            0.013974293278455854,
            0.03155483573726292,
            -0.035554602551367345,
            0.03500432927195284,
            0.02325891556069066,
            -0.003663641823659853,
            0.026484448679281552,
            0.009613627503668709,
            -0.015434992031275597,
            0.021065737368510095,
            0.000169838000087825,
            0.0041137444454716725,
            -0.007092956627875798,
            -0.07569981446646368,
            0.024107379800394173,
            -0.014298692699393005,
            -0.05965882270542852,
            0.08882663158126845,
            0.0020108528696936865
        ],
        "bias": 0.0
    },
    {
        "weight": [
            0.038261767771181454,
            -0.03651793934674974,
            -0.009421173998144258,
            0.0010396336088649425,
            0.002192521333197294,
            -0.00569812546020807,
            0.003663118364674213,
            -0.019188643573749217,
            0.06268397478580555,
            -0.04992209411301665,
            -0.012563438969420828,
            -0.011880508864542642,
            -0.03145210657972116,
            -0.033717011757872936,
            0.031189759181023635,
            0.0038984123893364845,
            0.00969302496133784,
            0.014149082374519038,
            -0.03068113608427545,
            -0.003365217131150806,
            -0.014418850243870124,
            -0.023844410079649124,
            0.005414772754066719,
            0.02160651431987823,
            -0.0278571916346951,
            0.032026607726314674,
            0.0015604920191668512,
            -0.0052970215942227256,
            -0.007293884594211721,
            -0.06699838443688179,
            0.0064665723843171955,
            0.01294343717942479
        ],
        "bias": 0.0
    },
    {
        "weight": [
            0.0607346369777696,
            -0.03257382743990838,
            -0.032649669843104724,
            -0.03618126153273369,
            0.05002600675840492,
            -0.02220107319630836,
            0.017855314452830364,
            -0.03219851817010193,
            0.057371331158094986,
            -0.0979964116233653,
            -0.054098045001283845,
            0.05484000655362235,
            0.025282807851234605,
            -0.004726019803460559,
            0.006208801957727223,
            -0.03277077197063579,
            0.028304586390930926,
            -0.013055268900975301,
            0.008306366862316904,
            -0.005704706130126776,
            0.024053476021075097,
            0.0010374297263591285,
            -0.024028963721841774,
            0.05720529557092116,
            -0.017271339388010974,
            0.04089585933612622,
            0.03565364399481654,
            -0.008562570236949117,
            0.00420853577091483,
            -0.04561266314551881,
            0.04661233974384398,
            0.015532901227324782
        ],
        "bias": 0.0
    },
    {
        "weight": [
            0.04205279034031579,
            -0.04586306667915218,
            0.03446188915166834,
            0.01201890195334549,
            0.028867916039277297,
            -0.05038719120170686,
            0.02047657689517765,
            -0.03561106765810693,
            0.08198242548283081,
            -0.0937951047300004,
            -0.09713027049429175,
            0.0402926645015409,
            -0.0074422661948771755,
            -0.05213130143987179,
            -0.008924669254236463,
            -0.0005581532932669694,
            6.76723806185527e-05,
            -0.029392063168066272,
            -0.03521789650212115,
            -0.01275223491695722,
            0.02328980561338121,
            0.012141983050230759,
            -0.031614358910365174,
            0.047070921412467895,
            -0.00226430878942963,
            0.006590017552769132,
            0.06381465207217457,
            -0.08181493023623479,
            2.6137236705185777e-05,
            0.003219286375455701,
            -0.013111980654050866,
            -0.008389489084189836
        ],
        "bias": 0.0
    },
    {
        "weight": [
            0.027970658946495083,
            -0.010878496065204338,
            0.001303454548298871,
            -0.029899918905558574,
            0.011887558362134074,
            -0.028086627691076307,
            -0.007839848248190586,
            -0.10249358261519681,
            0.09365761796667633,
            -0.1309907278457113,
            -0.06796482021833225,
            0.06467264748249885,
            -0.024408472563966034,
            -0.04242368787452926,
            -0.015523564598939504,
            -0.005801363215610913,
            -0.010790185148118504,
            -0.021805732797807457,
            -0.002739822710463303,
            -0.04461980761963879,
            0.03051937550079041,
            -0.029801221856688757,
            -0.03877106352736753,
            0.04506132097706901,
            0.018291657317808786,
            -0.0019216520361360517,
            0.06782282263405151,
            -0.1128218455604416,
            0.005499895890401782,
            -0.03593894301066468,
            -0.007954996082627992,
            -0.00868862381650072
        ],
        "bias": 0.0
    },
    {
        "weight": [
            -0.014204943127288898,
            -0.031020298873700516,
            -0.032345005789370905,
            -0.0011897877995896207,
            0.014127620747043271,
            -0.042252645061165606,
            0.01916403049040863,
            -0.048163758945911954,
            0.04414575343843575,
            -0.08636815407152519,
            -0.05640152563288251,
            0.04240295913330011,
            -0.005050492961888509,
            -0.02333698943907874,
            -0.04275017509949277,
            -0.009066122916957287,
            -0.024973826438754256,
            0.011544381801699465,
            -0.011810486486651459,
            -0.04084287190524125,
            -0.013563308123671335,
            0.00693668692821745,
            0.014969002679774333,
            0.04060207969456,
            0.026741717109747015,
            -0.008584391156469202,
            0.04470974157276868,
            -0.06152080142915906,
            -0.010030566382333218,
            0.02160826290608571,
            0.008675183305206552,
            -0.01154376514121788
        ],
        "bias": 0.0
    },
    {
        "weight": [
            0.015949758878653537,
            -0.015263845961901895,
            -0.0272133041193517,
            -0.00014332546320826902,
            0.02933100725693386,
            -0.034563395537790746,
            0.013044158839267224,
            -0.05053335081516274,
            0.0655647851977118,
            -0.11465480505032125,
            -0.049845483655486696,
            0.018788645762532346,
            -0.03502479711819993,
            -0.004751379280706251,
            0.01954434912953808,
            0.024871125767138652,
            -0.015176590076923442,
            -0.005122647279905371,
            0.001236074419850051,
            -0.03525393251519652,
            0.028467300805672297,
            -0.04543992704478545,
            -0.0180133830144024,
            0.011038471621399096,
            0.02680936854326518,
            -0.0001523950297870231,
            0.04723618870240771,
            -0.02891163566629792,
            -0.029629567912810656,
            -0.01614674637493722,
            0.003080896448820478,
            0.019320360933237957
        ],
        "bias": 0.0
    },
    {
        "weight": [
            -0.02279035722853975,
            -0.03263059183391566,
            -0.019391360764573602,
            0.03253327260359035,
            0.021233425817471223,
            -0.015664770355154116,
            -0.00902457555197168,
            -0.07972638378148592,
            0.07451404900646064,
            -0.08801267575452634,
            -0.004311787110815153,
            0.03137569744686588,
            0.015010139317802158,
            -0.02552666141281288,
            -0.005780368286147526,
            0.021130916763042455,
            0.020843313881788825,
            -0.0382572216369666,
            0.018897901454331366,
            -0.019703072082635213,
            0.017494219858150667,
            -0.021968584972131545,
            -0.011351581077276624,
            -0.026342714637615477,
            0.03196888246855947,
            -0.08353560935919088,
            -0.0039392455818249225,
            -0.08700969453208679,
            -0.01665505213788431,
            -0.017345658164394224,
            0.018808814593404666,
            0.0038386923484831146
        ],
        "bias": 0.0
    },
    {
        "weight": [
            -0.03762613100316778,
            -0.010390391271854083,
            -0.02659669477374371,
            0.00510506132782926,
            -0.024310276207314085,
            0.02483279420979663,
            0.007434871350542341,
            -0.023977525162047073,
            0.027501382658008465,
            -0.05339989069985281,
            0.025104586604666034,
            0.01694464231665901,
            0.014097806080317727,
            -0.032278373576973704,
            0.019254993631612722,
            0.0029036492268009013,
            0.01450547845497453,
            0.0016140781547385277,
            -0.018109169673639867,
            -0.017889849736267845,
            -0.005069213734122255,
            0.0030176271497559036,
            -0.004927621108472905,
            -0.029712122615816523,
            0.035738768000573594,
            -0.04106931880945821,
            0.0046526465639266405,
            -0.013144173031404817,
            0.0064528231404032774,
            -0.02859867503224109,
            0.018802177638547753,
            0.008751415551940322
        ],
        "bias": 0.0
    },
    {
        "weight": [
            -0.061734069519339324,
            -0.0280291150491861,
            0.005184972310229978,
            -0.011479755855160331,
            -0.001272082186028241,
            0.01838880879715233,
            -0.030847181872533814,
            -0.02382000965803771,
            -0.009002610075820337,
            -0.05892485340209189,
            0.03803512379730692,
            0.006591844883857211,
            -0.006956625510087878,
            -0.010025971802506736,
            0.0027962036028336963,
            0.04767423233937549,
            -0.007331194531775717,
            -0.021190338714584103,
            0.014534098072252484,
            -0.01946231519712745,
            -0.0072381448061696035,
            -0.02923048078108845,
            -0.014140436722015053,
            -0.03623116748818846,
            0.002439846862809322,
            -0.025272463910329977,
            0.00589329113825679,
            -0.04371186383795209,
            -0.004608570059082599,
            -0.04953311580395979,
            -0.034230351316607024,
            2.9177679279035314e-06
        ],
        "bias": 0.0
    },
    {
        "weight": [
            0.01017888801428452,
            -0.012585344201699395,
            0.011640113857427312,
            0.021112635184315092,
            -0.013999779178371571,
            -0.028807923076771845,
            0.011298308955750864,
            0.01973792132224056,
            -0.015949705935816644,
            -0.05495807859634361,
            -0.010744494779093842,
            0.0073205867525169685,
            0.01718183271692177,
            0.0030368847188534088,
            -0.010929069983870532,
            0.022129597118253956,
            0.014387373328439524,
            -0.013046593653107107,
            -0.03113077286720279,
            0.015903582010612823,
            -0.0008815662226928235,
            -0.014496860989389404,
            0.011258346599678434,
            -0.009077488485753708,
            -0.007705009548663633,
            0.0011152671787187742,
            -0.02488998260913373,
            -0.06183395766342094,
            0.0033535651159605903,
            -0.0001416456039829137,
            0.04464301181067118,
            0.014674418921291127
        ],
        "bias": 0.0
    },
    {
        "weight": [
            -0.037340519468415,
            -0.054187992437101484,
            -0.029040803391393144,
            0.03706046508755714,
            -0.006441056509137204,
            -0.001974390697741114,
            0.019386887212472215,
            -0.00040562965081246215,
            0.017503977489042706,
            0.022719867334255392,
            0.0626638587941339,
            0.03046954057227652,
            -7.53478671256141e-05,
            0.002474269093845539,
            0.019525677320510762,
            0.02937087515558912,
            0.007694971762441107,
            -0.010213152314228487,
            0.023642972457634907,
            0.0021738556715496763,
            0.004541238986892389,
            0.021796306026876648,
            0.029199632580370293,
            -0.05297417182308713,
            0.031326249086517495,
            -0.01761671161113129,
            -0.030797505140338636,
            -0.017456045557479708,
            0.013110638045156376,
            0.0001935892576908753,
            -0.025533638889087648,
            0.00344971608715811
        ],
        "bias": 0.0
    },
    {
        "weight": [
            -0.04170508332996243,
            0.02208907288476159,
            0.038334099004028205,
            0.03104336515448703,
            -0.04118360939285659,
            -0.014017822923619017,
            0.015344050074930608,
            0.011902786885140385,
            -0.023320650866708367,
            0.03145603104265669,
            0.019132803090803813,
            -0.00913516763024377,
            0.05111728525746383,
            -0.012501084912134234,
            0.0030498536426629276,
            -0.006911101435170107,
            -0.025651776452188264,
            -0.04128510422517956,
            0.022646310142917892,
            0.0007262223334845072,
            -0.0013590375221002688,
            -0.0006884106637247198,
            -0.0011982582790384234,
            -0.027802848541892397,
            -0.015678671191164492,
            -0.0029600194108735842,
            -0.010399684405372962,
            0.020669120607706665,
            -0.018288625375975847,
            0.0022175428939033254,
            0.01421308766014195,
            0.010294384757857999
        ],
        "bias": 0.0
    },
    {
        "weight": [
            -0.032403299257358874,
            -0.01410431479260614,
            0.012673983298995436,
            0.03488844297781377,
            -0.007622891499106182,
            -0.039013899464209884,
            0.019239962581893946,
            0.04199208072898534,
            -0.007512262277233663,
            0.0423695109624521,
            0.06536668328924691,
            -0.003434357239333895,
            0.0384979221921967,
            0.0033019336445013468,
            0.002636305818031904,
            -0.014491587509136318,
            -0.008923203659225493,
            -0.04388743470208692,
            0.0019806496497872124,
            0.0037287900491919227,
            0.020859912189824175,
            0.012275431449746233,
            0.040340322279722965,
            -0.012839007406962338,
            -0.0012130817190599598,
            0.014142312774088336,
            -0.04813979896675776,
            0.04164731349484098,
            -0.040103297367510136,
            -0.02992000483787134,
            0.012104069512411615,
            0.02774754897076422
        ],
        "bias": 0.0
    },
    {
        "weight": [
            -0.016132197827812913,
            0.0036605456745499613,
            0.013378173424448378,
            0.051161093227648634,
            -0.046207078283932106,
            -0.02246040595483262,
            0.012903378160939102,
            0.06174570528247635,
            -0.03185779187031003,
            0.05923855386903412,
            0.03679172192830857,
            -0.003979569237268031,
            0.03693008521223046,
            0.03672593301677977,
            -0.00874465478511406,
            0.0027661257349948,
            0.01605621117115266,
            -0.008576573470073264,
            -0.005596194739728615,
            0.0013616934765821238,
            -0.012907100893351637,
            0.03152452526684968,
            -0.00046771857673977903,
            -0.04291314208836646,
            0.01682996507956634,
            -0.0050520937068548625,
            -0.03041461913975654,
            0.022418111134084356,
            0.009241043668172393,
            -0.0009855207303596854,
            -0.01815981753742951,
            0.020369985711647182
        ],
        "bias": 0.0
    },
    {
        "weight": [
            -0.004791782115136416,
            -0.0228913759737322,
            0.04553243787352766,
            0.02164997760472953,
            0.012227794747281254,
            -0.01648765653096869,
            -0.01237276737093373,
            0.056880898219940024,
            0.009897647097271933,
            0.05076303500944897,
            0.011416875807192191,
            -0.012468661750578995,
            0.05599643416216178,
            -0.006765886839121623,
            -0.017866718281872352,
            -0.0246253029008184,
            -0.03906053327635909,
            -0.03902122733338624,
            -0.014851988191181574,
            -0.0010574524033822824,
            -0.005713619729293878,
            -0.0020040735232468303,
            0.020021536028112623,
            0.00745393303289368,
            -0.006538347735885606,
            0.01807640779189576,
            -0.04594777315320748,
            -0.0031771292027502696,
            0.008544093696404381,
            0.002468731375505536,
            -0.008861895659917228,
            -0.02100663409799085
        ],
        "bias": 0.0
    },
    {
        "weight": [
            -0.02422839566962027,
            -0.0020114778877029617,
            0.05075061319810846,
            0.05495982191623344,
            0.025749435969001217,
            0.0018290603666218273,
            0.022588679057895987,
            0.06160590673029282,
            0.05122704731511714,
            0.039688646293359685,
            0.05309370388213081,
            0.008274291930776495,
            -0.0008530023995109914,
