[
    {
        "weight": [
            -0.033657695432782526,
            -0.12545757812696193,
            0.02460105940588896,
            -0.02403704755075542,
            0.09630525758826963,
            0.037915573001851006,
            0.02230832997885146,
            -0.032021458004777736,
            0.12862589338977845,
            -0.19146514105431564,
            0.025622241582370572,
            0.012188430035424237,
            0.036660530899846375,
            -0.0351180761669482,
            -0.12663499068097153,
            -0.042888982731048464,
            -0.02867449703977324,
            -0.017969699708535517,
            0.03401110979290773,
            -0.023290298280485042,
            -0.004076661923968289,
            0.0061560034786822,
            0.012913251794568193,
            -0.027050916927640892,
            -0.03169033864448546,
            0.0003464574002574973,
            -0.022100740811167283,
            -0.00284476790820799,
            0.07701918476850293,
            0.0019474706417056719,
            0.03480655022028077
        ],
        "bias": 0.0
    },
    {
        "weight": [
            0.02352707021138256,
            -0.07276386433595151,
            0.024437798762962853,
            0.010831862912647618,
            0.03159093778878124,
            -0.0034501480194925765,
            0.02624060832077918,
            0.02621169953935341,
            0.14055540248289383,
            -0.14266130482848444,
            0.010854012945261893,
            0.02481220571938621,
            0.10320985346236092,
            0.05716102994329419,
            -0.13556849424766712,
            0.010388093629722463,
            -0.005353706487789422,
            -0.008813977082640173,
            0.033883159765637376,
            -0.018860310102021438,
            -0.0704738471880643,
            -0.019221254074155647,
            0.02857789000075641,
            -0.03383003574704596,
            0.025271751623923238,
            0.008627095180123508,
            0.004180808884235853,
            -0.047467748231422024,
            0.1264757828590536,
            0.048113646926377866,
            -0.022453125097080577
        ],
        "bias": 0.0
    },
    {
        "weight": [
            -0.03355492919677176,
            -0.0666973264577862,
            -0.004345485958017913,
            -0.04120434661961495,
            0.08678142889998447,
            0.054492143035524354,
            -0.03196409560300484,
            0.025382193528067688,
            0.11113852805927141,
            -0.16121444447535982,
            0.006933421295717173,
            0.024880484930804348,
            0.10452127216763457,
            0.06397701205900332,
            -0.12041297622434674,
            -0.013945403945559508,
            0.03576881933285495,
            0.01746757370243807,
            0.033857369413825715,
            -0.023126963009906715,
            -0.054873146920259436,
            -0.02090624455072394,
            -0.0022577796537664894,
            -0.024397155577804357,
            -0.03186500106437219,
            0.036882961900975134,
            0.04066758226326064,
            -0.0036225609432122387,
            0.06585812548919838,
            0.04944441437562402,
            0.03461106082377573
        ],
        "bias": 0.0
    },
    {
        "weight": [
            0.02366560678431801,
            -0.1212432150643003,
            0.024772746436196383,
            0.0077129935505282875,
            0.03258872806950339,
            0.024485511367178046,
            -0.03738276245069304,
            -0.03415232116458255,
            0.09310626164891218,
            -0.10132063979617374,
            -0.0005703744703809136,
            -0.03225154968214419,
            0.06333237732711489,
            0.005039215121787318,
            -0.13257688133569254,
            0.014861148617016574,
            -0.012897384147190273,
            0.10929843875093168,
            -0.02327664621174666,
            -0.023066203095535538,
            -0.0016480593091495474,
            -0.0259744109669734,
            0.016865564843373253,
            -0.017943058167718632,
            -0.032005200699483434,
            0.042026611945487256,
            3.529860904505773e-05,
            -0.006543393569476449,
            0.14193168121250269,
            0.017874609586515506,
            0.03458822099709734
        ],
        "bias": 0.0
    },
    {
        "weight": [
            -0.03321143699860576,
            -0.05510714927276246,
            -0.0326513791059591,
            -0.029220406816668237,
            0.037535307049925616,
            0.04890500848716012,
            -0.05878953038849317,
            0.013587326274113905,
            0.05542652180867042,
            -0.18042160479666225,
            -0.03868040235652731,
            0.025155159556009884,
            0.00694838168471349,
            0.08092439937213525,
            -0.1243358271223094,
            0.04300271654251376,
            -0.01990480485394446,
            -0.00462040846247492,
            -0.023446657096424593,
            0.033592412945623915,
            -0.07158905828183608,
            0.006810175216683239,
            0.016812929569912233,
            -0.026543676243941938,
            -0.01285910277900021,
            -0.023485135589789572,
            0.016262316200410215,
            -0.06656799988265615,
            0.071666697217309,
            -0.010502920699353104,
            0.03511679002071707
        ],
        "bias": 0.0
    },
    {
        "weight": [
            0.023871143629430627,
            -0.1161525762804659,
            -0.03218362994533517,
            -0.04553336784182037,
            0.029153828116221994,
            0.04899050314396157,
            -0.029767923983120132,
            -0.020950167043868616,
            0.08708846026005058,
            -0.15957235607983017,
            -0.04427453176590522,
            0.025063473675946697,
            0.03473240194705855,
            -0.007436716593190898,
            -0.12888906945607018,
            -0.006853886348241862,
            -0.01658020917433243,
            0.020613060272594356,
            0.03369839747921305,
            0.033594340284875984,
            -0.028585060473747658,
            0.0003162165834129135,
            -0.018759612775000142,
            -0.043199832909884224,
            0.02518856136742263,
            0.0696627127495193,
            0.03394176138446267,
            -0.0008802981218927889,
            0.08204413157774874,
            0.04273795041428628,
            0.034287441444877574
        ],
        "bias": 0.0
    },
    {
        "weight": [
            -0.0332692265515585,
            -0.05816465063912171,
            0.025019531822406436,
            -0.0408631149000255,
            -0.010072688483978305,
            0.023365277981172484,
            0.020952044694707694,
            0.02935566275045026,
            0.15892238128604463,
            -0.103344054840064,
            -0.002087680561389879,
            -0.032195086864702446,
            0.08615906285955188,
            0.06962253928402418,
            -0.12093064337931383,
            0.04401139056982789,
            0.03061151166320631,
            0.018703837446912046,
            -0.02351205621157465,
            -0.0233195888861162,
            -0.06548056855451921,
            0.00999281089430202,
            -0.028316724271455245,
            0.006291554361021146,
            -0.004815232022698072,
            -0.0028995094733250816,
            0.018569875012125717,
            -0.024295193101339506,
            0.10966921267636727,
            0.054106438131652855,
            -0.022519326559826195
        ],
        "bias": 0.0
    },
    {
        "weight": [
            0.02356872542377762,
            -0.07734725022064416,
            -0.032239130102589886,
            -0.03502670215078895,
            0.02089904429647441,
            0.0044401199691307775,
            0.010419529935176258,
            -0.018117226683981715,
            0.0971738494525726,
            -0.13774004720527017,
            -0.044318209067359754,
            0.0249854265883185,
            0.01653590393849858,
            0.09692970012785758,
            -0.12567950980556883,
            0.03933959053048165,
            0.024827743704512677,
            0.04086453008582344,
            0.03338634526001111,
            0.004190622991735261,
            -0.10922993567667846,
            -0.04055475741007288,
            -0.04632548255830225,
            0.03252886309720674,
            -0.03204409008929089,
            -0.025487453961171597,
            0.013551237255481347,
            -0.031767622191991265,
            0.07837468964682225,
            -0.003910030031461325,
            -0.020743857035294657
        ],
        "bias": 0.0
    },
    {
        "weight": [
            0.023680707860056195,
            -0.12329898126110078,
            -0.03217073766552748,
            -0.04274588704170781,
            0.01970844058524915,
            0.023997047678409333,
            0.02286991730034667,
            0.011480097367215112,
            0.16422788571715757,
            -0.09425406542896868,
            0.008467384934009314,
            -0.03216620888260579,
            0.09105640908047133,
            0.06296350496127087,
            -0.12634739103545442,
            0.02237862323018769,
            0.03308635797485112,
            0.06023829680868984,
            0.03364974348649585,
            -0.02336630745824108,
            -0.0002630224056765775,
            -0.02113487655881604,
            0.013495987570471204,
            0.014622115730424996,
            0.015780212798845988,
            0.04676647302732139,
            -0.01471976716752671,
            0.003156014452170155,
            0.07720866188089921,
            0.03931685077534156,
            0.03450326111883293
        ],
        "bias": 0.0
    },
    {
        "weight": [
            0.02353356101253244,
            -0.06660673566123626,
            -0.032301429522273446,
            -0.01889095265289557,
            0.06333644430759891,
            0.026700104246559976,
            0.01784819103101768,
            -0.023792147368406073,
            0.10820004673854902,
            -0.0991105892335541,
            0.002855279844258944,
            0.024885268233277604,
            0.07196079729785206,
            0.0813153903578819,
            -0.14927867626321353,
            0.009772527246367211,
            0.0361920334944236,
            0.018056835478820376,
            -0.02339183618196989,
            -0.022931925085129506,
            -0.04488192187012527,
            -0.011449945581718775,
            0.032532440448905756,
            -0.0060999884372971765,
            -0.031823750398278054,
            0.044424194683279766,
            -0.01775168602033466,
            -0.020679162082194818,
            0.12920153340737256,
            0.01607418603715215,
            -0.022495397577612583
        ],
        "bias": 0.0
    },
    {
        "weight": [
            0.02326602142289182,
            -0.06748966324413908,
            -0.0326011643428533,
            -0.04474329218654667,
            -0.00010089661861524406,
            0.050317418155219784,
            -0.018997795923135014,
            -0.029425557427110692,
            0.12621421008095066,
            -0.13258117581316212,
            0.03150868254395897,
            0.02489341669604325,
            0.017655030553986328,
            0.03818176146544794,
            -0.28493771119530037,
            -0.012345067383785567,
            0.00645577974878458,
            -0.06027211401190279,
            0.03367652212503182,
            -0.022680416638447946,
            -0.0900412537656437,
            0.0048278325901527225,
            -0.030341357079237196,
            -0.025357574148106375,
            0.025218459641930664,
            0.023042804996281054,
            0.03614791992025254,
            -0.0255176512880921,
            0.04503321358343376,
            -0.015610090892814843,
            -0.022363459665013134
        ],
        "bias": 0.0
    },
    {
        "weight": [
            -0.004521351575027586,
            -0.12347935682900851,
            -0.033012046820127094,
            -0.04522422090033126,
            0.11854342600679446,
            0.03713998594700084,
            -0.05624026022290292,
            -0.06624250183986703,
            0.08728775763114326,
            -0.08503247764313598,
            -0.06599380927893797,
            -0.03259127330396493,
            -0.010486290740485536,
            0.03979482967988618,
            -0.2015451383401869,
            0.04645228903170897,
            0.04760550730088838,
            -0.021039701949919852,
            0.022624618326670523,
            0.011306583231062388,
            -0.006077965873953143,
            0.0021020034043436873,
            -0.003971711730088189,
            -0.05335260220307019,
            -0.031885997112898204,
            0.019795762755432808,
            0.021957740944241307,
            -0.00337315820377897,
            0.047431799613741124,
            0.024338568251510692,
            0.034655153435439554
        ],
        "bias": 0.0
    },
    {
        "weight": [
            0.015828655259839966,
            -0.07307341173959597,
            -0.032941409928955494,
            -0.00035299385774897174,
            0.10226946167520422,
            -0.012690482798491005,
            0.012933766469419827,
            -0.09311156899382046,
            0.06282437145714678,
            -0.13947315073599958,
            0.042875286517830784,
            -0.03196507023607062,
            0.03175487621163478,
            0.07855705128014823,
            -0.13246051237914977,
            0.02276245581825557,
            -0.028446595168123184,
            0.03724933576677603,
            0.030241249558775538,
            -0.023759808548712118,
            0.1387220003179425,
            -0.014519767910182097,
            -0.0940342486833229,
            0.00797470184041917,
            0.025289190572827074,
            0.060834593054447536,
            0.058143800520145346,
            0.011637220987517473,
            0.05944978203173246,
            0.0193768913959135,
            -0.022878291564903282
        ],
        "bias": 0.0
    },
    {
        "weight": [
            -0.03293791705500002,
            -0.018089160304793104,
            0.02392655969568083,
            0.02823424201019891,
            0.16859998992054095,
            -0.006207468212368803,
            -0.0160548774347705,
            -0.10097126245697477,
            0.08257228593114113,
            -0.10742652307874336,
            -0.003524570857449023,
            0.024889256178629835,
            0.03675824239771696,
            0.03144301960004925,
            -0.07626161656033108,
            0.06466041725533762,
            0.03099121766663115,
            0.02557355759003226,
            0.01860207380355965,
            0.015477563633583945,
            0.10548459772055177,
            -0.12948314336576852,
            -0.054951464156198705,
            0.009109424444464578,
            -0.0317010543718678,
            0.13169147720736935,
            -0.00516131323266483,
            0.030317950592084364,
            0.05345545473570275,
            0.022434382290690287,
            0.034272114302968074
        ],
        "bias": 0.0
    },
    {
        "weight": [
            -0.03306835396549038,
            -0.06045991921744656,
            0.02411297669063809,
            0.04070164594070016,
            0.0876320802431128,
            0.01397387991821778,
            -0.009519714423125061,
            0.0091151398845539,
            0.0726289470851172,
            -0.12735921694964467,
            0.05612308505576111,
            -0.03256447555468251,
            0.032407237793047584,
            0.07327779429672902,
            -0.17646188537530041,
            0.17940036623623642,
            -0.03771658948684564,
            -0.02499995490032,
            -0.02323360268603231,
            0.033667242177750044,
            -0.022813611227027956,
            -0.11565244198958592,
            -0.1039026909361989,
            -0.03987000512413216,
            0.0017519780999374298,
            0.058562422631307544,
            0.014053435926684251,
            -0.000882736600488418,
            -0.05275951321469784,
            -0.023097445404487448,
            -0.02250043282005936
        ],
        "bias": 0.0
    },
    {
        "weight": [
            0.02412641596987477,
            -0.028603419077285235,
            0.024548735029444824,
            0.04421290557385441,
            0.09805455715121651,
            0.05158120628724271,
            0.003654713681501321,
            0.015048361603469992,
            0.10095789298757887,
            -0.11144415725429484,
            0.05699088656782485,
            -0.03173479876531086,
            -0.003127796890263598,
            -0.006471337257581229,
            -0.038866424620449154,
            0.036587492696242126,
            -0.037329167613372155,
            -0.021443547385188524,
            0.03357006576575836,
            -0.023578977941042523,
            0.05162641766028361,
            -0.07221677534504199,
            -0.08383237485616918,
            -0.038654854348428434,
            0.003258717764463419,
            0.09674136141140993,
            0.00031872844072748077,
            0.017156014211023165,
            -0.02204725370255044,
            -0.006075566742866117,
            0.03358427664233935
        ],
        "bias": 0.0
    },
    {
        "weight": [
            -0.03268553538022981,
            -0.026401823302988854,
            0.02521479562959557,
            0.032326725620309506,
            0.05357343615115817,
            -0.02124480565596014,
            -0.04122577262656669,
            -0.02093969124827594,
            0.10344390612092912,
            -0.14560312110120932,
            0.024141974010057323,
            0.025986203798145934,
            -0.006436956328464491,
            -0.02764949129131888,
            -0.039911801111555546,
            -0.023870278592321617,
            -0.0006045620527930544,
            0.032767078255588084,
            0.03335751421946938,
            -0.024174982818612814,
            0.0673291657726243,
            -0.0018765885055058045,
            -0.06971398263257496,
            -0.0330025125886627,
            0.02555589114911931,
            0.06776542813175858,
            -0.004416407025903612,
            -0.03390885907116621,
            0.04509560669153105,
            -0.025561993436748042,
            -0.023691963366667276
        ],
        "bias": 0.0
    },
    {
        "weight": [
            0.02468502935229049,
            -0.07501182132726998,
            0.025206781265569463,
            0.037617623767861076,
            0.07094058231001102,
            -0.023357316228438518,
            -0.0502653380839358,
            -0.022813998311622827,
            0.1192169089804459,
            -0.08239358363626505,
            0.02554650145807901,
            -0.031397742059644476,
            0.05353060526243572,
            0.026290356128377587,
            -0.05894431373240937,
            -0.024228887910297744,
            -0.031197870336770177,
            0.12123131770463957,
            0.03371776412428195,
            0.03282820690653671,
            0.047609435221798044,
            0.03362451536576153,
            -0.03192745213013871,
            -0.024377412664702326,
            -0.03152690601140224,
            0.09640002794042538,
            0.01135134149841116,
            -0.023115322213272595,
            0.04517028863006426,
            -0.027081369983745055,
            -0.023625967757850152
        ],
        "bias": 0.0
    },
    {
        "weight": [
            -0.032897638323834404,
            -0.04013902863116795,
            0.01885152655292934,
            0.03146333479513052,
            0.09229566299013647,
            0.02564391297482635,
            -0.022814693543114675,
            0.008317725394397853,
            0.03751999184870697,
            -0.04706155454863691,
            -0.02628275032069942,
            -0.031851336376904425,
            0.0489762918757354,
            -0.010754854377866552,
            0.02190583620704329,
            0.003992223259769225,
            -0.018709894682508815,
            0.12319946256074778,
            -0.02336119804232597,
            0.03405688157940828,
            0.00040678163995237554,
            -0.039388681330605205,
            -0.04080987680080947,
            -0.010020854735983133,
            -0.03250212577354442,
            0.037031478536975186,
            0.013258321306554712,
            -0.021880818713746347,
            0.0382688017636976,
            -0.0316944753206666,
            -0.022825527388093247
        ],
        "bias": 0.0
    },
    {
        "weight": [
            -0.033129273119947865,
            0.022000071034854223,
            -0.032315054046947726,
            0.03157661537959396,
            0.1549071942458404,
            0.021041988949449954,
            -0.039209413757037084,
            0.0022755850938166906,
            0.0017455595211427817,
            0.02029847015740789,
            0.03967105373136655,
            0.02538859005602836,
            0.027228066767320303,
            0.06543116043608735,
            -0.019821556341027995,
            0.03759042999988862,
            -0.04568658800322011,
            0.019367365646506096,
            -0.023631697392585974,
            0.03391640342235603,
            -0.0010514790843422254,
            -0.010950079601732962,
            0.017043311565439298,
            3.578627508912122e-05,
            0.024824013606338024,
            -0.0330680007265316,
            -0.04707989035777826,
            -0.029231061066770512,
            0.02107095006968162,
            -0.002452714160298339,
            -0.022976278318247882
        ],
        "bias": 0.0
    },
    {
        "weight": [
            0.024227247090068262,
            0.1377291066704805,
            -0.03258027077654783,
            -0.026133660838853476,
            0.11016753645479592,
            0.058627336600369624,
            0.0019405762873503298,
            0.019243173528583346,
            -0.08732409933618351,
            0.01385340341125493,
            -0.00241538518589512,
            0.017461300701468806,
            -0.029551133649409075,
            0.02388543610201547,
            -0.0062586983984405375,
            -0.025283643487154304,
            -0.03906500222768409,
            -0.01903857069125466,
            0.03328330313532168,
            -0.022348285731443433,
            0.026905925753943728,
            0.04520633841623488,
            0.002262649312049712,
            0.039921748179415024,
            -0.0324752165446132,
            0.018660738297336717,
            0.057972917848545163,
            -0.015355730543869968,
            0.07872124279199058,
            0.012806262161054488,
            0.033818446000871694
        ],
        "bias": 0.0
    },
    {
        "weight": [
            -0.03305182072729474,
            -0.042678788759129456,
            0.024954881669896237,
            0.04450475450085585,
            0.12678133036309197,
            -0.009679100194039251,
            0.029959303387540395,
            0.010482994500957108,
            0.11084637230103685,
            -0.032811252721267094,
            -0.027741903585709632,
            -0.03060221155950935,
            0.05913265216611065,
            0.016833919936502743,
            -0.06148187660920243,
            -0.02009704323347554,
            0.0382593188412286,
            -0.0036476048558047743,
            0.03323914268290327,
            -0.009121968402306108,
            -0.03967677378844778,
            0.00928704385253422,
            0.0036734124425396573,
            -0.021390997602340027,
            0.025462516509858292,
            -0.019831358486140625,
            -0.029290232376702436,
            -0.00778245472104514,
            0.07267588688482356,
            0.019085351278772537,
            0.03379001975362747
        ],
        "bias": 0.0
    },
    {
        "weight": [
            -0.03325409796577908,
            -0.04411839665653066,
            -0.03250667578299746,
            0.028555621696610696,
            0.07382713376841298,
            -0.006986423266044694,
            0.013881211064247586,
            -0.03499911172129471,
            0.009206216054686415,
            -0.021140220497504237,
            0.02478446329315124,
            -0.032053688272961414,
            0.007526727935012385,
            0.09459803025390208,
            -0.05439874877238875,
            0.03895816886850572,
            0.029169176533801865,
            -0.024206134368492813,
            -0.02346590039758763,
            0.006652517667946489,
            -0.013729299594816289,
            0.06370923019339012,
            -0.0212623759074492,
            0.03254319829661977,
            0.006674121259872383,
            -0.026112894891833632,
            0.03077514714098161,
            0.0008648364921823799,
            0.12651907133303758,
            0.03350408693721919,
            0.034387427590537985
        ],
        "bias": 0.0
    },
    {
        "weight": [
            -0.033514928128669706,
            -0.09147410700066451,
            0.020832303351777458,
            -0.043563293497786024,
            0.01978252596618725,
            0.05110993665691065,
            -0.022438071250654525,
            0.02005406771767497,
            0.03913964374291775,
            0.03883728155215712,
            -0.04349610870352606,
            -0.03219087328238203,
            0.06123463399428871,
            0.0034525835816884448,
            -0.062058803358181494,
            -0.016916887855405852,
            -0.03855341124975549,
            0.024946361172876543,
            -0.018497534865840336,
            0.034363021195676025,
            -0.0523125014430938,
            0.02511069430520186,
            -0.023614072690241097,
            -0.018542356463398926,
            -0.02761933703417045,
            0.01102406272005759,
            0.041109197238121266,
            -0.06931835820381924,
            0.1372053368982958,
            0.04065028495037608,
            0.034802376788308824
        ],
        "bias": 0.0
    },
    {
        "weight": [
            0.02327938506300559,
            -0.004409851117817649,
            -0.03250502403379499,
            -0.0373238072682233,
            0.08918905244098196,
            0.0551695524809304,
            -0.023685412212295375,
            0.01569134429433221,
            0.12729208401285524,
            -0.0437142866055005,
            -0.04389900029350946,
            -0.032236038379309426,
            0.08276395639077905,
            0.05523409765300159,
            -0.053418847295385485,
            0.040919590275461146,
            -0.005774765021187034,
            -0.0077727057502075085,
            0.033637962982400835,
            -0.022856378306418648,
            -0.02177233279911902,
            0.08528890282930013,
            0.028404574258239435,
            0.011160794777172973,
            0.024923638750864906,
            -0.05359933497395431,
            0.041202643337772946,
            -0.016795791663916353,
            0.08765696918866221,
            0.04142408779988737,
            -0.022430295825183254
        ],
        "bias": 0.0
    },
    {
        "weight": [
            0.02330365156210795,
            -0.12882316817432332,
            -0.032365643611322444,
            -0.04519278929253466,
            0.05320308057955122,
            0.05284968925683475,
            0.0047641801306107755,
            -0.03403423608341896,
            0.14968523934733918,
            -0.06919911548897047,
            0.013015638144813133,
            -0.032284240433935706,
            0.063524062767431,
            0.008740475423169448,
            -0.1687759674140244,
            -0.011397613292865361,
            0.03410864031491949,
            0.02371600152423649,
            0.033707638279952414,
            0.03426577991905215,
            -0.030944429938785843,
            -0.03817865723449514,
            0.027253718917165062,
            -0.026183065485303303,
            -0.03182423522678992,
            -0.02824887578046325,
            0.04118819260958541,
            -0.06093866463275162,
            0.08882815935439804,
            0.022798855726037834,
            -0.02260118456514895
        ],
        "bias": 0.0
    },
    {
        "weight": [
            -0.03356901230555199,
            -0.08269954892173659,
            -0.03234544052813746,
            -0.03996765546854285,
            0.03353183818556404,
            -0.0068140750533050385,
            -0.028954085218019263,
            -0.033871775005087694,
            0.11175906353349938,
            -0.11434687839956444,
            -0.04400568533451155,
            0.024951013043525004,
            0.04009314461581551,
            0.06458351272591512,
            -0.17274301538104808,
            0.0431415564076503,
            -0.027493928201322366,
            -0.00886403240491193,
            -0.023412855002045298,
            0.03400885519533616,
            -0.07573807431683569,
            0.020691281981276205,
            -0.0026547056488078636,
            0.02890217110729079,
            -0.0318370435357277,
            -0.02133116530675614,
            -0.016165370852100285,
            -0.018073077753113252,
            0.08329246758726844,
            -0.012161833622462826,
            -0.014017268287756188
        ],
        "bias": 0.0
    },
    {
        "weight": [
            -0.02545102165277802,
            -0.06679725382156156,
            -0.03235312390905669,
            0.015916830562865053,
            0.03276739762217479,
            0.02074782867910907,
            0.025838918481327914,
            0.02410315268912154,
            0.15668541156527588,
            -0.10402887828337372,
            -0.04424222988294757,
            -0.03222452437092154,
            0.10412728283968449,
            0.007830404299010474,
            -0.1818355111827197,
            -0.013742812997721184,
            0.03391912970484172,
            -0.008953531623724788,
            0.03377606847565113,
            0.03401270941097998,
            -0.07540291830660346,
            -0.036015877661398576,
            0.027442348417837294,
            -0.03542671452656123,
            0.025326938196226657,
            0.017362625385984747,
            0.04061420104796626,
            -0.06146625238427274,
            0.08515455695049517,
            0.04947571121613958,
            -0.022558140006100666
        ],
        "bias": 0.0
    },
    {
        "weight": [
            -0.032273597880926624,
            -0.16253314121232632,
            -0.024177170808247266,
            0.0017882452745945385,
            0.048025469678330095,
            -0.026207757505157785,
            0.013911574324525448,
            -0.03760013399312323,
            0.16547066665304377,
            -0.12178565601538414,
            -0.013463324133434068,
            -0.011650164758151326,
            0.022510796315768158,
            -0.0005661727257905729,
            -0.07201966928322276,
            -0.01253477367236865,
            -0.037180436696471336,
            0.038066218266744035,
            -0.0229630144126904,
            -0.0179376680840736,
            -0.046388008163921614,
            -0.04717454131942531,
            -0.04379213098925544,
            -0.02745781366015186,
            -0.03219565457860173,
            -0.003629385198016828,
            0.041083950715401836,
            -0.04696527398750928,
            0.08806483580044638,
            -0.0026162356335116296,
            0.00534688416152648
        ],
        "bias": 0.0
    },
    {
        "weight": [
            0.023467718937937265,
            -0.13982273873032336,
            0.0021484558341481343,
            -0.042090929879961755,
            -0.0004589667458076719,
            0.05302232293059865,
            0.028889558094237735,
            0.03509285819457578,
            0.1276424873186306,
            -0.0995302839975994,
            0.01191133897491731,
            0.02484685859265204,
            0.0532384692775769,
            -0.018386071138548513,
            -0.17879112639359998,
            0.02918543792245635,
            -0.0335323006912379,
            0.04824152011418845,
            0.03400934901229205,
            -0.02295481622028163,
            -0.07460740195434816,
            -0.0198069965107121,
            0.01753148391379079,
            0.019717241493183543,
            -0.03180459476886242,
            0.0673157241096019,
            0.024379547989883225,
            -0.010393137615574215,
            0.07601073734296628,
            -0.003818349021059584,
            0.03470316375343145
        ],
        "bias": 0.0
    },
    {
        "weight": [
            -0.007393472538609625,
            -0.06559309107942445,
            -0.03252773572215334,
            0.011008044670093262,
            0.04754413996095982,
            0.004196542558120348,
            -0.04025414867496923,
            0.038340830743691184,
            0.04792427126807167,
            -0.13738266150989376,
            0.03548550097264214,
            0.02232869238961052,
            0.04345608153760738,
            0.06157290886210687,
            -0.07005112446614038,
            -0.03343445960351919,
            -0.02978324430325501,
            0.05190897357894799,
            -0.02333506115416453,
            0.03443818592893885,
            -0.029958506198251526,
            0.00018908203848070186,
            -0.024425432979842846,
            -0.0073029798550927885,
            -0.03215420799771964,
            0.020214059863586677,
            0.03981730440460995,
            -0.0670147599005447,
            0.11570616795140458,
            0.048366112108454894,
            -0.02242909304353173
        ],
        "bias": 0.0
    },
    {
        "weight": [
            0.01723134368876437,
            -0.1520174692467148,
            0.024740947622728555,
            -0.03880202946757169,
            0.07910871952343368,
            0.014386719597556918,
            -0.03159622600438871,
            0.02904265530602151,
            0.05926432304924549,
            -0.12530205282853263,
            -0.030735619912642613,
            -0.032546924293574656,
            0.017620489649853632,
            -0.03233268512852946,
            -0.06410874686696065,
            0.031151587448086687,
            -0.01598950915234557,
            0.07070742804549636,
            0.033985712415310634,
            0.03416558486237609,
            -0.02854744330605285,
            0.05812933641612284,
            -0.03728116656793162,
            -0.03098897519365098,
            0.02478140638523176,
            0.009302103228038296,
            -0.018010987977907577,
            0.0022434932785032743,
            0.06855303672773624,
            -0.017770650804949877,
            0.034556311112846204
        ],
        "bias": 0.0
    },
    {
        "weight": [
            -0.0193419848593923,
            -0.06298688329749784,
            0.02508172249944965,
            0.005795697776055287,
            0.02437998516556478,
            -0.015011239606171184,
            0.004398563800284293,
            0.06243075244508084,
            -0.012164570995354243,
            -0.1469736052561278,
            -0.036272941762310544,
            -0.030733710321493263,
            0.031861985782758284,
            -0.0028638657955384395,
            -0.05497326134498254,
            0.022864222843321885,
            0.03864444341950136,
            0.08370813137597544,
            0.03310478088487463,
            -0.023921015614665836,
            -0.1391791373315668,
            -0.05134241017972969,
            -0.1231315341676706,
            -0.006052799364038944,
            0.02473949906717843,
            0.07616858964676167,
            -0.06390348836116905,
            0.04251220556973839,
            0.032646220462628744,
            0.015293433816125784,
            0.01657588724935531
        ],
        "bias": 0.0
    },
    {
        "weight": [
            -0.029921024606330518,
            0.02897187353270774,
            0.024817835806517585,
            0.00634146958927214,
            0.020816347506101243,
            -0.012663249638653598,
            -0.028306341488418315,
            0.049574709452642356,
            0.0854351295738432,
            -0.17350868235391415,
            -0.044004163464821035,
            -0.03152486639701743,
            0.05171095999770926,
            0.024453999102517648,
            -0.07527508160687642,
            0.008049978823044547,
            0.03211024231169875,
            0.009551669528622249,
            -0.023380671662335602,
            0.03384541067459567,
            -0.17040273696791775,
            -0.09913115713544088,
            -0.08347446817348189,
            -0.02657238995741704,
            -0.013253313404582015,
            0.04454404596537654,
            0.04119323950303551,
            0.0443570115269102,
            0.013053480793828684,
            -0.04773080948542562,
            -0.022828518028852718
        ],
        "bias": 0.0
    },
    {
        "weight": [
            -0.030637520715677852,
            -0.09150931801531886,
            0.024815294522224016,
            -0.06945282013139913,
            0.029021260048296714,
            0.028539597391876233,
            -0.020548889765854842,
            -0.011943248909850204,
            -0.06529994923964834,
            -0.11335137824940915,
            -0.032134134411680775,
            0.02519159862252783,
            0.011055503911776595,
            0.06318614406695133,
            -0.05336781698753279,
            0.03326843583582141,
            0.061086050499710894,
            0.16563245527140005,
            0.03410080593137378,
            0.012506878712923102,
            -0.027222346717786384,
            0.017695246311458922,
            -0.07003798853219718,
            -0.004858526333931365,
            -0.03328138571460306,
            0.06728426447182241,
            0.09358786586203453,
            0.05183625429377444,
            -0.0019118075024297163,
            -0.038111746249863396,
            -0.02306652349685784
        ],
        "bias": 0.0
    },
    {
        "weight": [
            -0.03321046719129936,
            0.009891090415466043,
            -0.032797538086043264,
            -0.03198653072733988,
            -0.01409840434727321,
            -0.015524761626528381,
            0.0066485602841691305,
            0.03436695472533752,
            -0.01595907106240524,
            0.04895544878469104,
            0.0048899379450397665,
            0.024734454717018704,
            0.028641107159428122,
            0.12075494860556733,
            0.03746742790775272,
            0.03169763386949918,
            0.01258140685022318,
            0.039780399494867495,
            0.03407404158301175,
            -0.00706786739111724,
            -0.1528244171034954,
            -0.027828152110803844,
            -0.05786991631612559,
            0.04985213592229368,
            -0.03387468941756547,
            -0.04364305030938892,
            -0.026217544307286393,
            0.03268986218261621,
            0.08301074518609321,
            0.017979798423165196,
            -0.02186345688626453
        ],
        "bias": 0.0
    },
    {
        "weight": [
            0.013329769309091369,
            -0.06904682321570793,
            0.024660770021323115,
            -0.04201928433292767,
            -0.02956592345758845,
            0.02926433798734729,
            -0.032534803435994006,
            -0.04175413450783912,
            0.05638106410755721,
            -0.02962068842043476,
            0.014521988136517547,
            -0.03228882291501945,
            0.023501458638092564,
            0.051519387981096045,
            0.08986510047718063,
            -0.025213856770493363,
            0.0027120369168223807,
            -0.005849644958290228,
            -0.023053016918858985,
            0.034231564998416786,
            0.005369455173170752,
            0.09777691477263495,
            0.02633679991973064,
            0.04878709985868279,
            0.023881210916518257,
            -0.07792724735892576,
            -0.07664501506639124,
            -0.06205375388671803,
            0.06069542240262569,
            0.03675935455942023,
            0.03515469362888918
        ],
        "bias": 0.0
    },
    {
        "weight": [
            -0.0342902208199679,
            -0.0683049050399317,
            -0.03264199531488536,
            -0.06249528628652614,
            -0.04003211812343337,
            0.007527012811495357,
            0.03157259131638973,
            -0.02349620770193003,
            0.03644828853842186,
            0.027207579683984025,
            0.013114970006437151,
            -0.032796708096212275,
            -0.03645350326460591,
            0.11447386485269415,
            0.05489614413607472,
            -0.0352190463396211,
            0.02214409982924011,
            0.16326751270210726,
            -0.022877311976240818,
            -0.022378827140230238,
            -0.04586590618275039,
            0.03953702750133123,
            -0.008225765300526771,
            0.005959568808442959,
            -0.03237659069436566,
            -0.0446123159041954,
            -0.08860792529187361,
            -0.009718181920182464,
            -0.055251455038707806,
            0.040589672926495395,
            -0.021614707251028386
        ],
        "bias": 0.0
    },
    {
        "weight": [
            -0.034139308874892166,
            -0.12636394011585567,
            0.023869840749127538,
            0.003521561307688549,
            0.0649091171233225,
            0.04413427110864652,
            -0.004417705567452115,
            -0.17309781179647718,
            0.10215226920309539,
            0.0164109364048087,
            -0.05317448966492926,
            -0.032214317104081465,
            0.0168648212826148,
            0.06622903730103272,
            -0.03796961185057785,
            0.0941128074550764,
            -0.022216534358859497,
            -0.15377285753450196,
            0.03330059613425434,
            0.033641285594234814,
            -0.0709321702701647,
            -0.003326157360578328,
            0.031047701624086616,
            -0.02343226462834287,
            -0.03156687940982618,
            -0.021803976970881628,
            -0.08040125847587434,
            -0.033441513746404056,
            0.008358570282455057,
            0.025415056305894537,
            -0.022079149098467435
        ],
        "bias": 0.0
    },
    {
        "weight": [
            -0.03400671605894159,
            -0.07737933937326366,
            0.023631925692918235,
            -0.0637924118656888,
            0.21003789615638307,
            0.04004174670314631,
            0.035188230618849396,
            -0.16183440711424038,
            0.11293275587839524,
            0.083449694771839,
            -0.00542572256850287,
            -0.03157528095259426,
            -0.004052388118837534,
            0.18095274602001354,
            -0.1572619627320478,
            0.07551805408730944,
            -0.023972852344349843,
            -0.10475863139882959,
            -0.0003868814472664076,
            0.033686635114983036,
            -0.11126843296624502,
            -0.11124691695575806,
            -0.08942196855807251,
            -0.01669574503677275,
            -0.03226750303241996,
            -0.028716790920871656,
            -0.013013618996794667,
            -0.04258479176479344,
            -0.039321134504227036,
            -0.0026910188634404987,
            -0.022648080686353707
        ],
        "bias": 0.0
    },
    {
        "weight": [
            0.023140881441979944,
            -0.06920876525199886,
            -0.03309957353003079,
            0.01348586379290756,
            0.1580370399677188,
            0.038456467922608324,
            -0.03286752483212428,
            -0.11456677578435168,
            0.10049279052596094,
            0.024013830732316305,
            0.007015355138824019,
            -0.031045410938048135,
            -0.03722914835477088,
            0.13730657411774785,
            -0.18036924346028385,
            -0.01556481868742087,
            -0.040998161682332154,
            -0.17308682687856358,
            0.02834376759910901,
            -0.023952798743541708,
            0.06295147755773187,
            -0.04423220973561779,
            -0.03937295112912216,
            0.024622469398245334,
            0.026067773459663823,
            -0.010355355427230154,
            -0.05714765084513841,
            -0.037698075855873266,
            0.017322329612822502,
            -0.015421110629532251,
            0.030476204491888783
        ],
        "bias": 0.0
    },
    {
        "weight": [
            -0.03267181010293903,
            -0.03630899080470858,
            -0.0327089505765045,
            -0.030468475270291007,
            0.13036528829181243,
            -0.0005350520954496412,
            0.01948399398947278,
            -0.05646110100112694,
            0.110782860686709,
            0.10701109281308804,
            -0.03299685651962022,
            0.026035590013405205,
            -0.06801820234707956,
            0.12656657497377932,
            -0.003415662853797431,
            0.1285981941563438,
            0.018246692206738902,
            0.03178449186046693,
            0.03276506316051134,
            0.032068522879589445,
            -0.02826407379957657,
            -0.008173844893992002,
            -0.044721297960652495,
            0.05487117337544002,
            0.025128048571884287,
            -0.0255539284173961,
            -0.07173727338682385,
            0.039300320712079666,
            -0.004881049867899152,
            0.000272005996328508,
            0.03397612535015762
        ],
        "bias": 0.0
    },
    {
        "weight": [
            -0.012815603298124213,
            0.15991589944639287,
            -0.031249237121327995,
            0.02591753750458718,
            0.08880635753076765,
            -0.025815065544291197,
            -0.020476285789985026,
            0.03522100851741449,
            0.04914762490041795,
            0.03393669868289977,
            0.04178544480701235,
            -0.03125919699177339,
            0.009901086697905542,
            0.10252141447495783,
            -0.12589272867023876,
            0.16763589524140607,
            -0.034353761513649085,
            0.02737146213832269,
            0.03204336178150582,
            -0.026606255285366403,
            0.04557453639739441,
            -0.022915288556826285,
            -0.0399433543444542,
            -0.0020667532875472557,
            -0.030993135892520087,
            -0.018180038254138227,
            -0.10780223203037304,
            0.07052423138961704,
            -0.016262513093449525,
            -0.014685240810091604,
            -0.002760614134478549
        ],
        "bias": 0.0
    },
    {
        "weight": [
            -0.03183347652216539,
            0.10667679459842976,
            0.02545719395065047,
            0.0641435645403564,
            0.029174840381395683,
            0.00839303900904918,
            0.008418345797230012,
            0.04160253639610445,
            0.09905755177663211,
            0.018452089890029083,
            -0.03162729350879505,
            -0.030904645681882937,
            0.002750693817648548,
            0.12226116294039957,
            0.035570101437294166,
            0.01198844522414004,
            -0.017257119780368566,
            0.05761913912918064,
            0.03226958686440543,
            -0.02520235157052379,
            0.098893666847966,
            0.06079264024472367,
            -0.031115064024494318,
            0.013181121004595064,
            0.02676736282168452,
            0.02254106990942824,
            -0.15212582478907233,
            0.0410858639500032,
            -0.027502922794663282,
            -0.010682027568687151,
            0.032319688597587486
        ],
        "bias": 0.0
    },
    {
        "weight": [
            0.025813559918174144,
            0.13322610395523654,
            -0.03088014815588457,
            0.09030288597869435,
            0.06196043467560947,
            0.026553543001232856,
            -0.0262398037422446,
            0.02683491660626999,
            0.09519533758435773,
            0.046611567150924994,
            0.01322932097439647,
            -0.025216570419486068,
            -0.012577927217482935,
            0.043958641626348716,
            0.04182909118506137,
            -0.0314277540997596,
            -0.03711842404965987,
            -0.008072497522853307,
            -0.0035496738327011864,
            -0.026142575055923118,
            0.0741085212295564,
            0.017324199806586425,
            -0.01665525883612046,
            0.03289141652840974,
            -0.03007007981733948,
            -0.03583225070893278,
            -0.14917147560553115,
            0.017667487768955832,
            0.050703504787837875,
            0.015991310948223727,
            -0.02557633928062019
        ],
        "bias": 0.0
    },
    {
        "weight": [
            -0.031415154947441584,
            0.17773197386559061,
            -0.03166966503319217,
            0.07919807907658587,
            -0.03418891562706298,
            -0.0004355310111641745,
            0.03355650070546493,
            0.08168951416353844,
            0.10287473437649342,
            -0.019849807925983478,
            -0.008431566588380318,
            0.011801291359116131,
            0.02193119931222137,
            0.08148473356403302,
            0.026126652945199273,
            -0.10806863357742892,
            -0.026758738978143612,
            -0.08426511833343636,
            0.03232632298983367,
            -0.025298552769316356,
            0.021416618613130836,
            -0.010541429184686837,
            -0.040284224092673196,
            0.020310180524805217,
            -0.03056433376058881,
            0.0170259568142525,
            0.029108863552343368,
            0.020625163618298116,
            0.009113983552794561,
            0.013816661916031698,
            0.032796869917393306
        ],
        "bias": 0.0
    },
    {
        "weight": [
            0.024638421929462036,
            0.12150553242140398,
            -0.03236656930468573,
            0.05305129554743545,
            0.014076179890244053,
            0.04055060125605567,
            -0.01722695678898071,
            0.05702514733420906,
            -0.027934331185143473,
            0.05071573513530851,
            0.060847924998804766,
            -0.01737419490439297,
            0.027829831780724013,
            0.05946221634924826,
            0.04542728882594999,
            -0.027715807275693796,
            -0.001186113261531162,
            0.04118444589544983,
            0.0330192989101771,
            0.033661343311087465,
            -0.029788483054298556,
            0.021024590818293807,
            -0.04060611815421164,
            0.02729460989432798,
            0.02460068784111403,
            -0.1417470172129729,
            -0.0744900246721266,
            0.010863569145488493,
            0.017697927849025245,
            -0.048862864454575265,
            -0.022955927827600305
        ],
        "bias": 0.0
    },
    {
        "weight": [
            0.007298694848854326,
            0.0861309612153783,
            -0.03268531638338954,
            0.05372890020762824,
            -0.021322938710383373,
            -0.005279727396410221,
            -0.005359618700726044,
            0.01104842469658729,
            0.021174552551135387,
            0.007624900271119418,
            -0.0046113576789317936,
            -0.030610665875724266,
            -0.017360018438722105,
            0.043667438566141706,
            -0.02132919910938574,
            -0.09341005220998078,
            0.01894244253424435,
            -0.24733455256780845,
            -0.016672943507563622,
            -0.021879502431501333,
            -0.07579542915729699,
            -0.008616145066338848,
            0.008800517935025823,
            0.026498364442651544,
            -0.03224420146072426,
            -0.10934817986915978,
            0.06846464641614342,
            -0.01597703310859897,
            0.02579951424056367,
            -0.03189681059996634,
            0.03445268636132746
        ],
        "bias": 0.0
    },
    {
        "weight": [
            0.024542228450186075,
            0.15131416159503078,
            -0.03299101754914146,
            0.03330730056324122,
            0.04280403021916528,
            0.06380558089746229,
            0.012092626421813137,
            -0.0019211837518836134,
            0.008213263164400015,
            -0.025217316111627704,
            0.056285837977601706,
            -0.030429414149080625,
            0.007320296242594489,
            0.07957429397952329,
            -0.08596457319938264,
            -0.03288566673736999,
            0.03091243035503061,
            -0.018167588933272458,
            -0.0017351662117783156,
            0.03449037497739545,
            0.026835041569085456,
            0.013850380874495308,
            -0.026214768117469527,
            -0.016931852523862152,
            0.025722835969154475,
            -0.0937073595421573,
            0.18666518933557774,
            -0.009139651784383628,
            0.0712022864896874,
            -0.0454789026222198,
            0.030843625365973786
        ],
        "bias": 0.0
    },
    {
        "weight": [
            0.025194780795704565,
            0.025867579119006175,
            -0.031602308768281996,
            0.03279357170134211,
            0.03586643108746192,
            0.03862969490728568,
            -0.029697353757422867,
            0.040143726213959986,
            0.09501472532159579,
            -0.08389428314125559,
            0.023670317716376635,
            0.02806043761453673,
            0.04821225605615429,
            0.00914978381540414,
            -0.136279974696984,
            -0.05456041650166275,
            -0.03473240774848538,
            0.0010476278509467972,
            0.032852661359595484,
            -0.023827654561057548,
            0.05075759023587944,
            0.00803987344108791,
            -0.11354322218465651,
            -0.013731026483908178,
            0.02583057968618741,
            0.03043465326030911,
            -0.019806656561242184,
            0.034471904498736806,
            0.041447624930069045,
            -0.027970458523815387,
            -0.016235788676162034
        ],
        "bias": 0.0
    },
    {
        "weight": [
            -0.03230840370389975,
            0.06702267459082153,
            -0.004446122204324213,
            0.015572728714713978,
            0.03791440220364158,
            -0.022169117269465796,
            0.015436048189032022,
            -0.03216383787837496,
            0.1429777331143792,
            0.020800617077503938,
            -0.03600629401111052,
            -0.02990505733147698,
            0.015175433327708206,
            0.0475898965437263,
            -0.06324450336059471,
            0.0010511720521235288,
            -0.009472677027960072,
            0.06787036949766508,
            0.032849794239482116,
            -0.023646757080075992,
            -0.050345587802795605,
            -0.013674316600532805,
            -0.042947530152072075,
            0.05289415923326437,
            -0.0228540030211846,
            -0.01151902958103791,
            0.007748620659094224,
            -0.013133691177473995,
            -0.011792015799779936,
            0.010738494810716103,
            -0.024502433514467903
        ],
        "bias": 0.0
    },
    {
        "weight": [
            -0.0331151100352089,
            0.041694568065236,
            -0.03270786411169209,
            0.050247273620894775,
            0.011819383526166008,
            0.05554381153051014,
            0.021732067812242288,
            0.02058762265621514,
            0.022298307072663608,
            -0.032094747331109605,
            0.012436995336116422,
            -0.03133480180765932,
            0.03675551928836171,
            0.0622556642562425,
            -0.13042898775874992,
            -0.02020319972674617,
            -0.016618337342232645,
            -0.024098815316069166,
            0.028412162504738967,
            0.0348168133172276,
            -0.02988608911890936,
            -0.0015342861710068625,
            0.015277754392808702,
            0.05311125659812934,
            0.024410543728249343,
            -0.02142769252880404,
            -0.04422429963568586,
            0.019673045066007186,
            0.0546814877378967,
            -0.008239656230632157,
            -0.023016876833401985
        ],
        "bias": 0.0
    },
    {
        "weight": [
            -0.03327639323505021,
            0.10643797307415818,
            0.024701810564727665,
            0.05571017084027108,
            -0.004345281714884958,
            -0.0013030800372536174,
            0.02257595819172021,
            -0.03519223310357978,
            0.02394416668996094,
            0.10899820387346636,
            -0.02165863678010805,
            -0.031215060511517668,
            0.050267356410655245,
            0.026319242820412383,
            -0.017706355017425887,
            0.023535180506940638,
            0.007956332068390175,
            -0.05749179686129457,
            0.033532030427606614,
            0.033921848251544,
            0.0050138201432951045,
            0.011299607056529272,
            -0.0007951461107955429,
            0.004544051781008156,
            0.024363481560202682,
            -0.0315799446864415,
            -0.04292028162220031,
            0.01667186766488209,
            0.04851078343538885,
            -0.03421345719193542,
            -0.023278007421676686
        ],
        "bias": 0.0
    },
    {
        "weight": [
            0.02378049700142698,
            -0.039805514949241325,
            -0.032349086637562904,
            0.004054226973903343,
            0.07045129485062988,
            -0.0035514568488942476,
            -0.001565992500671655,
            0.02350504357501473,
            0.11890976264634467,
            -0.01862794881829181,
            -0.02067654394719865,
            0.025507236272788277,
            0.06877837431009225,
            0.05370960159018881,
            -0.1777451973013022,
            0.04186744196356436,
            0.002080553078979027,
            -0.014067220410100535,
            -0.023576191704849585,
            0.03320761383745828,
            -0.02434680283857516,
            -0.00892868206165857,
            0.012110329685865798,
            0.03622752618851967,
            0.024881047618355658,
            0.0022614092879343502,
            -0.06788340642069819,
            0.014676248099760683,
            0.11800634667997466,
            0.024572656941590377,
            0.027531822480862087
        ],
        "bias": 0.0
    },
    {
        "weight": [
            -0.0335910746400025,
            -0.06677221085069898,
            0.024729056067700178,
            0.014894224970240538,
            0.07749916796279187,
            0.046531431921273764,
            -0.0394774486357332,
            -0.024266043859429567,
            0.09732976717940764,
            -0.13292464945511662,
            0.012864443118112634,
            0.013019316942998202,
            0.08884793243816944,
            0.06531247737097225,
            -0.1558115982875728,
            0.006976181326492051,
            -0.026345889743475747,
            -0.008480355595763435,
            -0.023225100019287778,
            0.03415227478685961,
            -0.051294996335991765,
            0.0010610913967249262,
            0.010519153001490705,
            -0.027748480222405916,
            0.025148542066757415,
            -0.023154610707481187,
            0.06531948350704456,
            0.007953617676695935,
            0.12413401796532665,
            0.030564768435705617,
            -0.022452455946789917
        ],
        "bias": 0.0
    },
    {
        "weight": [
            -0.03356155043430047,
            -0.06764984724224186,
            0.024802102063585733,
            -0.043614664623903766,
            0.03228499330945107,
            0.03393786642883754,
            -0.051637143685791184,
            -0.03396511397699948,
            0.04720695361431967,
            -0.23261788851107335,
            0.01601510512226384,
            0.0047137406850284065,
            0.07596315562539244,
            0.009451910056377171,
            -0.1664109369026642,
            -0.007562863572387429,
            -0.017083169164557394,
            0.03072605084939301,
            0.021843236733285205,
            -0.02326501183912888,
            -0.026936461447492344,
            -0.03903518930806274,
            -0.017057459393303897,
            0.01858365482803681,
            -0.031797307837956534,
            -0.024565354745191073,
            0.030555612549888173,
            -0.0026491938078193255,
            0.15373500432523593,
            0.05072460679302809,
            0.024916008140042786
        ],
        "bias": 0.0
    },
    {
        "weight": [
            -0.006398013943167317,
            -0.1243768018723311,
            0.024784014479718345,
            -0.04156267842882114,
            0.03295366790148775,
            -0.00394541033917673,
            -0.03100780332391456,
            0.02335131186754515,
            0.11007968745263672,
            -0.1604474407281094,
            0.013180779454323768,
            0.024870819330116718,
            0.04675771255364643,
            0.06644673100502275,
            -0.1245894850165652,
            0.044234875835577336,
            -0.02236916627441801,
            0.005636484474982702,
            0.03376342283801436,
            -0.02308372339428674,
            -0.02622308551494585,
            -0.0467992453304857,
            -0.0034401908717123534,
            -0.026766989164893205,
            0.025305838624198874,
            -0.01816229228620872,
            0.0405894703902314,
            -0.030343847546940566,
            0.14231492493164927,
            -0.00826753144972359,
            -0.0225231995405038
        ],
        "bias": 0.0
    },
    {
        "weight": [
            -0.03356692623798481,
            -0.1031969753867017,
            -0.032304791407990176,
            -0.035088457349501945,
            0.09238819985772725,
            -0.025933271806284637,
            0.015525903550630276,
            0.027339814577706355,
            0.1439915235973531,
            -0.11471729269445421,
            -0.04501979978715547,
            -0.032076687565136666,
            0.09321140764654129,
            0.06659162397776254,
            -0.02188867625362969,
            0.053689938711785255,
            -0.0384000175042118,
            -0.017448531881641336,
            -0.023246867376591988,
            -0.023064835017376505,
            -0.05930407903939405,
            0.000956819550389877,
            0.011795205729294845,
            0.03747141877334968,
            -0.017725135246181467,
            0.04618820515418584,
            0.026483089702122816,
            -0.0329740578644617,
            0.025870092846331624,
            -0.005201679052706782,
            -0.022657473855579105
        ],
        "bias": 0.0
    },
    {
        "weight": [
            0.023645490591577212,
            -0.07596076212469353,
            -0.03219453239022721,
            -0.03814358308557172,
            -0.006646890725126538,
            0.06340863490456958,
            0.025445826944620758,
            0.0018744128675856834,
            0.22549962627124082,
            -0.07906629218390523,
            -0.057011543042013224,
            0.025289853194754387,
            0.08119249235003889,
            0.0730884452497975,
            -0.12524699829890537,
            -0.04434261632024129,
            0.015469567846583808,
            -0.021595145851556183,
            -0.023433881803896814,
            -0.022607493083828763,
            -0.01878298476421304,
            -0.013483198975475567,
            -0.015997925500576743,
            -0.014934096439582085,
            -0.03165733270909816,
            0.044867840670178266,
            0.055275122321193686,
            -0.07754868248950146,
            0.05913906788195836,
            -0.004143119974860307,
            0.03486925940981014
        ],
        "bias": 0.0
    },
    {
        "weight": [
            -0.03285017637080353,
            -0.03557280751085499,
            -0.03117775800582917,
            0.01956526539454368,
            0.052964133634880825,
            -0.040094208046852486,
            8.8216290850138e-05,
            0.03686906823255183,
            0.3222395678466694,
            0.014377800535195356,
            -0.07196814905681556,
            0.026086721041273738,
            0.06346611338236426,
            0.023499045442349462,
            0.02275360797195488,
            -0.04330166656152598,
            0.023859361845104173,
            0.25069318346836916,
            0.033168797593849456,
            0.03231931564835434,
            -0.08584193099666436,
            0.0980669392087373,
            -0.06547539292688853,
            0.015828463330962904,
            0.019242048176889875,
            0.037876730508211685,
            -0.006214597099425304,
            0.006361884559128331,
            -0.004722380208490512,
            -0.02459719273833509,
            0.03331611770169566
        ],
        "bias": 0.0
    },
    {
        "weight": [
            -0.03157358778777547,
            -0.08486037543961283,
            -0.02983914812997325,
            0.007104371641821185,
            -0.06758393774967945,
            -0.06826648035211318,
            -0.0584900651971404,
            0.06162534964399965,
            0.0510798723534641,
            -0.1911245143561642,
            -0.0751702144110098,
            0.02830830584849063,
            -0.04718937465999876,
            0.05149534142602904,
            0.048578888567057575,
            -0.03780117604987286,
            -0.017632465491491174,
            0.11858147336311399,
            0.012592983421206065,
            0.030087644138399115,
            -0.07627608984005471,
            0.016377363516072448,
            -0.036755261907932,
            0.018112939780931318,
            0.02543295996495683,
            0.010941137010730533,
            -0.13515879330117964,
            0.00820906831636847,
            -0.09699748691617813,
            -0.002075603531319279,
            -0.024866384201116053
        ],
        "bias": 0.0
    },
    {
        "weight": [
            -0.012422069248662326,
            -0.05702865083882672,
            0.02757183113304897,
            -0.043543559651547194,
            -0.11737432565078139,
            -0.008902402016696913,
            -0.047286095022374616,
            0.10234305249288303,
            -0.036553301782458796,
            -0.06506159193504306,
            -0.00244215634493061,
            -0.030949532808708095,
            0.03810047293418008,
            0.09229583526880854,
            0.14665577453557763,
            -0.00439850308306303,
            0.022280447224622763,
            0.14643515237307553,
            0.032375735119359934,
            -0.023726163496406823,
            -0.13009130517003598,
            0.1042086325007574,
            -0.08140796447969127,
            0.009566011868064666,
            0.024318225142439514,
            -0.020795263322016627,
            -0.04856212290903572,
            0.03485343982864999,
            0.12629422437279011,
            0.010422663033269835,
            0.03284780882959734
        ],
        "bias": 0.0
    },
    {
        "weight": [
            -0.0327160774194819,
            -0.041247838103014016,
            0.02651720408349376,
            -0.06943326345941143,
            -0.11766858539452765,
            -0.0017579866088116673,
            0.025336297101405624,
            0.1936295269275064,
            0.14738246041681555,
            -0.09214563476562833,
            0.0020005210423151613,
            0.01640266125495351,
            0.033476717529181424,
            0.11640019716063663,
            0.14719530847287346,
            -0.07024420757266536,
            0.023682812005540302,
            0.3275512159084418,
            -0.024042668296066858,
            -0.023155015937726346,
            -0.09196014566286548,
            0.1079930323160988,
            0.010592948858768676,
            0.002567310431834713,
            -0.03320816828915774,
            0.009259768919546076,
            0.003932923362500468,
            -0.019502501139356466,
            0.10264167622301854,
            -0.008456338476857363,
            -0.023346333158462355
        ],
        "bias": 0.0
    },
    {
        "weight": [
            -0.03257060719910368,
            -6.810761272598935e-06,
            -0.03013630532771864,
            0.019132494556951173,
            -0.12810538538870994,
            0.06179661525457788,
            -0.018113959870490498,
            0.058490518990945206,
            0.0659253370537631,
            -0.06517842508332601,
            -0.032454173526110436,
            -0.03154035129736553,
            0.027759053293779447,
            0.26677642470914187,
            0.13980097624881654,
            -0.04478431017378649,
            0.023544404997515315,
            0.20160812045360885,
            0.03199208014270256,
            0.02746782075613605,
            -0.11331152461053999,
            0.09740695356341443,
            0.01588478165598997,
            -0.02072397481884104,
            -0.0321874583491817,
            -0.08378875853307839,
            -0.08927361795611069,
            -0.049551653409208224,
            0.10137511697560754,
            0.009473971598649237,
            0.033898306331647955
        ],
        "bias": 0.0
    },
    {
        "weight": [
            -0.03389850513801148,
            -0.14312635987041586,
            0.026000953385557916,
            -0.10330405533617865,
            -0.20227929442294224,
            0.029215967796302325,
            0.0468420815925395,
            -0.059682183250635526,
            -0.06156713538249264,
            0.10763490135419754,
            -0.0447473927481039,
            0.024338615671017635,
            -0.09368698770349777,
            0.02650099648960521,
            0.1574092577336234,
            -0.00903151927118973,
            -0.027720791163805276,
            0.03210863252708048,
            0.032368702230096226,
            -0.02370933738724646,
            -0.21247532260324006,
            0.11653054027089331,
            0.11872799964019805,
            0.022678998132877534,
            0.0014637130918028901,
            -0.15866237171635134,
            -0.16872559657828168,
            -0.09102213078828511,
            0.0039866340713724325,
            0.007409058268785693,
            0.034980912555674114
        ],
        "bias": 0.0
    },
    {
        "weight": [
            -0.028890216007905062,
            -0.13795043672174506,
            -0.0316370967293409,
            -0.09720669248129042,
            -0.00966780250108286,
            0.02304437865303483,
            0.061842065809967824,
            -0.27090853162714446,
            -0.08531347899077091,
            0.14063047480605315,
            0.030208769929224284,
            -0.03200727208769445,
            -0.10158199658222267,
            -0.13807043978323336,
            0.1960126245096903,
            -0.014896148702760258,
            -0.03842502913211815,
            0.0032759663658158745,
            0.03165856598839782,
            0.00672094345672326,
            -0.13561075000405284,
            0.1483223053169736,
            0.21707377678335193,
            -0.05668931174440128,
            -0.016165337242583882,
            -0.24589656134160476,
            -0.20717061994050465,
            -0.07808245518172424,
            0.04497111595975318,
            -0.03267372518172896,
            -0.021472545050323148
        ],
        "bias": 0.0
    },
    {
        "weight": [
            -0.03434385428387713,
            -0.1757450908601064,
            -0.030894532700207016,
            -0.09182789919654986,
            0.19514125211503,
            0.08165998128059815,
            0.026479147501763337,
            -0.21704409589954082,
            -0.05832644241129415,
            0.1231670727964666,
            9.127837699877716e-05,
            -0.012407398137648552,
            -0.06362412820593075,
            -0.15177266655512164,
            -0.07163926133738549,
            0.03278618269830649,
            -0.07743599411206989,
            -0.09421171441489225,
            0.029693186049409077,
            0.030791332947822304,
            0.04302846642501405,
            0.07998765055805501,
            0.17257493933005277,
            -0.00048525967120417794,
            0.02747985393473973,
            -0.0841554193974304,
            -0.11624602656935769,
            -0.08882693418943098,
            0.0709970576973973,
            -0.009354435823011384,
            0.03322097666461961
        ],
        "bias": 0.0
    },
    {
        "weight": [
            -0.03422818803160028,
            -0.12101017982105569,
            0.020476025709957605,
            -0.07490420010096134,
            0.16036790247119753,
            0.05297473212057948,
            0.04823707364809292,
            -0.21146598410742296,
            -0.0637596365422318,
            0.18436623122585621,
            -0.028810035966129535,
            0.02741052257803939,
            -0.017517715140806637,
            0.018572899627860448,
            -0.025460528975209094,
            0.035022655446865496,
            -0.07054313905386685,
            -0.260370424218092,
            -0.027741006383041604,
            0.030909948165913456,
            -0.22456622807518453,
            -0.012145470408301188,
            0.0971542115766076,
            -0.008973229090625536,
            0.02751701870667151,
            -0.18659938328825107,
            -0.08642607453710105,
            -0.08896665407671661,
            -0.033861341778253715,
            -0.012938274579032493,
            -0.02427963133630336
        ],
        "bias": 0.0
    },
    {
        "weight": [
            -0.026667692531131854,
            -0.12262358763482416,
            -0.03224709741725173,
            -0.049756882674437605,
            0.341731629011737,
            -0.00820342052429435,
            -0.01704433760398648,
            -0.14528149080496092,
            -0.032913340989526814,
            0.06764747767427903,
            -0.006980942873127205,
            0.027550796965226818,
            -0.02199834158279291,
            -0.017286708551025477,
            -0.2332872951097314,
            0.13668582139977906,
            0.0017797661633086822,
            -0.15092127006477057,
            0.02900789974336672,
            0.02120579976490932,
            -0.0680919996043294,
            -0.08165024702468589,
            -0.006772382554076982,
            0.01693102766868352,
            -0.030932475060930147,
            -0.01205693982796332,
            -0.08916766167866393,
            -0.035424526634766446,
            -0.05292059229156197,
            -0.04199591954337829,
            -0.024784991358536658
        ],
        "bias": 0.0
    },
    {
        "weight": [
            0.024572782926084467,
            0.030703612709764926,
            0.02621650660304934,
            -0.020889229660097205,
            0.3447774214393686,
            -0.05864786799327361,
            0.04351611522719717,
            -0.016442520141153515,
            0.07978989056641443,
            0.11995398086482842,
            -0.016309295483834432,
            0.02612453994655555,
            0.04748065741004915,
            -0.10548357117757984,
            -0.03303842761862423,
            0.08207125376325271,
            0.0056659028960907905,
            0.048500845012530776,
            0.0294171334704079,
            0.02629048848804933,
            0.1483122815610341,
            0.049914964972679256,
            -0.07580083018160146,
            -0.016024802061036878,
            0.028944430437516214,
            0.019290165317693016,
            -0.1027373998117773,
            -0.044022384541238205,
            0.010758353734060224,
            -0.015762704268252693,
            -0.025634337222112436
        ],
        "bias": 0.0
    },
    {
        "weight": [
            0.025677340480608473,
            0.017003011052636643,
            -0.031266430094096784,
            -0.0022939686574876385,
            0.19906918937286697,
            0.006349197751360847,
            -0.003658255360080046,
            0.05389474418804108,
            0.06319082697068398,
            0.08837085468426896,
            0.03064122898495288,
            0.025824481848460524,
            0.04930986920016492,
            -0.08570434013744356,
            -0.07286722846768101,
            0.18896181274444343,
            -0.04787813554684076,
            0.1275596068853535,
            -0.025860343556632314,
            0.02781996195477253,
            0.28032582006024626,
            0.12265218785028127,
            -0.01710002448121709,
            -0.02980449010005779,
            0.027094181054438164,
            -0.03095247985132182,
            -0.051191273650248906,
            -0.05911587413573407,
            -0.0020310229738088573,
            -0.03802965978719984,
            0.03229806725189713
        ],
        "bias": 0.0
    },
    {
        "weight": [
            -0.007463970384820716,
            0.17146882218188206,
            -0.006929991468013044,
            0.09049913164369955,
            -0.07160154476629166,
            -0.007236104260449854,
            0.014880316862365439,
            0.12346660452871043,
            -0.029151046064801046,
            0.04877317238412896,
            -0.024756775011193274,
            -0.030786298965017098,
            0.04547753523984828,
            -0.10720974760019537,
            0.07657860512895055,
            0.11860449790325506,
            -0.01277527223294063,
            0.07586363000517242,
            -0.026156924741351926,
            -0.027138558629660255,
            0.07364745978648193,
            0.05492566382996217,
            0.07126393849569493,
            0.009713390689675491,
            0.027036606335356622,
            0.06580411318616636,
            -0.05337153500020631,
            0.07168445926583221,
            0.08866181760426874,
            0.0021887928739740244,
            -0.00019802230651762775
        ],
        "bias": 0.0
    },
    {
        "weight": [
            -0.0158771176802445,
            0.14314423996712347,
            0.026982720861082336,
            0.05324131946477198,
            -0.014834800816407511,
            -0.0026554124655409675,
            -0.018386747926100913,
            0.07596367382686735,
            -0.09396088682007951,
            0.01258226014296629,
            -0.005304677489240994,
            0.02943279155902291,
            0.024329714392959282,
            -0.05552137587916233,
            0.14111107083501512,
            -0.14514398388429472,
            -0.0019310420876756836,
            0.061364553662046885,
            -0.026543576955216818,
            -0.026896699922039687,
            0.10086242760621313,
            0.02229688376624232,
            0.10390005098208435,
            -0.024901624730968276,
            -0.029085704907193817,
            -0.013858753950622686,
            -0.05815372659882522,
            0.012659788050028572,
            0.14698101993958385,
            -0.014593506957985496,
            0.030209427039985345
        ],
        "bias": 0.0
    },
    {
        "weight": [
            -0.023825548465883705,
            0.18822979676447968,
            -0.022810515861850688,
            0.05795141343353467,
            -0.1796468606524652,
            0.013179610840473135,
            -0.011123000584551688,
            0.15020603815572406,
            -0.04313278175394392,
            0.06635767764651,
            -0.0016399583398953841,
            -0.028613173460500928,
            0.10119013225715418,
            0.012900527764883808,
            0.1822237956334185,
            -0.20225274940133234,
            0.005988165915039091,
            -0.08241382209715067,
            -0.025614175282840282,
            0.032781350836422016,
            0.04829994591369176,
            0.02420825908098536,
            -0.017536899814101916,
            0.003649084777500018,
            -0.02997672996430225,
            0.015142210339913326,
            0.11164849712585798,
            0.04740205908895822,
            0.1480856760878119,
            -0.023339754501549344,
            -0.02525856687550167
        ],
        "bias": 0.0
    },
    {
        "weight": [
            -0.011664213058994165,
            0.24835040266779104,
            -0.033397504627050885,
            0.06743020482890184,
            -0.15631629019284102,
            -0.013325197197454902,
            0.036888150443330346,
            0.09392087230437116,
            -0.06604680921106555,
            0.10454957538696807,
            -0.01834673980271287,
            0.027986523612059427,
            0.047586318588214625,
            0.01586269082240457,
            0.23471241212065405,
            -0.1279191492782579,
            -0.05759306829124307,
            0.026949416667993716,
            0.0321403211888668,
            -0.02368588246740062,
            -0.047888550359225616,
            -0.02308154277938463,
            0.07108404562846353,
            0.0188743665085899,
            -0.03144341969629027,
            0.02159234426374075,
            0.15261153213151002,
            0.020779985038185244,
            0.04842534321363731,
            -0.05105078453180231,
            -0.02462962435181143
        ],
        "bias": 0.0
    },
    {
        "weight": [
            0.004569379305748672,
            0.13586327936273773,
            -0.004498342342868984,
            0.06595004817497852,
            -0.07527227330042213,
            -0.053434833534036004,
            0.038692695480347705,
            0.10435740791090355,
            0.008784451392977314,
            -0.022874658558902673,
            0.03129009147998588,
            -0.028850652953251246,
            0.038575851689749995,
            -0.05580108079317471,
            0.1408906052973914,
            -0.14105919653789187,
            -0.028441547565343166,
            0.0153041042295781,
            -0.017565110704260024,
            0.03405726223250506,
            -0.01816751345360584,
            0.004313292133385224,
            0.03595978790847345,
            0.034598306708295605,
            0.02623792238306517,
            -0.010518854352861625,
            0.05074619680501782,
            0.011533755341615758,
            0.011887831132579643,
            -0.019880185047724926,
            0.032060264947702144
        ],
        "bias": 0.0
    },
    {
        "weight": [
            -0.03246063047277754,
            0.18419113776617654,
            0.02502258600782536,
            0.09800006343846157,
            -0.013227176666606092,
            0.01994919326567693,
            -0.02847305604613061,
            0.022627120811519897,
            0.047719568276204674,
            0.05801149634633203,
            0.0759693301025432,
            -0.02973556991807443,
            0.03361540001993891,
            0.05064500162708881,
            0.032614577485244114,
            -0.08099978469484785,
            -0.038911344527313665,
            0.009429565305270013,
            -0.024164813842780523,
            0.007187995008648288,
            -0.04807022647996073,
            0.014039153067372096,
            0.017980408621307408,
            0.04516669017810536,
            0.015275563877057231,
            -0.03953002214726682,
            0.02328588133739579,
            -0.002710139240421582,
            0.037918332478795586,
            -0.04221815599097374,
            0.033326021538931334
        ],
        "bias": 0.0
    },
    {
        "weight": [
            0.0054305991080920235,
            0.2010792811505395,
            -0.03312630501912757,
            0.056191684750856834,
            -0.007901484519059672,
            0.019627983596205913,
            0.05042738768352393,
            0.04413016477774372,
            0.11539985979920066,
            0.18982019778646964,
            -0.026413488242015386,
            0.028189286987449998,
            0.0312253344985529,
            0.024948207159643673,
            -0.08428568299674363,
            -0.09009568456765671,
            -0.008864170519736892,
            0.05302034851424919,
            0.03276464050556155,
            0.0342988784604065,
            0.11547931115413827,
            -0.03129176910554045,
            -0.0427483600884847,
            0.010052948634128273,
            -0.03180427987152047,
            0.06546753206736526,
            0.18689027969795974,
            -0.004006378837558868,
            -0.028614213560395188,
            -0.0841994617094144,
            0.014371016972408128
        ],
        "bias": 0.0
    },
    {
        "weight": [
            0.02422880607779767,
            0.05021401988694142,
            0.023316069005232344,
            0.043734223588463614,
            0.03943316878606216,
            -0.01977942683969795,
            0.03605970302803412,
            0.0038101644382810863,
            0.06264332718274424,
            0.20301011971655428,
            -0.02628495871447949,
            -0.03112508457476163,
            0.05650121215755965,
            -0.033542819603505594,
            -0.07293372209815208,
            -0.06498770813016483,
            -0.0077861929336452895,
            0.023580507750630853,
            0.03370089333439758,
            -0.021349075389241256,
            0.04351898418099862,
            -0.057780001801752995,
            -0.07850734353268535,
            0.03176844351217791,
            0.02433584972327246,
            0.06523075478221121,
            0.06476413793968833,
            0.03302619355209065,
            -0.021900768837674958,
            -0.05660443954259136,
            0.03350650532771206
        ],
        "bias": 0.0
    },
    {
        "weight": [
            0.01905191290764845,
            0.1438356494302959,
            -0.03423817537287192,
            0.05749330824205796,
            -0.02330395322064266,
            0.05213070838946697,
            -0.03272160505801186,
            0.03477790332247886,
            -0.12756661414449183,
            0.009509833811606748,
            0.03826897819624654,
            -0.0312634067040203,
            -0.0027004796882686036,
            0.0026820541183968805,
            -0.14156006968981277,
            -0.01620822855856092,
            -0.019364747472878398,
            0.13375197349898849,
            0.033265152042606674,
            0.0356130646326283,
            -0.04190484290992691,
            -0.06784192261886725,
            -0.08068381138463701,
            0.02228712199953033,
            0.023906882408288185,
            0.014238184248815327,
            0.031221670758443034,
            0.032849791185404244,
            0.029861481699107847,
            -0.03269318453805839,
            0.0122616073416317
        ],
        "bias": 0.0
    },
    {
        "weight": [
            -0.0069006549246761525,
            0.13728128357897446,
            0.022995199191691205,
            0.0396713135897011,
            0.0036628716174181585,
            0.05706703863185221,
            -0.04633657065836506,
            -0.013749361428141992,
            -8.857021253599624e-05,
            0.002592869227396106,
            0.034459082118655074,
            -0.03171444658095056,
            0.005389762773336881,
            -0.012884224597419036,
            -0.006268401371642059,
            -0.0024124808385058995,
            -0.01530924094638868,
            -0.031061467277778865,
            -0.022966361099004268,
            0.035845383483498666,
            0.031424881287229325,
            0.017312061055417667,
            -0.016042700826955122,
            -0.020842068985883727,
            0.00010423624167915269,
            0.014836651692754041,
            0.12517181425642313,
            -0.045901320995642494,
            0.02104414742653562,
            -0.052984026333325177,
            0.006822248301905181
        ],
        "bias": 0.0
    },
    {
        "weight": [
            0.023895319967511756,
            0.0017724962602736047,
            -0.03284192101798007,
            0.032455783101600716,
            0.05586510126225492,
            -0.0003482941218065652,
            0.03105965479374245,
            -0.029590173565807225,
            0.09980518083236281,
            0.0063186226199300295,
            -0.01269761118376002,
            0.025519288722413457,
            -0.00888230545447572,
            0.010444754281470087,
            -0.11546109970804164,
            0.02708976977750999,
            -0.048323994337478283,
            0.03756503585096062,
            -0.02317022426558579,
            0.03427635025738233,
            -0.06326047768199675,
            -0.05855901904764316,
            -0.024716590148381633,
            -0.001003108680904877,
            -0.033132937581305595,
            0.04827571638049214,
            0.001324001305312032,
            -0.02486462228400905,
            0.05547009486030855,
            -0.01474889415302062,
            0.034159354924020134
        ],
        "bias": 0.0
    },
    {
        "weight": [
            -0.022197037461582164,
            -0.06455195751048326,
            -0.032337926586331084,
            0.006440014546350283,
            0.07725164111266469,
            0.05051794900744039,
            -0.029345944223714015,
            -0.0004812109356104343,
            0.14122628329858497,
            -0.051489011226788575,
            -0.02755924735930073,
            0.024957432227885427,
            0.06605774483523238,
            0.03078078590468745,
            -0.16227518854340645,
            0.04149425599628224,
            0.003339630353299022,
            0.0009105175116736993,
            0.03379245721944892,
            0.014734961322048141,
            -0.017302495667380468,
            -0.039680277109607684,
            0.007085350070224998,
            0.02329916337014677,
            -0.03224049629465495,
            0.04548132969435452,
            0.036850098075355185,
            0.011139739218924366,
            0.06884714850547415,
            0.04064349651893286,
            0.03442423301608248
        ],
        "bias": 0.0
    },
    {
        "weight": [
            -0.011776535608840106,
            -0.06586681623000712,
            0.007910991149973906,
            -0.04374255996395427,
            0.03259910103162912,
            -0.0011290675291400034,
            0.005693566034962003,
            -0.03310319361206371,
            0.11040768794423295,
            -0.17601910391877734,
            0.01638167734014878,
            0.005368021726601625,
            0.025020574758082982,
            0.06479197543524431,
            -0.08364202573999467,
            -0.013234138820001134,
            0.0332036245982784,
            0.03794026555585362,
            0.033729084954314204,
            -0.0230040244445815,
            -0.014718033742936558,
            -0.024384323363808323,
            -0.03197194480484994,
            -0.03246841836814695,
            0.025346557122206893,
            -0.0146279907671586,
            0.026676961152388403,
            -0.005275234163765225,
            0.11568530459720675,
            0.046611088389099234,
            0.02555540576158618
        ],
        "bias": 0.0
    },
    {
        "weight": [
            0.023570537196050897,
            -0.06627704664032545,
            0.02449003320425116,
            0.015574307083313048,
            0.09062393572230856,
            0.05372246526803028,
            -0.03306915566797024,
            -0.013326307040014277,
            0.13771025077610982,
            -0.10511762750340507,
            -0.04349083514766316,
            0.024920495746568877,
            0.09861701572981531,
            0.018993685594099117,
            -0.17976520495817602,
            0.038131555519166416,
            -0.01970030371778857,
            0.048195025199685486,
            0.03398318310921223,
            -0.022956031813701146,
            -0.006387522300442085,
            0.021347791164789135,
            0.02646187412069023,
            -0.03727295980178909,
            0.025197182440423214,
            0.01423934616062751,
            0.081483296936748,
            -0.06176224380210123,
            0.1211256649429566,
            0.04660812955753149,
            0.03460524651469576
        ],
        "bias": 0.0
    },
    {
        "weight": [
            0.02368425774103315,
            -0.061976092451692354,
            -0.0322346849544999,
            -0.03892557190685439,
            -0.0018596434028084628,
            0.00136395260692169,
            -0.04528864451434868,
            0.03794325513885246,
            0.15190619149212578,
            -0.15194581046419703,
            -0.04669665739661728,
            0.02504856657195985,
            0.087910497619882,
            0.062235864477639576,
            0.006251040106676358,
            0.0019018643848038703,
            -0.026230558515051395,
            0.043125393469845806,
            -0.02339025037605127,
            -0.023101915965332086,
            -0.08472589158608607,
            0.012205256383990587,
            0.03132913549185696,
            0.040935535085517956,
            -0.01734233515105797,
            0.021504315501171586,
            -0.0036584544660010054,
            0.01111385916572181,
            0.0836453416686535,
            0.002292711669954718,
            0.03463799166946191
        ],
        "bias": 0.0
    },
    {
        "weight": [
            -0.03283692467483769,
            -0.047108764042075216,
            0.026199032101136492,
            -0.02497956543059615,
            -4.0168705874620025e-05,
            0.03574490111113755,
            -0.035468244451883,
            0.015912089009734464,
            0.1925728594233267,
            -0.021106135083360133,
            -0.012819814988107485,
            -0.03120901389789971,
            0.08504354315445614,
            0.002483133490864217,
            -0.0647093604020476,
            -0.03850605435424319,
            -0.028050789602105386,
            0.1978234919792101,
            -0.02394723649727001,
            -0.02406718190223481,
            -0.024762535830798765,
            0.08056160954362403,
            -0.015919177501794963,
            0.043689590681584796,
            0.025742183167614868,
            -0.003786347246319612,
            -0.05043826863671112,
            -0.04095348471204452,
            0.06727349638521381,
            0.00036242508685322306,
            0.017374042100817378
        ],
        "bias": 0.0
    },
    {
        "weight": [
            0.02474841672838421,
            -0.015190082953128332,
            -0.02992602482932653,
            -0.0016354442576419384,
            -0.014511783475370238,
            -0.0030273995649662505,
            0.026590883795479418,
            0.09759853841428383,
            0.26500757326745106,
            0.17604878514953298,
            -0.011352783881161788,
            0.027976005984337624,
            0.030604533808784397,
            0.14267263587702167,
            -0.010185847325991081,
            -0.10117757601865504,
            -0.018315196376763564,
            0.12713602306356597,
            -0.025289416751599018,
            -0.025733690282504117,
            -0.07707719148013108,
            0.09483160841390564,
            -0.053701150827249564,
            0.011898523856069803,
            -0.03061203322683383,
            0.012407038147774788,
            0.13036717169937015,
            0.032252311685535995,
            -0.05722564945198893,
            0.005827360722565434,
            0.03232019855416087
        ],
        "bias": 0.0
    },
    {
        "weight": [
            0.024474544323804012,
            -0.10544740858443657,
            0.002221072636708004,
            -0.013666596715757777,
            -0.21649651457279412,
            0.036236523771269014,
            -0.0030610465910477155,
            0.11705576016979173,
            0.07670280564790385,
            0.017701431645758887,
            0.009329263941647264,
            0.029533307139806966,
            -0.025340790404784392,
            0.07314241968643331,
            0.12243803668683838,
            -0.08559546776755646,
            -0.0031421100802992846,
            0.2696361434209808,
            0.018037742898922557,
            0.031763502847006096,
            -0.06046339195486208,
            0.12365608902447417,
            -0.0261700832488328,
            0.036338596159633633,
            0.02502107863986027,
            0.014521532868001142,
            -0.04996243083637676,
            0.041211528299534846,
            -0.11751743827288419,
            0.020635457317002996,
            0.03138792999356528
        ],
        "bias": 0.0
    },
    {
        "weight": [
            0.02525425212598208,
            -0.132653531277274,
            -0.028034183374426088,
            -0.06975227975352721,
            -0.23655081579222453,
            -0.0076941968756779125,
            0.02575756165428961,
            0.12848437130284268,
            0.14691405339268857,
            -0.02204352004416068,
            -0.12308815867171777,
            0.028083733131922462,
            0.019301721442761814,
            0.12601393457464605,
            0.1789634650654253,
            -0.11924054262475765,
            0.018482283797445286,
            0.32425909925653024,
            0.029338700448769146,
            -0.010467776725849231,
            -0.2543641278078739,
            0.16553872498945346,
            0.045250668774830013,
            0.04422086790926633,
            -0.03182009506471817,
            0.024847331620714137,
