[
    {
        "weight": [
            -0.052660507874667035,
            -0.011836571391625016,
            -0.10779416463713815,
            -0.08985218669522609,
            -0.1119338967913131,
            -0.09682664894062913,
            0.012984840243808315,
            -0.11865265226626484,
            0.020653849838634643,
            0.004752731208776373,
            -0.03846418412866759,
            -0.02438626070765771,
            0.007401483674169596,
            -0.04748907514058821,
            0.0593663100675269,
            0.04393179876238326,
            0.05363580773771614,
            -0.011517056019426838,
            -0.05991542714184702,
            -0.058349174660841205,
            0.005788426653468877,
            0.0074990761860943035,
            -0.0016951068983115255,
            -0.019390582896625073,
            -0.013849233995320932,
            -0.02199033783646504,
            -0.009915258875179843,
            0.0502717286073117,
            -0.021357912742237257,
            -0.03510796415518937,
            -0.08051798105187354
        ],
        "bias": 0.0
    },
    {
        "weight": [
            -0.12499184113486586,
            -0.03907232777253451,
            -0.08906827530327918,
            -0.11190167882567725,
            -0.1334100543216469,
            -0.0340130674700636,
            -0.01792112006984704,
            -0.03924384712315491,
            -0.03762873903080875,
            -0.026731772254776163,
            0.028775472307627024,
            0.009061667965774865,
            0.006015322105734196,
            -0.08054415277132873,
            0.03499385229734892,
            0.04646189273939076,
            -0.028229466435293525,
            -0.01449365763152207,
            -0.046889547204843764,
            -0.07701671477123642,
            0.024309227711086318,
            -0.039554626132150196,
            -0.04382290104853695,
            0.041703075627875834,
            0.027688010165727413,
            -0.007662163979559404,
            -0.01967654594472817,
            0.10470852136395714,
            0.03112425614461174,
            -0.044984643014530215,
            -0.09019026060494433
        ],
        "bias": 0.0
    },
    {
        "weight": [
            -0.1141399624071417,
            -0.02727133980940566,
            -0.10741854501633195,
            -0.09650855906922762,
            -0.08853289878910839,
            -0.08912235381489172,
            -0.018184013373215888,
            -0.04063433851806422,
            0.020518540684180547,
            -0.038870282907028035,
            -0.014261524714515278,
            0.006113836562652468,
            0.06418410641942549,
            -0.08129066185913968,
            0.06811635709278241,
            -0.009371014201240854,
            -0.02767385947106151,
            0.04076513033231486,
            -0.040788781126056,
            -0.05253420472988587,
            -0.03678197558555699,
            -0.04125293846926287,
            -0.010034985509130184,
            0.019297387985234574,
            -0.027473896715918877,
            -0.06852225352072815,
            0.03666730113501806,
            0.12120415689274955,
            0.0314945051034767,
            -0.010474508196992685,
            -0.05368940912513949
        ],
        "bias": 0.0
    },
    {
        "weight": [
            -0.13380564826619434,
            -0.029742449312453456,
            -0.10807262999911552,
            -0.06948068631950138,
            -0.07196680691305386,
            -0.0953224008334143,
            -0.017593860899206646,
            -0.04468042253658532,
            0.02151885192838,
            -0.05177906900246214,
            -0.017533593123150587,
            0.009321558653603101,
            0.06190063851412348,
            -0.08343205194637474,
            0.06934033816572661,
            0.046606190694110296,
            -0.019674794260889715,
            -0.009509316351447927,
            0.020097444864522973,
            -0.057905428294529375,
            0.02603162026321058,
            -0.05310956356757234,
            -0.04087638936203601,
            0.07817007319099983,
            -0.03416628076067569,
            -0.007620960588113154,
            0.03583555821522984,
            0.09906305400031924,
            0.031029135546113737,
            -0.010388492937741143,
            -0.11007962925745353
        ],
        "bias": 0.0
    },
    {
        "weight": [
            -0.08475097525648502,
            -0.026650043533623383,
            -0.059817129050985726,
            -0.07998328124576683,
            -0.13603503787820437,
            -0.027405569541651808,
            -0.01784986764008287,
            -0.1485040184586371,
            -0.0011052708078291326,
            -0.04139946669271469,
            0.036156411035514355,
            -0.05300061899071801,
            0.05877687406155796,
            -0.05749642823499132,
            0.08742880699633111,
            -0.014863747012788253,
            -0.0378120741191775,
            0.03407108423956686,
            -0.040296108257748244,
            0.00685501061747847,
            0.026639250675583356,
            -0.05496159268214081,
            0.009988152750888548,
            0.0030153818789525047,
            0.012212131904635664,
            -0.032432242178778145,
            -0.020966812972518394,
            0.11801576351430271,
            -0.02298405548192216,
            -0.04925721320773525,
            -0.06398639071505063
        ],
        "bias": 0.0
    },
    {
        "weight": [
            -0.07458591172205067,
            0.025481597849471075,
            -0.1020246554459174,
            -0.11449265102260504,
            -0.0901645112312372,
            -0.09644512247628534,
            -0.017439660753647255,
            -0.03994150396917677,
            -0.03472301791121718,
            -0.08075574639653835,
            -0.026545166658734787,
            -0.05014733104551524,
            0.056895817608098816,
            -0.07309506352988449,
            0.03198275983826518,
            0.03175518536724406,
            -0.03286258266444322,
            0.03502135041173894,
            0.018932454462990796,
            -0.07284692021388302,
            0.023844567420729025,
            -0.016335018341015455,
            -0.03532399753974659,
            0.02778997615414145,
            -0.049056200222593854,
            -0.06010585062385116,
            0.033898027599540845,
            0.11978731958238593,
            0.022350726294280462,
            -0.03210114981513357,
            -0.05162652244264895
        ],
        "bias": 0.0
    },
    {
        "weight": [
            -0.11072659732279858,
            0.030233733607219565,
            -0.09853280443983307,
            -0.13251086216385424,
            -0.09098387654672159,
            -0.03688593038829581,
            -0.014681459583583203,
            -0.039278245928827574,
            0.02501807454334124,
            0.027918597009412873,
            0.026166023476249738,
            0.003127587904611738,
            0.001519529804476749,
            -0.019007872792490374,
            0.09022538904522236,
            0.0464638872039796,
            0.024918823128144155,
            -0.023120844050468263,
            0.01159026959043659,
            -0.05568329358811831,
            0.020702016189453415,
            8.461751726458066e-05,
            -0.044829979148174964,
            0.06596662012845073,
            -0.009202901260668568,
            -0.009599547467472042,
            -0.020766103886006942,
            0.12053140259404253,
            0.023669241949158627,
            -0.002958116075343612,
            -0.10243497505619081
        ],
        "bias": 0.0
    },
    {
        "weight": [
            -0.07912021720209433,
            0.032325089537261036,
            -0.0531752711117014,
            -0.0715894083832332,
            -0.10178675523463027,
            -0.05480411217554261,
            0.04374128515234936,
            -0.04779302193637713,
            -0.040219317559604006,
            0.00190986589161355,
            -0.039263792176095526,
            -0.017369751055183458,
            0.06069107089173329,
            -0.012581941894622422,
            0.0381236117726018,
            0.046609885959301524,
            0.003240181877168225,
            0.024268772798464292,
            0.007765228359219663,
            -0.0677940735498234,
            -0.004605889318590629,
            -0.0007500498251496161,
            -0.05726592317175805,
            -0.03560935453072951,
            -0.02058716591596528,
            -0.006237969215270603,
            0.0379064181224498,
            0.06982334578494243,
            -0.024079509655754606,
            -0.020865530998772867,
            -0.050095554183962325
        ],
        "bias": 0.0
    },
    {
        "weight": [
            -0.07259026058662793,
            -0.02028897202508382,
            -0.05018464365336849,
            -0.09448369147522499,
            -0.0893818283023087,
            -0.037203258597969954,
            -0.017753381989513286,
            -0.0738129788389459,
            0.023109868554241925,
            -0.013871755247448197,
            0.034566894692973416,
            0.007102705989149095,
            0.06194267624915896,
            -0.009550916696201788,
            0.09479538076779455,
            0.030445389220189537,
            -0.03158372599595152,
            -0.005235013873543882,
            -0.033914216652608735,
            -0.08108680767863094,
            -0.03184913971323704,
            -0.0007887964801963715,
            -0.0494387193346134,
            0.023543382480438295,
            -0.044794691889693365,
            -0.007781727943826362,
            -0.020112177931146422,
            0.0669036008608427,
            0.029060213344816538,
            -0.01607388011698487,
            -0.10436982388455071
        ],
        "bias": 0.0
    },
    {
        "weight": [
            -0.12762080887204558,
            0.02675935382884923,
            -0.06387662143412745,
            -0.07307594039558005,
            -0.09951601870489002,
            -0.0295069153635755,
            -0.014495262289509283,
            -0.09394621208273468,
            0.025123329314228973,
            0.01686624397736373,
            -0.026183111230207924,
            -0.05010491636864769,
            0.06700422671669183,
            -0.002177828482449716,
            0.09568459402334709,
            0.04999695722501043,
            0.025370620842148937,
            -0.015939684322208585,
            0.013022841289637457,
            -0.04288004483725464,
            0.027293118382527317,
            -0.002075678190635677,
            0.01666073247167311,
            0.028035666115926217,
            0.02441452547898535,
            -0.004812015703884862,
            0.03751320472239682,
            0.18585249875731877,
            0.029876447710229466,
            0.010475167549285992,
            -0.10577433034459216
        ],
        "bias": 0.0
    },
    {
        "weight": [
            -0.10222649542663055,
            0.018372375150961004,
            -0.08889724432544029,
            -0.10259092906033805,
            -0.19883569579728,
            -0.07165294114473889,
            0.03998575029769666,
            -0.026000652792486104,
            -0.029281658320247938,
            -0.05401182482227177,
            -0.026530616789113205,
            -0.054102130696522165,
            0.06276311809781984,
            0.07847926182957338,
            0.09386560172784719,
            -0.011505651961082915,
            -0.027379073633537022,
            0.03387995055351684,
            -0.039517333342838606,
            -0.044588954201139376,
            0.03295706200023516,
            -0.007469926035241575,
            -0.042220847586487247,
            -0.0507225394461275,
            -0.028768377976234064,
            -0.05443507393078634,
            0.038611641395855566,
            0.1592060770882405,
            0.037274603080968534,
            -0.002471829291419463,
            -0.04419369153754207
        ],
        "bias": 0.0
    },
    {
        "weight": [
            -0.03157808966496775,
            0.000992893019364367,
            -0.07540150477491653,
            -0.04145662714884768,
            -0.11878568782151595,
            -0.025006808326461915,
            0.010946853620458627,
            -0.07791001171466706,
            -0.01064873599916545,
            -0.034299995274698784,
            0.040798633778499294,
            -0.0020888568009767533,
            -0.013533736976858304,
            -0.052584277888075896,
            0.10227894876979786,
            0.046300929425990546,
            -0.06174128892688276,
            -0.033421046953354065,
            -0.007342322786688328,
            -0.11499139676171775,
            -0.0028335075372101595,
            0.009090602477340792,
            -0.07809614918553504,
            -0.0011800910438232697,
            -0.03349388465426993,
            -0.05181426361542364,
            -0.020514761974989425,
            0.12606498682073972,
            -0.03242223384801251,
            -0.02039854415589437,
            -0.04475504030916632
        ],
        "bias": 0.0
    },
    {
        "weight": [
            -0.004760783048409944,
            0.04937735456485644,
            -0.014285774740392677,
            -0.10557605187037616,
            -0.05564034978785322,
            -0.10813307874773272,
            0.024907961742595356,
            -0.09666515206805579,
            -0.05808766224954507,
            -0.11040061668727338,
            0.03786590948384255,
            0.0034737340534170633,
            -0.014155433917844962,
            -0.08149984715139953,
            0.11403614563532927,
            0.03827560333915954,
            0.01556798351322296,
            -0.031055969852088933,
            0.04093467180107832,
            -0.11257805389756541,
            -0.016544512023916852,
            0.010335025389016091,
            -0.051004755448044135,
            0.06792132557928593,
            0.006238229286935386,
            -0.058887805446977574,
            -0.02680485809212095,
            0.0970129621911081,
            0.02539703815165008,
            0.07848705805772198,
            -0.047400087631176445
        ],
        "bias": 0.0
    },
    {
        "weight": [
            -0.00041591909361423735,
            -0.012348856198927652,
            -0.11206797773248482,
            -0.05159263826173255,
            -0.08899651800226693,
            -0.07404224732990355,
            -0.01306918611929825,
            -0.1057803229640325,
            0.0034656827982703503,
            -0.05805129833182258,
            -0.01366365575287484,
            -0.05983892591982433,
            -0.013225717934293078,
            -0.1064574571137683,
            0.09979919664472237,
            -0.024153517593198757,
            0.018087025010848412,
            -0.004225051942373134,
            -0.02968030728251478,
            -0.04012081040030591,
            0.013054660753073854,
            0.012861372823641175,
            -0.03095185474590338,
            0.05568092906972391,
            0.0710742568298435,
            -0.05798066436131208,
            0.02583783413335912,
            0.08486483649274901,
            -0.025870066658214865,
            0.10472201269654588,
            -0.11216493580807992
        ],
        "bias": 0.0
    },
    {
        "weight": [
            0.042819593661774645,
            0.06689108934641463,
            -0.06883241134561799,
            -0.04481159656017985,
            -0.12944242627264732,
            -0.08510816579665795,
            0.028981944161195067,
            -0.051813104731612006,
            -0.0027115981376551516,
            -0.07150875116365334,
            0.0480741095935736,
            -0.010944914504898564,
            0.04611117656445133,
            -0.12676851086724614,
            0.08830455485594933,
            -0.030063510792050427,
            0.01758791881193241,
            -0.041475037574869096,
            0.06134180511416448,
            -0.01746949838322491,
            -0.011495927396071765,
            0.007059120202432741,
            -0.033170969064603276,
            -0.012549933344264541,
            0.09617323037365984,
            -0.004985016719138554,
            0.0278607232772908,
            0.11562922860657383,
            0.011902515570550038,
            0.00894057885392479,
            -0.08055037462330306
        ],
        "bias": 0.0
    },
    {
        "weight": [
            -0.03720565189893159,
            0.016881669753373303,
            0.004894690474684148,
            -0.04718198300301855,
            -0.025624164762305213,
            -0.08221230804556047,
            0.028439390381013174,
            -0.10490147674782234,
            -0.00968571129425227,
            -0.08789335118864151,
            -0.033261085292406976,
            0.004814316395768166,
            0.04449456707915136,
            -0.0667424092743313,
            0.07048237851518163,
            0.030093301880995148,
            -0.020258835213202465,
            0.023784607917432983,
            0.028380603479699364,
            -0.0846148875620256,
            -0.003994546013148514,
            0.018173201787299764,
            -0.03162992958434,
            -0.06302371646547059,
            0.02033383129326337,
            -0.06708319706735326,
            -0.024991602258994137,
            0.09314815726480055,
            0.020131606666332336,
            0.040397348953183566,
            -0.05165574632108826
        ],
        "bias": 0.0
    },
    {
        "weight": [
            -0.058319683616889675,
            0.020416860033502095,
            -0.0504343360230952,
            -0.03451331274234945,
            -0.017790441750062367,
            -0.07271964651430048,
            0.03180301596666685,
            -0.10203433503713526,
            0.02467669067643793,
            -0.04023053097544213,
            -0.0296909921918658,
            -0.03704677178448468,
            -0.017008139871996324,
            -0.055289884635218556,
            0.056909397462989945,
            0.02555793548294638,
            -0.030285612948164647,
            -0.026401427837253136,
            0.019416640955202225,
            0.03686941510649918,
            -0.051473328765140366,
            -0.032695383804280526,
            0.025093241321778297,
            -0.04135246591123083,
            -0.0071465826536733995,
            0.0031378536867219817,
            -0.02498621919085603,
            0.019528484204651357,
            0.03457214032181566,
            0.053776874759521295,
            -0.10242608402471745
        ],
        "bias": 0.0
    },
    {
        "weight": [
            -0.0014105901483498866,
            -0.040099338577318684,
            -0.06469712938495033,
            -0.06006808867291635,
            -0.012900513692617587,
            -0.01737790671503284,
            -0.021450833795824836,
            -0.09122087281927073,
            0.0317242481013146,
            -0.08743382853282743,
            0.018054949974924128,
            -0.05991682877962602,
            -0.015172829951909373,
            -0.10400216290011252,
            0.0014172173830452241,
            0.03847708013797528,
            0.02666615141082044,
            -0.030173126420703363,
            0.01598645222631683,
            -0.005453292306477842,
            -0.06526377256651715,
            -0.01763302642225043,
            -0.0010517108785587257,
            0.10929551796745403,
            0.024525089937763853,
            -0.049344431129012024,
            0.027035449611719407,
            0.04958178532320002,
            -0.025412839775184118,
            0.01626139534981834,
            -0.03825118941501079
        ],
        "bias": 0.0
    },
    {
        "weight": [
            -0.006174936831465396,
            0.025561747261548036,
            -0.016831856424862707,
            -0.01648440953206009,
            0.022244019887722066,
            0.0026227756877824065,
            -0.008756441160479364,
            -0.05160461411714917,
            0.01838100923610229,
            -0.051696806472162266,
            0.02069350446569344,
            0.008076009019122057,
            0.035557481093302,
            -0.058230050611168864,
            0.05518293625201497,
            -0.015161320446716347,
            -0.025395432752705456,
            -0.02049657287617847,
            -0.035030481780855625,
            -0.009270503261744242,
            0.016626072739048443,
            -0.030806145578623254,
            -0.027606237564228177,
            0.04977243532905008,
            0.04501075841121257,
            -0.05810454398665712,
            0.019766780560772537,
            0.05593003083303275,
            0.031956074251566186,
            0.02755495740582671,
            -0.006440090552966442
        ],
        "bias": 0.0
    },
    {
        "weight": [
            -0.021792081048343893,
            -0.03398647884598067,
            -0.032575968258123,
            -0.012757183400022135,
            -0.026329905487472622,
            -0.03486685471133627,
            -0.026184927902756405,
            -0.01601770209473858,
            -0.03730699372421964,
            -0.030367143880711784,
            0.013050811837831586,
            -0.05882385972417183,
            -0.021459038595321406,
            -0.059837461149430664,
            0.034047392420975334,
            -0.022904643173107794,
            -0.023496787265465946,
            -0.03612517995011157,
            0.022014449003267055,
            0.0034412204200597284,
            -0.006233391492748441,
            -0.033060802649317954,
            -0.0429343219457929,
            -0.024548462712567498,
            0.03588010260044637,
            -0.000618728981852042,
            0.03334124166688587,
            0.06087636113788097,
            0.003844393434947165,
            0.03576815189793427,
            0.040685597434971764
        ],
        "bias": 0.0
    },
    {
        "weight": [
            -0.06386052588484704,
            -0.028478583416417468,
            0.02717773176945474,
            -0.030376143554182822,
            -0.043560177910390775,
            -0.04817686928164647,
            0.029514218052895138,
            -0.01796570331476546,
            0.021635950758306006,
            -0.030285904926044983,
            -0.0006825322333424884,
            -0.0064376872396902434,
            0.04539029719782294,
            -0.1070954889566214,
            0.037498703581501154,
            0.0320029227298651,
            -0.024155081146941662,
            0.05811568569389556,
            -0.03327408336733705,
            0.055906655060075375,
            0.03761381124381205,
            -0.04197966732527487,
            0.028853568728156597,
            -0.01435847621931141,
            0.039134651673469724,
            0.0210240661689928,
            0.031054486112135148,
            0.0690587236820718,
            0.026957300656969455,
            -0.016442792272148475,
            -0.036144473862227876
        ],
        "bias": 0.0
    },
    {
        "weight": [
            -0.06768531547774673,
            -0.026624881587026437,
            -0.001284034409451872,
            -0.1178235211763413,
            -0.07229473031062673,
            -0.01885348907044122,
            0.03415244075555139,
            0.029349852709325403,
            0.019762303281613394,
            0.008247220837179608,
            -0.022730324296905573,
            -0.05614319054877431,
            0.024724369346856432,
            -0.06937752769679506,
            0.07965963749587034,
            0.040242335774433105,
            0.03214225635696042,
            -0.028623089767831376,
            -0.04145127506940136,
            -0.024414993355413757,
            0.018057429398279565,
            0.012953364711739168,
            0.013939806776619528,
            -0.01862384275265842,
            0.03434059970186136,
            -0.00783784826984396,
            -0.022506453013069628,
            0.07153001898759387,
            -0.005810179972976597,
            0.009105015755294104,
            -0.019491526500880967
        ],
        "bias": 0.0
    },
    {
        "weight": [
            -0.12867009410004537,
            -0.027153085017690596,
            -0.02917618690244868,
            -0.08628112671115891,
            -0.0953647091098659,
            -0.0027416549101231215,
            -0.01743391476930479,
            0.015403256954315844,
            -0.030967720993086718,
            0.013983198768577442,
            0.0259250158182748,
            -0.08175650391964641,
            0.057818173022438496,
            -0.06418824953262575,
            0.08476404337258757,
            0.042472836336534786,
            -0.028163688440110725,
            0.03634992077250648,
            -0.008310807333314522,
            -0.04887135218847688,
            0.02537857024489314,
            0.007695169477607149,
            -0.04039181114269611,
            0.0058817303029151825,
            0.028501140655244943,
            -0.055959405933152365,
            0.03374500344067977,
            0.09547130733119939,
            0.03304326180854089,
            -0.0033159475244217817,
            -0.04406560322704638
        ],
        "bias": 0.0
    },
    {
        "weight": [
            -0.12670894860840473,
            0.03177178553270976,
            -0.015237182676800515,
            -0.04272635643479139,
            -0.03474834061820576,
            0.0007982734442678975,
            -0.014421362887112708,
            -0.0015936164958337195,
            0.021162987613844976,
            0.039483766648166364,
            -0.029999203125582758,
            0.002563565522001112,
            0.04804252895061154,
            -0.07040024535234697,
            0.0210746914394348,
            0.04340671202054582,
            0.030607105059049455,
            -0.01678140055680734,
            -0.012554120430891807,
            -0.026916527189462785,
            -0.02062730905701494,
            -0.05133780599108569,
            -0.04001288379065338,
            0.02978791266912448,
            0.03340346630246074,
            -0.054266519310212286,
            0.03643207739031035,
            0.03833690052096338,
            0.022997871791544666,
            -0.03975104054515936,
            0.01094808336996928
        ],
        "bias": 0.0
    },
    {
        "weight": [
            -0.09649789849815704,
            0.03235048344365481,
            -0.04427700791571312,
            -0.06057198884570838,
            -0.03538276039329233,
            0.023453217641344882,
            -0.005808525564570844,
            0.023284005665788084,
            0.02006726644770753,
            0.031797730237311674,
            -0.030029121208501573,
            0.0022209779756509106,
            0.060414005806775944,
            -0.02171547182377723,
            0.03212553702194131,
            -0.01334362361281618,
            -0.006949545989942512,
            0.041875080228188255,
            -0.036845356428950767,
            -0.05536433389109861,
            0.0399025937874385,
            -0.03409580278294112,
            -0.038966593311094526,
            0.008113109364920943,
            -0.024713431849055768,
            -0.03359142328631872,
            -0.01674636430903393,
            0.09568741271651127,
            0.022475817052133775,
            0.008573363203515403,
            0.008267429613644696
        ],
        "bias": 0.0
    },
    {
        "weight": [
            -0.10397728114290133,
            -0.02616348527128,
            -0.055527458637154414,
            -0.07786387648652762,
            -0.14046216457189425,
            -0.088958127151803,
            -0.017139489466399052,
            -0.08339148222625478,
            -0.03572999999673725,
            0.016246735681833806,
            0.02907619723003993,
            -0.01499469342099311,
            0.06322486679490696,
            -0.08090189193324941,
            0.063916049563482,
            0.046600335815467145,
            0.03742432555305679,
            0.039700461990429634,
            -0.019413285913869042,
            -0.10284167456763034,
            0.01966282296684006,
            -0.055502258243508434,
            -0.047811860626342205,
            0.019028501640700617,
            0.023133009471253706,
            -0.06972692329720569,
            0.04159809135775312,
            0.06616086824769753,
            -0.023583623996251586,
            -0.04954533902363872,
            -0.09400027433505884
        ],
        "bias": 0.0
    },
    {
        "weight": [
            -0.134953944988431,
            0.029485237856540454,
            -0.10713160561690682,
            -0.07784000485371698,
            -0.1430089739241531,
            -0.08870302517583484,
            -0.016837223744487144,
            -0.08479375354445944,
            0.022906454668497465,
            0.01637631997819358,
            0.029223042329731316,
            -0.04770728098561614,
            0.007121583076925309,
            -0.033500379274720014,
            0.09157372835063476,
            0.04675739473906521,
            0.036367986074759426,
            -0.017602754945769843,
            -0.02407360839781211,
            -0.09948732929679717,
            0.021096895954985866,
            0.0024514358608145248,
            0.01221343713925747,
            0.04133521820180131,
            -0.01899459155235586,
            -0.06957126186657145,
            -0.01984061647016325,
            0.0665233623955843,
            0.02896277566249277,
            0.012342382968488894,
            -0.0364829425387896
        ],
        "bias": 0.0
    },
    {
        "weight": [
            -0.07713343630199572,
            0.030159454438573555,
            -0.10705104745080996,
            -0.07544380940186833,
            -0.08882728409592813,
            -0.08352252670860325,
            0.04000195795819891,
            -0.05561957041970665,
            0.020523166160979756,
            0.01715279721964693,
            0.0300691494443379,
            -0.048356520023289766,
            0.007948751509714396,
            -0.08145801434205228,
            0.0921970862700239,
            0.01609854252070596,
            0.0304793206778039,
            -0.01647924878159121,
            -0.036714396611670606,
            -0.04257007641491161,
            0.02132729756972654,
            0.0008274741627654934,
            -0.01689860205212765,
            -0.015837528878296994,
            0.02689768743470894,
            -0.011318977273119722,
            0.03729789974337008,
            0.09521541177329461,
            0.03374822687901189,
            -0.04450065824161649,
            -0.11092064857861204
        ],
        "bias": 0.0
    },
    {
        "weight": [
            -0.054933483221180184,
            -0.02475169362025531,
            -0.054386782529439355,
            -0.13305699362350124,
            -0.06615535866738025,
            -0.05658079173699109,
            0.03758734094584147,
            -0.05547883429880621,
            -0.04204441061401057,
            -0.01518135320465229,
            0.031367154780295774,
            0.00819644742095739,
            0.05774748225953204,
            -0.08378631552788104,
            0.09516902503302808,
            0.02536383672813018,
            0.031459515034223076,
            -0.012699771892478336,
            -0.03690130425727711,
            -0.061449651540018024,
            0.020946575172975886,
            -0.047978560228913926,
            0.005332803113425004,
            -0.02953468677555536,
            -0.0017960832038944334,
            -0.07244980936288697,
            -0.018087081329332913,
            0.0813257476930446,
            -0.021845202863601185,
            -0.052544627501873095,
            -0.05716093348628658
        ],
        "bias": 0.0
    },
    {
        "weight": [
            -0.09623892749726262,
            0.02396306822514177,
            -0.06155823684106137,
            -0.13900447528220983,
            -0.09251882929990868,
            -0.09942962122071046,
            0.04022917319845906,
            -0.09631520882525359,
            0.020471918466159023,
            -0.05582501921741704,
            0.02554069777273031,
            -0.0424199584728863,
            0.06470845403586971,
            0.03360317459530858,
            0.07358040137984417,
            0.017414309748265397,
            -0.014902790784066509,
            -0.02005631372190881,
            0.010447407596701153,
            -0.09892614381498004,
            -0.021538972676547075,
            0.00437191562953523,
            0.011192384830102839,
            0.038374597068640014,
            -0.026134130109381308,
            -0.040794439040067305,
            -0.019570851345607855,
            0.08870868361544744,
            -0.018330473619795454,
            -0.04419802617521108,
            -0.10626276659845942
        ],
        "bias": 0.0
    },
    {
        "weight": [
            -0.11282968983554131,
            -0.036104669843649025,
            -0.05211248231454701,
            -0.025998094135155036,
            -0.07480953131353468,
            -0.06296441455908948,
            0.03771305921992737,
            -0.05729726748387604,
            0.016369748175430278,
            0.032508387227731,
            0.027288177886381708,
            -0.04998811199155951,
            0.05932751516193613,
            0.006239475506430766,
            0.03396556677005164,
            -0.013931289900822883,
            0.004423163901264077,
            -0.025070749394669,
            0.021421113534914764,
            -0.07343673355737342,
            0.02531463104683881,
            -0.05101589667584751,
            -0.03193450917861875,
            0.08259401931059226,
            0.03033815287200791,
            -0.05058744537903631,
            -0.02021386141095666,
            0.08576494940591077,
            0.02913423980016148,
            -0.013624690316676069,
            -0.09346359504784879
        ],
        "bias": 0.0
    },
    {
        "weight": [
            -0.11708397708677817,
            0.02372854944189081,
            -0.061855521148275625,
            -0.05071384317791738,
            -0.12294183151028926,
            -0.05744222917673233,
            0.037593454034198656,
            -0.04344012628846161,
            0.023721921900617293,
            -0.06262300468995063,
            -0.008695459907087191,
            0.014747659958259529,
            0.051598453835982626,
            -0.0213186080087605,
            0.02855069794599332,
            0.030192555952569602,
            -0.018477869491551127,
            -0.018757414751025905,
            -0.031661756575643775,
            -0.040489034252729955,
            0.028744667992272342,
            0.006943364602413876,
            0.023411587727044825,
            0.02672234640944689,
            0.006920784518768995,
            -0.003179666338717789,
            -0.012593221782524604,
            0.09845611557152044,
            0.03099698758915509,
            -0.01676082546543981,
            -0.043741291052100215
        ],
        "bias": 0.0
    },
    {
        "weight": [
            -0.02483193996108753,
            -0.05146740671037891,
            -0.06865457063127932,
            -0.039739421499243546,
            -0.08603335531550473,
            -0.13726904529626796,
            -0.01959948733722307,
            -0.16150439229578195,
            0.033995796450664764,
            -0.08722047998444515,
            0.03552041402220337,
            -0.045761736304005644,
            0.031310864709037885,
            0.028869017828516398,
            0.06706745035771856,
            -0.019677737133532526,
            0.010847681492922109,
            0.021924990106141094,
            -0.05622095162910013,
            -0.01743716593536804,
            -0.00024500306649914277,
            -0.04529903072289821,
            -0.020936047384914728,
            0.0959714497198732,
            -0.09968621504067846,
            -0.018250971737154457,
            -0.012341418990197786,
            -0.001844376110414949,
            0.0036050138420076023,
            -0.05350475020657313,
            -0.09236084853297591
        ],
        "bias": 0.0
    },
    {
        "weight": [
            -0.013396815560014376,
            -0.04644139335768375,
            0.03049514626692007,
            -0.031211391035644954,
            -0.10105302827903184,
            -0.2078545805291096,
            0.033971622593166925,
            -0.10736747353552098,
            -0.023268620659530656,
            -0.1352844390648976,
            0.03853226662937166,
            -0.07294744126606206,
            -0.032604714908990265,
            -0.015081897694294456,
            0.02935484871565025,
            -0.024519873285880556,
            -0.06658667408449477,
            0.01963225499925122,
            -0.061690814929884194,
            0.0187622628415624,
            -0.002044658948352946,
            -0.047861434308146086,
            -0.036788271515903526,
            0.01827403768650616,
            -0.11356424783718552,
            -0.03258323267533903,
            0.035759953577243896,
            -0.0011764827581450105,
            -0.04288703421647841,
            -0.06457374183473522,
            -0.054085187478686556
        ],
        "bias": 0.0
    },
    {
        "weight": [
            -0.021937197821344154,
            0.011876897922164415,
            -0.10451659137555576,
            -0.040567343263658004,
            -0.08589305395696442,
            -0.15258469295942872,
            0.03887518671428789,
            -0.11393979516941627,
            0.02556292514868355,
            -0.09930906082703161,
            0.041849100505001124,
            -0.07747646559619337,
            0.030320759844248837,
            0.010437214831237433,
            0.047831072516130294,
            0.037811332849490474,
            -0.05277864775279419,
            0.031930812405153663,
            -0.055157841485866305,
            -0.04460529177170567,
            -0.05062984508056385,
            0.009008726952545391,
            0.018507098132395164,
            0.24927824329646064,
            -0.14787478810897617,
            -0.03368846983222534,
            0.01889055523608211,
            -0.017697487609598904,
            -0.0171860413963492,
            0.019015859722536773,
            -0.060380839052104444
        ],
        "bias": 0.0
    },
    {
        "weight": [
            -0.09882420382757354,
            -0.007603554961556275,
            -0.013540045266627467,
            -0.06189192163559539,
            0.03493928121777186,
            -0.03910756418692258,
            -0.0046823251825494905,
            -0.04493985925159354,
            -0.040008613882686006,
            -0.0760542460050007,
            0.01470778750139671,
            -0.036121158021772244,
            0.04369501412654995,
            0.0223067810319792,
            0.04632826662169118,
            0.03444758060836096,
            -0.041859033270878886,
            -0.0667515287889146,
            -0.018528207156359427,
            -0.04460289131146645,
            0.010296808652108096,
            -0.0026050836778894076,
            0.002469405112404335,
            0.03430945358164172,
            -0.15412319820466336,
            -0.0512488197006543,
            0.030341797911009077,
            -0.0018246825207693398,
            -0.0072423566440609185,
            -0.12488047011244795,
            -0.04872790632647056
        ],
        "bias": 0.0
    },
    {
        "weight": [
            -0.03564894742806129,
            0.01890094943030359,
            -0.09740429479203062,
            -0.019481299276243383,
            -0.018690990632484812,
            0.012635734649062631,
            0.03522628049481563,
            -0.03791511396599081,
            -0.002001383520365153,
            0.062172267286257896,
            0.0161226682863707,
            -0.054932148558659466,
            -0.0024323495462954636,
            0.012233340058567521,
            0.08380567696210356,
            -0.018149389769499858,
            -0.01784169430957071,
            0.012127152451380808,
            -0.04122018105372592,
            -0.1010256699335951,
            0.041994637890325155,
            0.01860622453801226,
            -0.0036550749488964956,
            0.0533667069840364,
            -0.04436278383127467,
            -0.029938925843071007,
            0.04047254563807376,
            -0.021206129187271116,
            0.015298545645025797,
            -0.054645506052458145,
            -0.03770534584797238
        ],
        "bias": 0.0
    },
    {
        "weight": [
            -0.0258100155485972,
            -0.022488855770549435,
            -0.15136102395539758,
            -0.020007497268935415,
            -0.00197726969921091,
            0.027173550512862518,
            0.016440027025679725,
            0.03421937405420855,
            -0.007554156616530934,
            -0.0009496583359242946,
            -0.04662508406849205,
            -0.017628522508367477,
            -0.009241066006954615,
            0.02269645030596486,
            0.05216528197174522,
            0.014604343359471715,
            -0.03958784028312539,
            -0.043486027828318015,
            0.021433431107228826,
            -0.09355274797948032,
            0.02778586544835144,
            -0.04177743028606262,
            -0.025443625468692336,
            0.16060285268525828,
            -0.034240095533492304,
            -0.05020929044595749,
            -0.010065071923712926,
            0.05816044289763888,
            -0.04289985257750832,
            -0.08049811337825882,
            -0.02579979490815285
        ],
        "bias": 0.0
    },
    {
        "weight": [
            -0.031091774811447044,
            0.07633018187686588,
            -0.13756156147646703,
            -0.12199372420093844,
            0.01230076989611628,
            0.11488584633558592,
            -0.039311854215130344,
            0.03982797137386339,
            -0.021336572861944247,
            0.03145620254560629,
            0.013566776981052773,
            -0.07798670394902586,
            0.028101012810153946,
            0.006765938366206517,
            0.09188459917557838,
            -0.0024804455978153284,
            -0.04153490533892389,
            -0.060837463239978275,
            0.03890391671250518,
            -0.16026738099205293,
            0.060511576754738616,
            0.0032813166143642594,
            -0.06264420904808557,
            -0.07899581547406943,
            0.03865514572588911,
            -0.004311073259894792,
            0.0414567938394217,
            0.16088766364375548,
            -0.02206070112120657,
            -0.07122541791621391,
            -0.024873084258066964
        ],
        "bias": 0.0
    },
    {
        "weight": [
            0.020391618528054364,
            0.0498439513933757,
            -0.04117425973205385,
            -0.05589462015669882,
            -0.11677100817107518,
            0.0007499647494008119,
            -0.03951010690758357,
            0.07183585402872905,
            -0.028254245302211777,
            -0.056774191189299404,
            0.01980542236379879,
            -0.12727326541501308,
            0.027118154547529496,
            -0.1372261143916072,
            0.08941580081576948,
            0.02567944321656952,
            -0.013430729050028012,
            -0.02701704750312589,
            -0.005778251178437119,
            -0.11483185475899363,
            0.04684371767375433,
            -0.0020672161336459066,
            -0.1159036671564372,
            -0.09387333340659915,
            0.009511080110596589,
            -0.05505532132634843,
            -0.010731462669184913,
            0.139643635942909,
            -0.007891914372687062,
            -0.010501983030604423,
            -0.0020667383445452142
        ],
        "bias": 0.0
    },
    {
        "weight": [
            0.002406184569663843,
            0.051276805909893884,
            0.008282005299195653,
            -0.10098228184503372,
            -0.08117034200002525,
            0.003614350493273838,
            0.012719999684703142,
            -0.0005190143551106614,
            -0.0063866659155132725,
            -0.022892650218306245,
            -0.02488090952447547,
            -0.054354743939831536,
            -0.014429076376565804,
            -0.13593585841158523,
            0.09107870425201797,
            0.03476582059447251,
            -0.04735529488750359,
            -0.004900979559191244,
            -0.040166430015148344,
            -0.08953411578623402,
            0.07020962004883412,
            0.010996502706500173,
            -0.002711197658993384,
            -0.1046956855556183,
            0.07755472220143193,
            -0.040620141863873006,
            -0.02053467216468144,
            0.09308569048374067,
            -0.020206743186259816,
            0.05128723559090724,
            0.0392694487689288
        ],
        "bias": 0.0
    },
    {
        "weight": [
            0.04885511350453652,
            0.07809189575790086,
            0.01237667966301665,
            -0.07764386228900265,
            -0.042168166255186976,
            -0.0005510590933399974,
            -0.02777293928828964,
            0.024477107946331796,
            -0.029861784311107923,
            -0.08589173276574273,
            0.037905670796492874,
            -0.12593905775497075,
            -0.03561543229669713,
            -0.1359924927285151,
            0.08885675405766803,
            -0.007166251389880229,
            0.002392720160996151,
            -0.06874826535662891,
            0.02615048591873807,
            -0.07665469302355313,
            -0.010178058217918149,
            0.010371183634144592,
            -0.02351211400885427,
            -0.01501208990207543,
            0.004147774229801507,
            -0.02985298560253231,
            -0.009720246257265471,
            -0.0012020261390657191,
            -0.011534047112518913,
            0.0569490991817105,
            0.04935704046749158
        ],
        "bias": 0.0
    },
    {
        "weight": [
            -0.006207468779699145,
            0.016477165509452406,
            0.10810990836196727,
            -0.09329692639236582,
            -0.13146775430587015,
            0.026150024641412733,
            0.033529830091375425,
            0.037904569669642584,
            0.03718445966928843,
            -0.06762516809331522,
            0.028840564063384103,
            -0.10919654748765385,
            -0.02636205734640504,
            -0.12261445509866577,
            0.0870123119231551,
            -0.04075469099324006,
            -0.05256078534313872,
            -0.09895061935162504,
            0.08102555799215039,
            -0.0402264319819828,
            -0.05342498315890436,
            0.029603234680935318,
            0.016098054220151908,
            -0.008344206416068447,
            0.01457831094526463,
            -0.042115883327595784,
            -0.03274051257341622,
            -0.005293576366014746,
            -0.015012556286356716,
            0.04189496951947728,
            0.06988420304865126
        ],
        "bias": 0.0
    },
    {
        "weight": [
            0.0015675919102858934,
            -0.06630921608019448,
            0.10048192020386087,
            -0.03826326042253682,
            0.00998298941183185,
            0.12315655190800544,
            -0.01972121057449409,
            0.03374922869665746,
            -0.007671339019083933,
            0.04115484076103382,
            -0.05487337808995493,
            -0.0360814477475216,
            -0.012222878483335373,
            0.020153704356824093,
            0.05722864141786402,
            -0.03268135236502833,
            -0.028274370575188945,
            -0.03589237897450337,
            -0.014105083074775274,
            0.006437315749369314,
            -0.0015154943487610067,
            -0.014486127799537693,
            0.011731005881812816,
            0.06920772714320945,
            0.04668861446522958,
            -0.00083353102968265,
            0.013180553568575882,
            -0.09714815746629002,
            -0.01165022154819304,
            0.16484408323237124,
            0.054719069992869164
        ],
        "bias": 0.0
    },
    {
        "weight": [
            -0.06454676177150045,
            -0.07967922574181537,
            0.12552841272592946,
            -0.08779927753421302,
            0.0656218740155405,
            0.11699505039794565,
            0.030905065889770583,
            -0.033635859698175466,
            -0.01489464718119716,
            0.04886878629570605,
            -0.016907470786864203,
            -0.006190448039724432,
            0.021515429507553765,
            -0.05479997717163978,
            -0.052597404675762655,
            -0.03815230491073836,
            -0.025213779121134587,
            -0.029341098731370675,
            -0.04470631255006928,
            0.06077176669308382,
            -0.0015743861022597429,
            0.05313738664215713,
            0.057350898179684376,
            0.011501974582274713,
            0.07695964053755322,
            -0.03599725980161429,
            -0.038958445056271246,
            -0.11267987928791695,
            0.010083350977292403,
            0.08506442058731056,
            0.03189346035704066
        ],
        "bias": 0.0
    },
    {
        "weight": [
            -0.0189348226049182,
            -0.0832363236655109,
            0.10962462959157872,
            -0.06688357294225752,
            0.027919731365033375,
            0.06442302659140446,
            0.03755657189503779,
            -0.02071035217044521,
            -0.0014704880829877248,
            0.03041233281193848,
            -0.014710569268939025,
            -0.05677025937148433,
            -0.012262708003276977,
            0.009123753527478311,
            -0.044236029966106705,
            0.02674070812507136,
            -0.010349752658294784,
            -0.029816565127488297,
            -0.019749469509509582,
            0.08426049568821542,
            0.0013021872466088295,
            0.025315688200847897,
            0.010171727858400034,
            -0.05915962779432718,
            0.024649877601429154,
            -0.0632175895122889,
            -0.02671595956505397,
            0.002127083346450796,
            -0.00866110486757365,
            -0.05043357120609885,
            -0.01281590584104355
        ],
        "bias": 0.0
    },
    {
        "weight": [
            -0.09812161507035981,
            -0.054860852262805425,
            0.10326113605061008,
            0.021973940029632818,
            0.03709381105342059,
            0.18405384521689974,
            0.032891322886863306,
            0.005874992121657443,
            0.03822890401807904,
            0.11365882920078405,
            -0.06901713695920471,
            -0.0046271888120189685,
            0.033140577153959634,
            0.018116495754760726,
            -0.04110808307926525,
            -0.021453245533208987,
            -0.0533207329029474,
            -0.023698330299103017,
            -0.05611114472688235,
            0.10818693961185015,
            0.029675403839704698,
            -0.018823207467916395,
            -0.006676944023435939,
            0.021668913904110725,
            -0.023266702237833555,
            -0.03283840535343331,
            -0.027950184351163854,
            -0.08372354276129608,
            0.015264272521062414,
            -0.06557180062936613,
            0.04923455793737396
        ],
        "bias": 0.0
    },
    {
        "weight": [
            -0.06567744553245568,
            0.0044165855550426306,
            0.08642447874865994,
            -0.06019300232199527,
            0.01887039387086632,
            0.13274367914040539,
            -0.011824225168677741,
            -0.004111297566817558,
            -0.027370944376299007,
            0.049832169658655466,
            -0.06430005651426023,
            -0.04211360234581966,
            0.03820535423367999,
            0.0344390115025144,
            -0.02585706658823959,
            -0.028805724601318996,
            -0.03938158224501203,
            -0.0020562315039647982,
            -0.05940918774747908,
            0.14482234129583338,
            0.024850787809660962,
            0.02990586727311803,
            0.02450042099010393,
            -0.1929941176623717,
            -0.020858686138241326,
            -0.009402258261360567,
            0.04448550861433491,
            0.013941820685077759,
            0.0004917353454585374,
            -0.08429949961101141,
            -0.039225119448097694
        ],
        "bias": 0.0
    },
    {
        "weight": [
            -0.08563265001610922,
            -0.04284235044838413,
            0.14517679683072945,
            -0.030254380323579248,
            -0.041602025548620504,
            0.09090673747911675,
            0.03472766676959062,
            -0.036256367745492055,
            -0.0006596331522925121,
            0.027528437932819165,
            -0.0349363239526796,
            -0.009288577668868118,
            0.02465902763755344,
            -0.0008945440888093482,
            0.0022146441092996,
            0.032242061639463866,
            -0.034683625186821,
            0.09044664540133586,
            -0.011056277547540065,
            0.1470732520092983,
            -0.0294992967384372,
            -0.02114697163927047,
            0.045511794997110604,
            0.017724752312846467,
            0.07195984048016567,
            -0.000260596132446359,
            -0.003793117451392696,
            0.047823892479457425,
            0.04930591447217028,
            0.034424006582751354,
            -0.035158373425134594
        ],
        "bias": 0.0
    },
    {
        "weight": [
            -0.031165496759957095,
            0.003782981373199206,
            0.08453438520910339,
            -0.11333063927579651,
            -0.09826643616730028,
            -0.017171363663731006,
            -0.006982942475607509,
            -0.0677880865665618,
            0.04730036853391028,
            -0.02882837680277009,
            -0.00957817724055051,
            -0.05229599021422492,
            -0.024950445113457575,
            0.019959397055393877,
            -0.0027603145410730304,
            -0.029402303859176797,
            -0.022634218444062798,
            0.02492708788542525,
            -0.004115106368278761,
            0.09297913865678074,
            -0.0653932699609592,
            -0.019688182628209136,
            0.05196643882973869,
            0.02834355010807984,
            0.006938120574691566,
            -0.07266444376374731,
            -0.036000832014902256,
            0.07140824085723874,
            -0.0006835367017100756,
            0.03889573427037066,
            -0.03660085460702447
        ],
        "bias": 0.0
    },
    {
        "weight": [
            -0.013358699878997564,
            -0.054229676350129534,
            0.05714216722118529,
            -0.09965399321708177,
            -0.024216428599238962,
            0.09678934650817284,
            -0.021234813631355782,
            -0.020407167919629186,
            0.03376734113976839,
            -0.0759164107035986,
            -0.059233854683922185,
            -0.0494241202160222,
            0.017643624621811238,
            0.011677615401412406,
            0.01696994752496169,
            0.03450763678216969,
            0.035149312716575974,
            -0.01589759602939363,
            -0.05898918870122588,
            0.09560742107608837,
            -0.060403305944276696,
            0.0161171568635589,
            -0.026261138954006977,
            -0.0006570975887920913,
            0.015088874167448234,
            -0.03289121172303125,
            -0.031225024433460355,
            0.018239010832253575,
            -0.025234566521417656,
            -0.014954478497907974,
            0.03971368853287484
        ],
        "bias": 0.0
    },
    {
        "weight": [
            -0.061801393384715776,
            0.013476134142690525,
            0.10127183243839247,
            -0.013417891314618522,
            -0.039586656699695084,
            0.045050578795086824,
            0.033690534716445494,
            0.01177334761496165,
            0.02745331882198899,
            -0.01982852125854357,
            0.002038726259159802,
            -0.02745627964865465,
            -0.017410814434706833,
            -0.04269598504031872,
            -0.005432001072444599,
            0.0027680672376070212,
            -0.051096942834639635,
            -0.007249469675665431,
            -0.054999314645559405,
            0.03379778237451849,
            -0.028865005324347316,
            0.023782286360879222,
            0.027171590376123062,
            0.010922731425810397,
            0.006463637635852187,
            -0.004360912533191836,
            -0.023524871342334375,
            0.03102240942280439,
            -0.0320446212348954,
            -0.05628706391854064,
            0.01743125575559215
        ],
        "bias": 0.0
    },
    {
        "weight": [
            -0.02120478194794428,
            -0.03248743336067517,
            0.03840585405421065,
            -0.04766067845370277,
            -0.06473297640489419,
            0.06720417870875099,
            -0.0260717303015779,
            -0.006025635181835989,
            -0.030616691979149995,
            -0.039181017948728386,
            0.012461134834725864,
            -0.04450153844465587,
            0.01203021545032761,
            -0.05326258750707097,
            -0.013692143964995943,
            -0.02503357051701363,
            0.01997795837535217,
            -0.03440319274034816,
            0.00991771641746546,
            0.008824400042775018,
            -0.03359619721611335,
            0.015601817347623146,
            0.02758937916992975,
            -0.052327803347156907,
            0.027845280940520363,
            -0.001430411601684692,
            0.03312512276506576,
            0.02299778041399606,
            0.026973813667469954,
            -0.03004813278646134,
            0.015165602200788305
        ],
        "bias": 0.0
    },
    {
        "weight": [
            -0.08033790170794011,
            0.029889103152057794,
            -0.07813159326225141,
            -0.045260394434060276,
            -0.08520728960415322,
            -0.02853079113581487,
            0.031201740920037302,
            -0.0011244400131472463,
            -0.035442321817895694,
            -0.011755211268624922,
            -0.0007394535925867264,
            -0.04136392446659309,
            0.05786601280217848,
            -0.013096142151519434,
            0.08252642811140475,
            0.04465661587247277,
            -0.015583480727742297,
            -0.010297830912403296,
            -0.04143795684777736,
            -0.015372588705435715,
            -0.03814228459546631,
            0.000674936486547918,
            -0.048922116629070714,
            -0.01929415219735777,
            -0.038931907182931484,
            -0.021435124176122068,
            0.03411015575488483,
            0.06481779904915873,
            -0.027943684400559353,
            0.011864373500445115,
            -0.005509812928334096
        ],
        "bias": 0.0
    },
    {
        "weight": [
            -0.0690219331840986,
            0.031027868652821526,
            -0.10829279074535364,
            -0.11235109697799776,
            -0.13937817280686873,
            -0.09515902504892919,
            0.03169694259989188,
            -0.0763116130229014,
            -0.03462901225141314,
            0.013384767471164648,
            0.03435615908854864,
            -0.04886528688786202,
            0.064405139524316,
            -0.016837645831808676,
            0.037282425181779696,
            -0.012289569645001882,
            -0.010980589233987495,
            0.046624042980751984,
            -0.037605508157119875,
            -0.056370539091146386,
            0.020268831527734118,
            0.001271586444947368,
            0.010664599567921736,
            0.0359303442195741,
            0.027762915797027055,
            0.0023723219489225136,
            -0.01947338049531966,
            0.12242016746878062,
            0.03583170487687379,
            -0.04524111247959147,
            -0.10360510574850901
        ],
        "bias": 0.0
    },
    {
        "weight": [
            -0.09448267457079648,
            0.029966378589328886,
            -0.10706974922877086,
            -0.05046197893138841,
            -0.143604307013772,
            -0.08939797876299478,
            -0.01747919496488933,
            -0.08924527664045057,
            -0.04015179819758631,
            -0.04046355239210518,
            -0.02577124168567581,
            -0.04152117090136955,
            0.007953692121314146,
            -0.023860954525429044,
            0.09474369049430777,
            0.047430409894754985,
            -0.03373843319877389,
            0.012575362016404978,
            -0.021133687119140748,
            -0.04568251030519494,
            -0.03500496664133882,
            -0.05920516015803435,
            0.00634231639423655,
            -0.02258656425845907,
            -0.020783988985848607,
            0.004120876273942729,
            -0.01969834181317188,
            0.06905967447530992,
            -0.021858770725090137,
            -0.026197953670042066,
            -0.12050725833288291
        ],
        "bias": 0.0
    },
    {
        "weight": [
            -0.13436044119185686,
            0.014195572483128053,
            -0.10764749241737206,
            -0.13262358391354606,
            -0.08803431261163884,
            -0.03706176981522091,
            -0.017250423672526317,
            -0.04022799186225932,
            0.004843639097028678,
            0.016933700466817917,
            0.004158637879184645,
            0.007468582802437196,
            0.007923928264800168,
            -0.024255616183444975,
            0.03622472313144017,
            -0.00938616724352158,
            0.030183868584304475,
            0.02628073030006501,
            0.01196946074058954,
            -0.09989401833928535,
            -0.023561533807242963,
            -0.00037704598059638383,
            -0.04969647926653295,
            -0.02870275085457256,
            -0.031010128128060276,
            -0.012372238938193997,
            0.03881130419512183,
            0.07097438210986562,
            0.03417031957486964,
            -0.05126160063517164,
            -0.1112737565776218
        ],
        "bias": 0.0
    },
    {
        "weight": [
            -0.06947097897990794,
            -0.019367815268894854,
            -0.10924731429108711,
            -0.16851067591916008,
            -0.11889727284058663,
            -0.03731794455373877,
            0.0404394934790957,
            -0.08671829925450186,
            0.03046677375383329,
            -0.04459466277449525,
            0.033204031813928454,
            -0.029820411625190137,
            0.022303910961738723,
            -0.07978008578370188,
            0.08702585334443994,
            -0.015065553987596392,
            0.04919370345166823,
            0.03599114825124866,
            -0.04255464592269801,
            -0.06868373827457842,
            -0.04598617027778093,
            -0.02854518337462955,
            0.005398960734742904,
            -0.035458675604979985,
            0.019646724385413452,
            -0.10000822154073757,
            0.03637771540328992,
            0.07863378041085221,
            0.04000621539728951,
            -0.045592231491938244,
            -0.03637318583625806
        ],
        "bias": 0.0
    },
    {
        "weight": [
            -0.04992317250615211,
            -0.059620281711568905,
            -0.06372256382645622,
            -0.11588877114084399,
            -0.1381755976934408,
            -0.09355565445450714,
            0.03976907150700939,
            -0.06263746688264524,
            -0.016464470144939517,
            -0.030172874673584774,
            -0.029891143544003813,
            -0.0021784854435359814,
            0.009407515394472175,
            0.06524508961106885,
            0.09906498149218286,
            -0.013881138171464222,
            -0.016739776503208882,
            0.025429277320894953,
            -0.07092141869609105,
            -0.08402736351756124,
            -0.027979162258394037,
            -0.05413951415842398,
            -0.028779192163476967,
            0.05772640830777366,
            0.003290255818422203,
            -0.0447377146408383,
            -0.017580067717130447,
            0.1084409099524469,
            -0.0247896128940394,
            0.011850919141893207,
            -0.09715528554738033
        ],
        "bias": 0.0
    },
    {
        "weight": [
            0.016544407591076685,
            -0.020171428231948025,
            -0.06141177048076135,
            -0.16483511029749953,
            -0.04384523345628507,
            -0.08862582247858304,
            -0.018266987228598514,
            0.023464119978650153,
            0.03711814755457216,
            -0.0029645270019789827,
            0.004306276942778616,
            -0.07261620350139084,
            0.03875785131684527,
            0.004061363152897556,
            0.028835944940072987,
            0.029239452338478553,
            -0.020171682346750996,
            0.01530698356977519,
            -0.025474858174478806,
            -0.0782014339117113,
            -0.04345701480419696,
            -0.040441395426309645,
            -0.007137498427071308,
            0.22075907505909198,
            -0.10983998670362558,
            -0.13381626240877986,
            -0.017006272320247037,
            0.05352104466815907,
            -0.039377023251025364,
            -0.08770326206060321,
            0.0009517883965031639
        ],
        "bias": 0.0
    },
    {
        "weight": [
            0.09222586153444415,
            0.005906144223973495,
            -0.03961457425385694,
            -0.023588358725272384,
            0.08987134133959447,
            -0.09841348273650749,
            0.02354985640812212,
            -0.2219924749459812,
            0.025731040676364007,
            -0.12727631083534702,
            -0.06414089689728021,
            -0.05855789409654215,
            -0.040658972239967034,
            0.08045170674730835,
            0.04051871828747433,
            0.031939766553132624,
            -0.0053841925313442346,
            -0.09194393599406073,
            -0.1059632601313134,
            -0.12828826844368466,
            -0.025851638178279627,
            -0.001252087706984479,
            -0.0017472876306612554,
            0.06851313983220705,
            -0.17787377617083303,
            -0.012966085549244194,
            0.024464610092566206,
            -0.05532543749491871,
            -0.039757919886061734,
            -0.06094106287485099,
            -0.062061126580283704
        ],
        "bias": 0.0
    },
    {
        "weight": [
            -0.10090320549824755,
            -0.052499456456724866,
            -0.0391665842662439,
            0.029138004504480026,
            0.0631963476418655,
            -0.08713852529998321,
            -0.017743649115351756,
            -0.1021660407272998,
            0.060292985513239396,
            -0.07597402818654166,
            -0.05325865545175527,
            -0.16069353251835225,
            0.016989298931342545,
            0.13201188882173048,
            0.05493438424855611,
            0.0471738980487561,
            -0.08563660346039016,
            -0.030214764817175613,
            -0.07976344542183234,
            -0.10502295025881685,
            0.000798177894834929,
            -0.06252177122159261,
            -0.02403680466056708,
            0.15661504681972255,
            -0.17788795904038301,
            0.001522723511502444,
            -0.012265519691867805,
            -0.11524608428956293,
            -0.02251554925309801,
            -0.12444845617008023,
            0.006314607814886299
        ],
        "bias": 0.0
    },
    {
        "weight": [
            -0.0622401818046478,
            -0.022505323704965188,
            -0.10481090511811159,
            -0.21841053675797054,
            0.13530284642329027,
            -0.05520784787841605,
            -0.000450413310435862,
            -0.017286961382919627,
            0.005949971677100817,
            0.07760259792193876,
            -0.008813745536096101,
            -0.08999498881583401,
            0.0531102306717521,
            0.18601729933969255,
            0.12005168256573671,
            -0.00363991475417982,
            -0.0664771224414531,
            0.029638440875950085,
            -0.09653985767218515,
            -0.036252706685917575,
            0.0026033940432569525,
            -0.04934070464910724,
            0.02111873211902272,
            0.2702489055870043,
            -0.15196796500964177,
            -0.0181329293587723,
            0.03559481676623003,
            -0.06389688419684705,
            -0.07031605136778617,
            -0.032484880914478535,
            -0.08526066849545227
        ],
        "bias": 0.0
    },
    {
        "weight": [
            -0.07326729897619325,
            -0.053305952657047476,
            0.02737912707701846,
            -0.14896738234196727,
            0.07685081471822178,
            0.016061511278756952,
            -0.014534717229701453,
            0.007814736968162025,
            0.019415655246878747,
            0.13440807482957923,
            -0.04118259626824898,
            -0.14070541868654854,
            0.05724618780079806,
            0.1423579760635017,
            0.05453066667237194,
            0.062973988250943,
            -0.015858255964351687,
            -0.10029644417411096,
            -0.05405245981097277,
            -0.136912082729276,
            -0.007505355440273651,
            0.01574711206082522,
            0.03583902899319694,
            0.196279217641613,
            -0.1874188474031273,
            0.015815936950216197,
            0.022655657164797612,
            -0.1037461367229361,
            -0.07010035458798751,
            -0.047870109806369444,
            -0.058782004611964464
        ],
        "bias": 0.0
    },
    {
        "weight": [
            0.00501253749768994,
            0.043491627807310425,
            -0.10931846410506153,
            -0.01058866374298085,
            0.12181652869508608,
            0.08888439918782563,
            0.02425617450508219,
            0.014703539672699422,
            -0.05849454905175682,
            0.2138969798715566,
            -0.07734279802110379,
            -0.039265537234023366,
            0.04425526644937203,
            0.2153589365709936,
            0.011891906646646747,
            0.06356300676683624,
            0.024978023580651557,
            -0.022586848398879197,
            -0.04570270665158314,
            -0.2045699203907712,
            0.07324654385765597,
            -0.022920581541696947,
            -0.03786157853821016,
            0.028504334447532753,
            -0.14193735777165553,
            -0.021306964126933517,
            0.052309385190872394,
            -0.1148852550943889,
            -0.017933385939576014,
            -0.07943323965075964,
            -0.0016441298648767419
        ],
        "bias": 0.0
    },
    {
        "weight": [
            -0.05038420635955317,
            0.005039575401748461,
            -0.1491884803488756,
            0.048680597180301516,
            0.17942460842080507,
            0.12801602028142817,
            -0.01290103552905902,
            0.09364080597127462,
            -0.0909636422452244,
            0.22308065843867142,
            -0.0994098155668868,
            0.05723172136735713,
            -0.031076179767057913,
            0.05519757620884829,
            -0.029545412049237683,
            0.02196966301127373,
            0.047068809297104275,
            -0.07876911984628707,
            0.05183230467411323,
            -0.2199800035304475,
            0.21025483124171668,
            0.051243764035982756,
            -0.07609896328068182,
            -0.04925677506129346,
            0.007481544478301464,
            -0.002093951377797413,
            0.062009527156458945,
            -0.09306218507469674,
            -0.051629851070387894,
            -0.13567517816866057,
            0.10505339014936226
        ],
        "bias": 0.0
    },
    {
        "weight": [
            -0.06028317495877472,
            0.13698354920528433,
            -0.11208306053566507,
            0.007965727492672272,
            0.0515042223810104,
            0.14079654464024685,
            -0.009750988312268808,
            0.08573342985913901,
            -0.07512869420013553,
            0.24585864372351574,
            -0.07735231453797485,
            0.07433360007703152,
            0.004829103445335019,
            -0.21613146755806498,
            -0.0073807512413947545,
            0.0018958449203028823,
            -0.0200095730926353,
            -0.10749338358734849,
            0.10682193358823956,
            -0.19145096659534802,
            0.1305276010604291,
            0.01347387478266476,
            -0.02107757832914464,
            -0.0800417972482601,
            0.15663549100130766,
            0.057629630421962466,
            -0.012682055720389385,
            0.04357016475144082,
            0.019122925133132136,
            -0.022109333625093895,
            0.08965317216500208
        ],
        "bias": 0.0
    },
    {
        "weight": [
            0.02129154780073968,
            0.09444986019730008,
            -0.11857558159304087,
            0.02670070481478832,
            0.05851734998341361,
            0.14839113738514695,
            -0.06524453518328699,
            0.13560028444804628,
            -0.042073145790202486,
            0.16434696584301792,
            -0.0910222839323518,
            -0.04445949515681047,
            0.036302729694374904,
            -0.39207546577054225,
            0.07407551458960837,
            -0.014437368696267088,
            -0.041803368215544576,
            -0.15756019646293373,
            0.09934095718998937,
            -0.22832333908703142,
            0.13750480760802838,
            -0.04322430574159028,
            -0.043551300929157835,
            -0.30388867950937415,
            0.15016152635211075,
            -0.03106645729414183,
            -0.004231004191883566,
            0.06803215826779192,
            0.036590619477053235,
            -0.06413565938370983,
            0.11729536321034342
        ],
        "bias": 0.0
    },
    {
        "weight": [
            0.06066157751843148,
            0.14605595626969908,
            -0.11749596618226765,
            0.001394630210548277,
            -0.0720532554104939,
            -0.0715760542974646,
            -0.04632757471377704,
            0.05444050776070699,
            -0.03722055628065996,
            0.007243124091734175,
            0.004790513943685416,
            -0.012175429349457086,
            -0.036287156468837074,
            -0.5568856864770179,
            0.05497888711493813,
            0.008873364531153678,
            -0.08726859704180252,
            -0.1129390689772366,
            0.09241062481168467,
            -0.16876970355927493,
            0.08149824058948683,
            -0.0009532083582142801,
            -0.12459517275845432,
            -0.19144346789889086,
            0.041610232033337705,
            0.030301551725216893,
            0.048942618857207555,
            0.17418257590777347,
            -0.0007183906508178854,
            -0.027580242355779803,
            0.027392543096100442
        ],
        "bias": 0.0
    },
    {
        "weight": [
            -0.021955394705112364,
            0.049047461755070555,
            0.014854352747162841,
            0.015636225110586974,
            -0.06201506798227244,
            -0.05557373778861552,
            0.022649766120828755,
            0.06374406034263212,
            -0.04367804326271873,
            0.04327347908608873,
            0.014747698477352278,
            0.0932144959529893,
            -0.0012933170171832123,
            -0.3470998237413811,
            0.007539174743381735,
            0.013379296017344713,
            -0.013852355236144955,
            -0.1272215378585328,
            0.03153795344720218,
            -0.04348062350833238,
            0.014686609652376144,
            0.04252526756044686,
            0.016615454226343605,
            0.07005473453478686,
            0.1100672583186521,
            -0.07832957018575334,
            -0.0036841315368110962,
            0.03281686097345201,
            0.018967848973979882,
            0.12133379253086436,
            0.05686233806295049
        ],
        "bias": 0.0
    },
    {
        "weight": [
            0.0012557702271946123,
            0.09349371025635253,
            0.014184951358772662,
            -0.024947329709861066,
            -0.06616483529611063,
            -0.03973952885813117,
            -0.02821155672102369,
            0.020767250751975202,
            0.0008861594796198457,
            0.01721246986229167,
            0.02837246351093746,
            0.004001228329855603,
            0.007092782941894839,
            -0.1921830134791309,
            0.002210928586056137,
            -0.03802224041083166,
            -0.043432198443713564,
            -0.057331762017328515,
            0.07631155754491502,
            -0.038031443653472,
            -0.02757496375705571,
            0.017203687227242137,
            0.039170510305134,
            0.1496519234304484,
            0.030385192999922338,
            -0.031083261785410956,
            -0.013514510342002416,
            0.0060858138371735725,
            -0.06054821574657194,
            0.1277722115359838,
            0.04812002882112339
        ],
        "bias": 0.0
    },
    {
        "weight": [
            -0.11639335608219213,
            0.006780577402367772,
            0.13629116951954048,
            0.0006259226158976569,
            0.0748951934196678,
            0.08253088630963396,
            -0.018539808511658012,
            0.015041007184792754,
            0.08858083587326457,
            0.08576099224905952,
            0.0167891616868271,
            0.0533714591570978,
            0.01870090254033139,
            0.12237469441141587,
            -0.08263729907342528,
            -0.03352652864807093,
            -0.0022325448085109612,
            0.014639458301167552,
            0.0804247351841589,
            0.0497407066431967,
            -0.023729185277168698,
            0.005037010962443663,
            0.0408563624814885,
            0.038698998105713485,
            -0.04663357060272104,
            -0.019335855714248684,
            0.02421177758265706,
            -0.13121985531536365,
            0.033665195183389916,
            0.06748817026782802,
            0.09634129853679091
        ],
        "bias": 0.0
    },
    {
        "weight": [
            -0.15332766199916978,
            -0.1266298944991878,
            0.12242350844501086,
            0.030557158296958254,
            0.12346160825491612,
            0.1903177106399145,
            0.018861937200743622,
            0.0228631116206942,
            0.07519656709379983,
            0.0474066279385505,
            -0.029760448392821118,
            0.03930101967429599,
            0.012787352905780036,
            0.11222276162195864,
            -0.14396794787793574,
            0.03410053196099837,
            0.002369254995989671,
            -0.020259504343471867,
            -0.03944362902258302,
            0.09718026948774686,
            -0.018888083833670403,
            0.03488899137966944,
            0.06497729453898243,
            0.0719904561280343,
            -0.00551964528051623,
            -0.012460218953768474,
            0.0050789706571992615,
            -0.1690033930391364,
            0.03607398801252603,
            0.01904398662023383,
            0.123649296100667
        ],
        "bias": 0.0
    },
    {
        "weight": [
            -0.18292341043513258,
            -0.07573910351692684,
            0.1354357421586125,
            0.01867256199258472,
            0.17608156853796186,
            0.09413018541147444,
            -0.00897823790604898,
            0.04205736246245536,
            0.10537902412968406,
            0.00067207844027498,
            -0.04638761008597145,
            0.029790873821361887,
            0.014646906180205364,
            0.21281131190816752,
            -0.10980961605885256,
            0.026505215291643822,
            0.05096622740528364,
            0.06550740178429412,
            -0.05957192252077682,
            0.2640114962181406,
            -0.041381211603293305,
            0.0556817572431155,
            0.13076686647435967,
            -0.04081937988663056,
            -0.018495097548255176,
            -0.023970409333783103,
            -0.01389941785570752,
            -0.12447020225915226,
            -0.020063758447939624,
            -0.024906797461055945,
            0.08837115968648615
        ],
        "bias": 0.0
    },
    {
        "weight": [
            -0.11670464793497719,
            -0.09231522920477833,
            0.22491054424009554,
            0.06861339998843898,
            0.133066609964752,
            0.14288126285728384,
            0.023191998265664905,
            0.13348594647437623,
            0.09525494941721226,
            0.0702211504659361,
            -0.03754930670521405,
            -0.003809407627130162,
            -0.04460513682792203,
            0.22073440489194435,
            -0.15525457068669093,
            0.01415726402292719,
            0.015047833412156783,
            0.08314684847699026,
            -0.10367365737871222,
            0.3416208275405004,
            0.007149762241478173,
            0.07111110057486326,
            0.042465052483557884,
            0.06799172023984462,
            -0.07557623468783285,
            -0.01147162523832155,
            0.0028880999353019074,
            -0.16655479515829905,
            -0.00815849913203869,
            -0.03699638525475772,
            0.1310229515591118
        ],
        "bias": 0.0
    },
    {
        "weight": [
            -0.03362381324688594,
            -0.07399451868929909,
            0.1818981841526995,
            0.006328321962727636,
            0.11323724509021604,
            0.06875804232632449,
            0.027890544987379893,
            0.07048081097814783,
            0.0809939408472371,
            -0.0018622474430056049,
            -0.05362288013058108,
            0.09045436583296282,
            -0.05252518776349753,
            0.12928652288043807,
            -0.15133222943837224,
            0.023528163342885614,
            -0.011385262164448151,
            0.048047444097136176,
            -0.02425519786125206,
            0.27409089357185035,
            -0.016358785901275735,
            0.0435548837718062,
            0.019144549132548407,
            -0.0005814958244452384,
            -0.02696141648415089,
            -0.06891833283586313,
            -0.024005531325979566,
            -0.043123090738884,
            0.011688190664309952,
            -0.06417200979346126,
            0.07480592074739022
        ],
        "bias": 0.0
    },
    {
        "weight": [
            -0.01352616749300312,
            -0.07813363821457664,
            0.19905059987688367,
            -0.030655515887318987,
            0.025774295182254884,
            0.09079184394797617,
            0.029386677125760007,
            0.10833290700074275,
            0.014020898114020172,
            -0.03769316541087743,
            -0.07240284986637383,
            -0.007562344129689774,
            -0.057849452429386494,
            0.05623229456161865,
            -0.07614526829878483,
            -0.03177769005590926,
            0.014657790969027466,
            -0.00022137553131188145,
            -0.07459184412130744,
            0.17172786603906784,
            0.00362611480761909,
            0.01619469744139595,
            0.058043885827952446,
            0.03176656835295063,
            -0.019607899443818924,
            -0.05850967777509412,
            0.005632900006180096,
            -0.03283753830854433,
            0.05279668851811226,
            0.0012491183278470787,
            0.12806527583638794
        ],
        "bias": 0.0
    },
    {
        "weight": [
            -0.02548634935211597,
            -0.012930973145595843,
            0.16683259174652051,
            -0.06650820021106194,
            -0.08329707867232139,
            0.038462581782716256,
            -0.02987697688637608,
            0.08703260888773577,
            0.06657498152031367,
            -0.10461054620690595,
            -0.05656402826594401,
            -0.04963523255518541,
            -0.004617885203515374,
            -0.005250996015355226,
            -0.08968597044318787,
            0.026365759403023707,
            -0.03546559115997873,
            0.030546615831312938,
            -0.0730708234914189,
            0.21730651129472325,
            -0.055442039047031204,
            0.0077337753466251566,
            0.058268516903340485,
            0.02011307442100077,
            0.04362427049990915,
            -0.05901550783521177,
            -0.04078614975218156,
            0.016236889174612964,
            0.021841143403104907,
            0.10083622290776637,
            0.13495166299787842
        ],
        "bias": 0.0
    },
    {
        "weight": [
            0.006744092956568831,
            -0.010581813614825828,
            0.05445651329573022,
            0.00799187324773092,
            -0.08675231791391895,
            -0.05012367638191857,
            0.016163654705110532,
            0.1629037852012084,
            0.002185948995129202,
            -0.09901813612188938,
            -0.04531631253520074,
            0.0237600570314658,
            0.004360309156657715,
            -0.05396078865964995,
            -0.06786834025538364,
            -0.0197947985488732,
            -0.0283113051513979,
            -0.04402698255198525,
            -0.05884392783719314,
            0.14640036613217242,
            -0.047228873004197584,
            0.04283139891928277,
            0.037703350935118646,
            0.06286832193523907,
            -0.05826690065227109,
            -0.06904777323146087,
            0.028940457287260028,
            0.01942456125912033,
            -0.007131593559526029,
            0.03512494334646104,
            0.15235109804319383
        ],
        "bias": 0.0
    },
    {
        "weight": [
            0.012116751502428155,
            -0.049688905291642625,
            0.1439126570651982,
            0.09470733587871791,
            -0.10008438492210621,
            -0.014395062254387615,
            0.0010207524286954216,
            0.053118504801046476,
            0.03483813906422507,
            -0.0815253020089258,
            -0.034073226553999025,
            0.004153247668365514,
            -0.006361429973124563,
            0.0064134719051900995,
            0.031135193552303618,
            0.018955563796440315,
            -0.018306501621768778,
            -0.020126705866298753,
            -0.011455350639735885,
            0.15032005076912877,
            -0.0412517770311017,
            0.034265663737863335,
            0.03562904095002462,
            0.08020625557517162,
            -0.028448149554990514,
            -0.003639360259194588,
            0.03553331278820199,
            0.07854398136055801,
            0.018725294934482672,
            -0.00749806222085792,
            -0.03534646348271883
        ],
        "bias": 0.0
    },
    {
        "weight": [
            0.018320228176476744,
            0.021798093215335924,
            0.11090018140318345,
            0.013432043255312652,
            -0.05587453244585099,
            0.04677846250081086,
            0.027529826191694473,
            0.005917370914492762,
            0.038723829971813666,
            -0.002510986552857198,
            -0.03393506531617139,
            -0.08667836345695533,
            -0.0014944493589648849,
            -0.05991557274053878,
            0.015668007586892203,
            -0.024130134946758225,
            -0.04213764168075633,
            -0.011462234356358122,
            -0.06066602420971277,
            0.12380669269814586,
            0.023578206574879,
            -0.01427804011453537,
            0.025832739331801923,
            0.030969890355986837,
            0.04836528785427245,
            -0.04201488779089805,
            -0.026268136333768812,
            0.009017492370342977,
            0.004542999421593279,
            0.008033705390286283,
            -0.024431348727550293
        ],
        "bias": 0.0
    },
    {
        "weight": [
            -0.011607774735466697,
            -0.010995029602263305,
            0.0028473746811029754,
            -0.04954780580173116,
            -0.1269570787574782,
            -0.09565439543523628,
            -0.02618545774001184,
            0.0048880917192164605,
            0.037219629300784075,
            -0.012262517491057221,
            -0.013665340830206783,
            -0.06529498356513908,
            -0.013398367321864425,
            -0.0568842319577028,
            -0.03687589137158064,
            0.03171369118127822,
            -0.019146508688333702,
            -0.003695469503379913,
            0.013771568296148817,
            -0.017134662360781757,
            -0.046838120496779205,
            0.013940757694184257,
            0.024145061567809364,
            0.029890941760628155,
            -0.01988258225484542,
            -0.05626252076426736,
            -0.02355808667935597,
            0.11317792162597233,
            -0.01881127405734788,
            0.024322225771585895,
            0.06206656341966067
        ],
        "bias": 0.0
    },
    {
        "weight": [
            -0.08016477891464337,
            -0.027996593756697875,
            -0.04284439580895145,
            -0.10533752428117704,
            -0.12133125651777575,
            -0.04317337891789071,
            0.0393107717376813,
            -0.07329630467923673,
            -0.006609333678296459,
            -0.05026933041230123,
            -0.025650358751647867,
            0.007034632604023312,
            0.0020480383529792876,
            -0.07449558079358597,
            0.08377544425836143,
            0.04580944663128355,
            0.030593285344489865,
            -0.018690661597928693,
            -0.037539819492259215,
            -0.01953477465285439,
            0.015882482670427932,
            -0.04066744477052398,
            -0.044317111582655944,
            -0.014488014073312565,
            -0.026995443583847086,
            -0.058693012228303136,
            -0.021823073476031293,
            0.10271667765624695,
            0.03593164891886334,
            -0.03241756567008769,
            -0.06935012803553478
        ],
        "bias": 0.0
    },
    {
        "weight": [
            -0.09096803128991308,
            0.029804112585786097,
            -0.10673489694189008,
            -0.03996116064244193,
            -0.10420462557225757,
            -0.08978364595477056,
            0.02524264323799872,
            -0.11755174330407632,
            -0.013277198916898941,
            -0.040572657969406824,
            0.03325682704600286,
            0.00563139572431844,
            0.06246318573917323,
            -0.024543340253180904,
            0.08710200742819914,
            -0.010488772817564876,
            -0.034230937910469994,
            -0.013355774757983468,
            0.022195945891858377,
            -0.09451236918814451,
            -0.028829371637572453,
            -0.03150073272944048,
            0.012287417187473443,
            0.037247055096528606,
            -0.03220206060219934,
            -0.05216809880059825,
            -0.019805079140887548,
            0.11052513308592932,
            -0.022874658364912384,
            -0.04438989526967332,
            -0.05753299186590769
        ],
        "bias": 0.0
    },
    {
        "weight": [
            -0.07637358886633167,
            -0.027192854369634513,
            -0.10706214565823985,
            -0.09440545323686396,
            -0.08892857432889223,
            -0.03338123713792443,
            0.02233399128849651,
            -0.04077545043384527,
            -0.03323464655612432,
            -0.04124034601906923,
            -0.02175901888231092,
            0.009838406430875558,
            0.008030576178385578,
            -0.08125056444999405,
            0.035403757348960715,
            -0.010329649134324529,
            -0.02782952481076813,
            0.0037050273822998433,
            0.01993629685911073,
            -0.09891212747689425,
            -0.02620019406201903,
            -0.055146259780829585,
            -0.021891561015582872,
            0.041925988675139324,
            0.00025474308382818976,
            -0.06874693794672047,
            0.03687906770771668,
            0.06962950050079682,
            -0.022942852894540063,
            -0.03454917655025849,
            -0.10182628303816398
        ],
        "bias": 0.0
    },
    {
        "weight": [
            -0.10565457969683612,
            0.027984945455670603,
            -0.053278024982710434,
            -0.13039520642883276,
            -0.07927276913322381,
            -0.08914546105176938,
            -0.014992498456736949,
            -0.10505121497922466,
            -0.02749458253753905,
            0.02576527597052791,
            0.03270682860729806,
            -0.05187184053164833,
            0.003585474121762856,
            0.03427429370617911,
            0.04726655362311866,
            0.04288715736844453,
            -0.02966116187614112,
            0.014100438185220106,
            -0.04782390776077467,
            -0.03196660739824877,
            0.01613126071264211,
            -0.045349797748767164,
            -0.04285878693717582,
            0.0425490510728198,
            -0.046868206980360164,
            -0.02568316483287237,
            -0.0028532438638407625,
            0.01709131331878861,
            -0.023295162625311325,
            -0.03214018379614051,
            -0.05039910237380934
        ],
        "bias": 0.0
    },
    {
        "weight": [
            -0.08111761221799021,
            0.005850845117531943,
            -0.017149504281506925,
            -0.21136119511039247,
            -0.10502772057722097,
            -0.09073737992793837,
            -0.013013357726890669,
            -0.02038639672023354,
            -0.009115156953659498,
            -0.02498264993691856,
            0.01588984781597555,
            -0.06922086682615065,
            0.01142217986877557,
            0.1157470853372797,
            0.01763609292268865,
            0.042626247988718426,
            0.04408497363665282,
            0.049952086254241676,
            -0.06666638984378959,
            -0.09853453816380073,
            -0.030025437768354358,
            -0.03680828292116523,
            -0.01544910565098504,
            0.18526236132074386,
            -0.022343782715428778,
            -0.10607226890350496,
            -0.01927907361521976,
            0.09393240288826721,
            0.015466990295640049,
            -0.017369926594146913,
            0.01848797868265488
        ],
        "bias": 0.0
    },
    {
        "weight": [
            0.03791576550330982,
            -0.014676652460354515,
            -0.03532670521980532,
            -0.2615028876114857,
            0.029099361269784966,
            -0.08899156101449746,
            0.05379639484613649,
            0.1160248904535188,
            0.018462336031452916,
            -0.022252898808284027,
            -0.04822345982534943,
            -0.08671571819954176,
            -0.012386978553567858,
            0.12444629318585562,
            0.04946115258487675,
            -0.010764250552429648,
            0.02213349297583734,
            -0.02196593503653982,
            -0.13836389351915027,
            0.04024804408292424,
            -0.008439870630497288,
            0.026297582423331498,
            0.049208734466789236,
            0.19454205030742758,
            -0.14536227763829873,
            -0.05542979771854145,
            0.032657239211886464,
            0.016431453980521444,
            -0.016550341453002628,
            -0.11202201741362965,
            0.04449301868626811
        ],
        "bias": 0.0
    },
    {
        "weight": [
            0.07326787107446009,
            -0.04143745849814041,
            -0.11924654617594824,
            -0.11103198117821896,
            0.07307002407633878,
            -0.045290151342560134,
            -0.004136917205111032,
            -0.026589347604947605,
            0.024010178487296894,
            -0.012132005099140749,
            -0.06190987745630726,
            -0.12575746455571646,
            -0.009761397895181708,
            0.25594290057126695,
            0.017334098274384938,
            -0.00962769292148567,
            -0.007150628299221728,
            -0.053865813685981825,
            -0.1559489965187501,
            -0.058029649302157406,
            -0.03143591692270564,
            0.02115850056503329,
            0.07652200694795971,
            0.3159833977160528,
            -0.21715045823042806,
            0.0071279860758698835,
            0.0114113948545254,
            -0.0440559159951389,
            -0.055786141364451224,
            -0.04959810009163382,
            0.07125406780208411
        ],
        "bias": 0.0
    },
    {
        "weight": [
            0.12371442022029287,
            -0.07042652101837168,
            -0.17882833319865846,
            -0.16909955275857674,
            0.15808267511357735,
            0.01952424626147812,
            0.042959087074401686,
            -0.02297957483337685,
            0.001117969475614009,
            0.08392402031746965,
            -0.10082549636315297,
            -0.19300810049610254,
            -0.007064089609524507,
            0.31350650387897355,
            0.09144651123011933,
            0.002150726173599198,
            -0.08695109006623904,
            -0.03969255375650308,
            -0.14992178598847372,
            -0.07700967159135569,
