[
    {
        "weight": [
            -0.026053560739271783,
            -0.14282435621174416,
            1.4786915586062832,
            -0.08541532273045176,
            -0.0035978324182393854,
            -0.0169716059278707,
            -0.05480424901684887,
            -0.0354473738021971,
            -0.035832086818156694,
            -0.06323089818680186,
            -0.061092454739186265,
            -0.05994835119772378
        ],
        "bias": -0.07706913666360256
    },
    {
        "weight": [
            0.019796777631165642,
            -1.18615315516084,
            0.05761140689481725,
            0.06322604513003549,
            0.01734892426310394,
            0.01288225579653458,
            0.03809316339020113,
            0.013664467302104596,
            0.04152697924995802,
            0.09910276193048034,
            0.03600121709859507,
            0.0654336407550474
        ],
        "bias": 0.0382895220815658
    },
    {
        "weight": [
            -1.7234063559245432,
            -0.0030303964645576106,
            -0.018536592460228152,
            0.3030771502582838,
            0.05988282638443855,
            0.020858447526404377,
            -0.026841697150541053,
            0.009311205220779994,
            0.013518874080757637,
            0.4635615003301859,
            0.3413664700828618,
            -0.06076335352848818
        ],
        "bias": -0.1431369178667454
    },
    {
        "weight": [
            -0.0023099245949300307,
            -0.020521003795414078,
            -0.047050419518801054,
            -0.25688726455468447,
            -0.02087959291743125,
            -0.015971653352299945,
            -0.033799453914593894,
            -0.041432436670854875,
            1.1793984199855236,
            -0.04687046828228567,
            -0.024334817149580842,
            -0.001756357936306875
        ],
        "bias": -0.037122702218648045
    },
    {
        "weight": [
            -0.008233075073784043,
            -0.011462297584663194,
            -0.05150351764430959,
            -0.042507513784902334,
            -0.007807131699505219,
            -0.013053702536602539,
            1.1028802059579186,
            -0.026054566677748806,
            -0.03423699627900593,
            -0.0830030772714217,
            -0.1577591335712636,
            -0.05293848859224285
        ],
        "bias": -0.26604529702128565
    },
    {
        "weight": [
            0.025689169208210128,
            -0.004489240273145661,
            0.014706269170773875,
            0.08872988822863224,
            -0.009613642007624122,
            -0.0021311602918618186,
            0.05519973400258321,
            0.012838229270731798,
            -0.0032541373902081196,
            0.0794903867258248,
            -0.4694716600562965,
            0.03477545533389076
        ],
        "bias": -0.24081353177121878
    },
    {
        "weight": [
            0.006878136567096423,
            -0.020761970644433095,
            -0.026496798647186473,
            -0.032471752391018356,
            -0.11722724152399094,
            -0.0016059690093078323,
            -0.012640659322528901,
            -0.008889243470299624,
            0.013289534631866834,
            -0.02453113555471018,
            0.004428243571445387,
            -0.013317564746703713
        ],
        "bias": 0.02995824341901885
    },
    {
        "weight": [
            -2.577963547230393e-05,
            -0.07789036466870652,
            -0.027332477682946308,
            -0.05694829121067717,
            -0.05041124875982945,
            -0.01844260819927514,
            -0.03519952814175864,
            1.0201047622096053,
            -0.10117223189229842,
            -0.07511655983520739,
            0.0022399387870856336,
            0.0007723155413156034
        ],
        "bias": 0.12188869314421144
    },
    {
        "weight": [
            0.01541087202190201,
            -0.03552685113947045,
            0.0027506661672402877,
            0.034295728918953196,
            -0.002300396160348007,
            -0.007568343889127969,
            0.005211280681460921,
            -0.05562520972170126,
            -0.030727538388300012,
            -0.020516888886600283,
            -0.02925314705420333,
            0.04825116334901702
        ],
        "bias": 0.0074803560839905355
    },
    {
        "weight": [
            -0.0018856551880810648,
            0.035365752167879315,
            0.04491262978734741,
            0.02912182479133205,
            0.042723111881438666,
            0.04119601848473651,
            0.031115834325612227,
            0.023063466949572196,
            0.028628054111366312,
            0.04037360844742575,
            -1.0687042025155815,
            0.0806304489793476
        ],
        "bias": 0.07022798961227335
    },
    {
        "weight": [
            0.010292521564889542,
            -0.07167548956370681,
            0.018232779342696608,
            0.04382345127650443,
            0.00984791902118162,
            -0.0011578140929389851,
            0.026656411035651004,
            0.07518401153915015,
            0.03610740317468212,
            -0.10981138911984223,
            -0.021816304238107705,
            -0.0032678072686700634
        ],
        "bias": 0.0911253613961795
    },
    {
        "weight": [
            0.01636151264459247,
            0.04418019544065369,
            0.038817087164567256,
            -1.1140638034507238,
            0.012846399801696634,
            0.01515171582995874,
            0.03680230946266099,
            0.022576916238724227,
            0.11475779128124874,
            0.042949708406094037,
            0.06996795643977134,
            0.020811798723121784
        ],
        "bias": 0.09720600540749232
    },
    {
        "weight": [
            -0.0019508940211486242,
            0.02773940160014442,
            -0.09305878913374854,
            0.1064253829844046,
            0.016527049036957387,
            0.008514776973797999,
            -0.0126352079489368,
            0.024812901144957697,
            0.020783804618952295,
            0.006421333939488708,
            0.07504904421730235,
            0.06773817582769422
        ],
        "bias": 0.1432780979118908
    },
    {
        "weight": [
            -0.010027926209700064,
            -0.05986512868856671,
            -0.03703222592809322,
            -0.08800167050725047,
            -0.031022595464031702,
            -0.021901001970795957,
            -0.039768786128069784,
            0.0017453818343357913,
            -0.019785866167026288,
            -0.03513692601045722,
            -0.08651417309647014,
            1.3450211596053607
        ],
        "bias": -0.07255448298817012
    },
    {
        "weight": [
            -0.03210929906910544,
            -0.04265347526694444,
            -0.007094963901462242,
            0.39054532563089156,
            0.009849241410206057,
            0.0016879933442243695,
            0.00846176836994843,
            -0.014162024135990327,
            -0.06158299265296761,
            -0.07472588106101939,
            -0.12372600225381816,
            -0.023638909009253774
        ],
        "bias": 0.06674155524164152
    },
    {
        "weight": [
            0.002349728243732383,
            -0.02232898268096332,
            0.008335106306775095,
            0.054760154905051164,
            0.02522169238349384,
            -0.023842436139546043,
            -0.021576344935377745,
            -0.006317943836655723,
            -0.004781012946166419,
            -0.01350738379048059,
            0.018021201728994924,
            -0.03913013155081506
        ],
        "bias": 0.17624630379400114
    },
    {
        "weight": [
            -0.014066796739522922,
            0.06183634842271125,
            0.012117142162243496,
            -0.17353812830707527,
            0.016211417833938428,
            0.0033239726298919473,
            0.0018064749703674756,
            0.029358857096901968,
            0.00958680853368028,
            -0.018637915367924116,
            -0.032730191886476565,
            0.006652333120895668
        ],
        "bias": -0.08525339780714977
    },
    {
        "weight": [
            0.005894634652053181,
            0.091452828959659,
            0.02911419315446075,
            0.04967105651779849,
            0.01005125172748977,
            0.013173310553871307,
            0.031933313160797824,
            0.040877509269032816,
            0.03803536768968537,
            -0.9997608402808326,
            0.05307318288564126,
            0.013484149987250569
        ],
        "bias": 0.10543762066453136
    },
    {
        "weight": [
            -0.013324231076040527,
            -0.14513464514110835,
            0.017711379129655983,
            0.02063754171255939,
            -0.006698108219105006,
            0.012020947409141008,
            0.003924822013063598,
            0.0028747194449533753,
            0.05082461335074862,
            0.02883838129737011,
            0.022286611606488548,
            0.0012704543486275063
        ],
        "bias": -0.07132310805853025
    },
    {
        "weight": [
            0.006749717604036499,
            0.04311514661711047,
            0.016623221019557852,
            0.07419829733286393,
            0.014529612431499729,
            0.007117663751864185,
            -0.0018859877938951998,
            0.02509586864039484,
            0.04264179257585898,
            -0.5885991792976532,
            0.04922699610118672,
            0.03348729328428156
        ],
        "bias": -0.10744228298451046
    },
    {
        "weight": [
            -0.006275801690310142,
            0.04316323719552242,
            -0.0010577214522469178,
            -0.009468163554021386,
            0.023967201041453792,
            0.007021139932077557,
            -0.00013441863437086945,
            0.023896217808555498,
            0.09287661188228677,
            -0.036184964900547505,
            -0.061975415189152644,
            -0.08066139320864409
        ],
        "bias": -0.17301964436404718
    },
    {
        "weight": [
            0.013792699230576692,
            -0.03749907906545689,
            0.024193447282435634,
            0.033910570652553734,
            -0.025441968326379866,
            0.006357545239245915,
            0.015145181445901278,
            -0.0031150186258749866,
            0.03901923803568594,
            0.007892420874434971,
            -0.039586697588042286,
            -0.035093282635969864
        ],
        "bias": -0.21257539712293017
    },
    {
        "weight": [
            -0.018249460723723385,
            0.061865451455364526,
            0.0038435890853163166,
            -0.0531199735068982,
            0.035441929975387455,
            0.014503012227445171,
            0.008284815414312512,
            -0.030040409593266364,
            -0.025290466622565223,
            -0.0155378216237635,
            -0.03628347609610478,
            0.05684918389593658
        ],
        "bias": -0.13310169020381465
    },
    {
        "weight": [
            0.019958695610588644,
            -0.006882483728078152,
            0.0037597538253901744,
            0.02045931543836899,
            0.3663201147132173,
            -1.4857914445477487,
            0.014429119714230358,
            0.04140410294560039,
            0.01863149721582382,
            0.06659633885089962,
            0.0984825880794802,
            0.04049393624409786
        ],
        "bias": -0.04428186077128163
    },
    {
        "weight": [
            0.004709963682457556,
            -0.007887603006948834,
            -0.025241524632108915,
            -0.060749140951458155,
            0.3637477505189767,
            -0.002491605505677655,
            -0.00879728339465394,
            0.0019658953531152277,
            -0.023253354019175526,
            -0.005725790127629006,
            -0.06502911783585512,
            -0.06091807128698963
        ],
        "bias": -0.1949380405524882
    },
    {
        "weight": [
            -0.01153719222303507,
            -0.08008168141555276,
            -0.05317996744620461,
            -0.08151740397208516,
            -0.046040323450267484,
            -0.031388895605641794,
            -0.08072238852024098,
            -0.08389093100732913,
            0.5306820394144889,
            -0.05575522431377798,
            -0.036935575414484376,
            -0.023032191731461496
        ],
        "bias": -0.16947951409091316
    },
    {
        "weight": [
            0.6815314504103052,
            0.33606596542200956,
            0.5043352071059456,
            0.1598250342636287,
            0.21790302127502392,
            0.59005674293102,
            0.8031474010929756,
            0.7586179805941707,
            0.620461059005011,
            0.17542258372587377,
            0.18178924214742445,
            0.41795890708182737
        ],
        "bias": 0.09700957631928793
    },
    {
        "weight": [
            0.009924541079718649,
            0.032371899319658407,
            0.03870220416876945,
            0.05610359193520467,
            0.003792159709536002,
            0.008224813106561708,
            -0.8634597891874711,
            0.011892408603044071,
            0.03790033189763214,
            0.03837731414107534,
            0.018084894524973458,
            0.05339342993246888
        ],
        "bias": 0.19562805029143418
    },
    {
        "weight": [
            0.0016469093882944877,
            -0.09948629733197017,
            0.025131643551743646,
            -0.03665168368320268,
            -0.014061982606423917,
            -0.01723420448336488,
            -0.013265349893465218,
            -0.011675362308885936,
            -0.002949806125955948,
            0.028516523525726204,
            0.07061687453264238,
            0.04392972119105847
        ],
        "bias": -0.13945909798212153
    },
    {
        "weight": [
            -0.022731287086490862,
            -0.030042375850832526,
            -0.01040620853828286,
            -0.012306503757502698,
            1.1527874893026264,
            -0.038085384845915844,
            -0.03164053244041316,
            -0.022132793774697637,
            -0.020849495451130223,
            -0.03886007950661564,
            -0.026527408757377344,
            -0.06445176960665526
        ],
        "bias": -0.02824812013550477
    },
    {
        "weight": [
            0.0012918231841507497,
            -0.07876092271599548,
            -0.05669879431397195,
            -0.020365520941983406,
            -0.03271731054985726,
            -0.019788172094283445,
            -0.017639619231849483,
            1.0718102130464406,
            -0.04862409452148394,
            -0.03634382666190057,
            0.03451003515648412,
            -0.07141353572960167
        ],
        "bias": -0.11432890189079624
    }
]