[
    {
        "weight": [
            -0.29933517004506915,
            -0.15472154654631298,
            -0.15854947556336266,
            -0.20147004672680383,
            -0.10964875487637786,
            -0.2139145126840235,
            -0.12339838153955385,
            -0.21420751504125612,
            -0.10928597927558274,
            -0.14356092159574388,
            -0.14071041103887363,
            -0.18229219589618625
        ],
        "bias": -0.17681683159968586
    },
    {
        "weight": [
            -1.7077946666877768,
            0.06899185651898299,
            0.02151448380060468,
            0.10292271187840779,
            0.07930213539991789,
            0.04043087650365099,
            0.0032796569962931735,
            0.015135807028675017,
            0.03246804854807174,
            0.07318483308479418,
            0.15678526707946377,
            0.0336693487311509
        ],
        "bias": -0.21925436894062703
    },
    {
        "weight": [
            -0.22066113238801136,
            -0.18616142193923144,
            -0.20387865521654103,
            -0.24621210150831033,
            -0.17064266732179623,
            -0.21056724333731902,
            -0.18036073179271306,
            -0.22236840046011502,
            -0.1728957520942086,
            -0.08823977899511316,
            -0.19128549787671414,
            -0.15925475118346874
        ],
        "bias": -0.20100182817654538
    },
    {
        "weight": [
            -0.43503251763042083,
            -0.02214964750525591,
            -0.003243501554188972,
            0.07216830291086535,
            -0.07733497092733564,
            -0.028027187320730555,
            -0.005400873284990122,
            0.027067550642149024,
            0.0075590433653322416,
            -0.023822331039553158,
            -0.14440253352623758,
            -0.005021586819951635
        ],
        "bias": 0.06343586742876292
    },
    {
        "weight": [
            0.006104093604531614,
            0.04886473215243544,
            0.01819122503934652,
            0.05595025424510406,
            0.01866048608304332,
            0.012169064508363803,
            0.05105119710362468,
            0.007166060711754341,
            0.015100857733766872,
            0.036436219459710324,
            0.09385800258300185,
            -1.7020593178579295
        ],
        "bias": 0.09729114839576777
    },
    {
        "weight": [
            -0.07450843040294416,
            0.007627216573177001,
            0.0540823204108926,
            0.09489692168155656,
            0.10881187013654559,
            0.046561476883406255,
            -0.12280017057379707,
            0.005732798689602126,
            0.1129141298197396,
            0.052694462585175246,
            0.22350746056694612,
            0.20930866946884863
        ],
        "bias": -0.012687924419183351
    },
    {
        "weight": [
            0.027104831944638783,
            0.1782435806599464,
            -0.06943267035146118,
            -0.1202269596683923,
            -0.11317181223847765,
            0.0027076430881148496,
            -0.110085375419555,
            0.060704844642809924,
            -0.33181783352408106,
            0.12627118908828106,
            -0.029001234770522577,
            -0.03835790351635672
        ],
        "bias": -0.03159344594839519
    },
    {
        "weight": [
            0.011332293153729285,
            -0.020884484009595066,
            -0.022119699816652322,
            -0.06583840662884465,
            -0.04153352468098436,
            -0.03106074133930541,
            -0.024736140319912055,
            -0.04127440606267769,
            -0.054622344049474095,
            -0.04595175866948134,
            -0.0920826110670589,
            1.1235418285139125
        ],
        "bias": -0.013884595881333348
    },
    {
        "weight": [
            -0.0025595411447895833,
            0.05357847999739336,
            0.038143708168881914,
            0.14817247383851215,
            0.02313697903065907,
            0.014933475758613616,
            -0.00213090846963503,
            0.046424649311716415,
            -1.818334086713295,
            0.06329206855422867,
            0.048274730428578105,
            0.02118409699818618
        ],
        "bias": 0.06152464111164082
    },
    {
        "weight": [
            0.004737273578013008,
            -0.07879726481313841,
            -0.028400296419651482,
            -0.04455346271885642,
            -0.048496874637735846,
            -0.016445962232335017,
            -0.007972130030629613,
            1.8703823352255893,
            -0.07338434233292063,
            -0.08652849899881487,
            -0.033401143501453616,
            -0.08140854871466578
        ],
        "bias": -0.3049922406318017
    },
    {
        "weight": [
            -0.014082810756955418,
            0.03627537725613907,
            0.058660786600162454,
            -1.0267925397611133,
            0.038424723628903375,
            0.02651045223047255,
            0.02370967599977762,
            0.018692596227235275,
            0.1525808082538872,
            0.04740721417088304,
            0.0835723340592988,
            0.0590216407206172
        ],
        "bias": -0.12758209444950805
    },
    {
        "weight": [
            -0.2937560558366122,
            -0.12840935031055797,
            -0.15938930695721829,
            -0.2002290325413058,
            -0.16229218331896156,
            -0.1559574131728446,
            -0.1238970483729879,
            -0.18912945207512763,
            -0.15011191903636212,
            -0.14595023432612964,
            -0.20218101919605508,
            -0.21562793293835325
        ],
        "bias": -0.08952343082741294
    },
    {
        "weight": [
            0.008841511729148656,
            0.12254771800137014,
            -0.12421479972505443,
            0.33722308443441085,
            0.015926766080614208,
            0.020448834201433737,
            0.03384116390362155,
            0.052350093725609836,
            -0.5860066214396987,
            0.03800399328166549,
            0.0634786016867454,
            0.1375816660775678
        ],
        "bias": 0.05479955169124994
    },
    {
        "weight": [
            -0.004677182089632825,
            -0.04972416388312289,
            -0.04544993396248732,
            1.6973934764198104,
            -0.03206990185624252,
            -0.02180069784359595,
            -0.025123939937456263,
            -0.02084272476946316,
            -0.13154791210135544,
            -0.04288904289133303,
            -0.09138767403134798,
            -0.050231113374334474
        ],
        "bias": -0.015109239737292918
    },
    {
        "weight": [
            0.007125549954448542,
            -0.035535475675924515,
            -0.06853472684571853,
            -0.024021920486607916,
            -0.014267107705029092,
            -0.017746989075671328,
            1.862188576635032,
            -0.013809854757256391,
            -0.03049527746058769,
            -0.07123885463418136,
            -0.2530208554125389,
            -0.04725544549244952
        ],
        "bias": -0.20450954623092313
    },
    {
        "weight": [
            0.0010199515718923593,
            -1.909847843952408,
            0.06061457540158618,
            0.11503258670206093,
            0.04745612047813832,
            0.014468710844942707,
            0.03542403884318147,
            0.026001882783577672,
            0.049589571996042525,
            0.10703373626129799,
            0.06243376099505914,
            0.06880981560413704
        ],
        "bias": 0.07558897934420473
    },
    {
        "weight": [
            -0.08244379129603929,
            0.05174805019142077,
            -0.05395507834514003,
            0.5327481613991046,
            -0.009499733378929433,
            -0.023947626690875592,
            -0.02854136902184166,
            -0.030298406787565624,
            -0.09842541831108399,
            -0.08939574503987559,
            -0.06031751799379545,
            -0.12886775970170533
        ],
        "bias": -0.06813596626812093
    },
    {
        "weight": [
            0.01715743756988126,
            0.02453445283130207,
            -0.007139192308262293,
            0.03768934822961395,
            0.08197587510492252,
            -1.8327073671115701,
            0.002540542155424076,
            0.021737077094015966,
            0.040246518331075794,
            0.05248913233389259,
            0.5416066175883808,
            0.039681601249708216
        ],
        "bias": 0.048910525456889974
    },
    {
        "weight": [
            0.24471673699786956,
            0.18824762832694875,
            0.1997559233484908,
            0.22116696874747932,
            0.1667867523348881,
            0.17041860597435085,
            0.17484920274640278,
            0.17132242591492294,
            0.1375972237292899,
            0.08816160622161713,
            0.18306819832998525,
            0.1879972084575254
        ],
        "bias": -0.1251207996942817
    },
    {
        "weight": [
            0.22963579271894416,
            0.17354905927116523,
            0.17077789155471285,
            0.2197737446559124,
            0.12833576000795466,
            0.19201228445001578,
            0.2035732178109348,
            0.23712532540038087,
            0.16859408713983665,
            0.07135563335828439,
            0.18416078425882185,
            0.2138358340385881
        ],
        "bias": -0.111565673099647
    },
    {
        "weight": [
            -0.00832812792560734,
            -0.03568303751123813,
            -0.017834589450431378,
            -0.08030433675689677,
            1.756013283253277,
            -0.037044873274639276,
            -0.009161220150791832,
            -0.02622664990630477,
            -0.02927370360726106,
            -0.051567185798376124,
            -0.09946600381944946,
            -0.053124495703770376
        ],
        "bias": 0.09737178284345484
    },
    {
        "weight": [
            -0.009465451061236908,
            0.004662671524278222,
            0.03393905357621845,
            0.02194354135762072,
            -0.019157401272004475,
            0.13182066871778628,
            0.03172397451952447,
            -0.011388305525734095,
            0.004447191263184933,
            -0.003101911165859711,
            -0.5407930672167037,
            0.012140579501404828
        ],
        "bias": 0.18920390204271442
    },
    {
        "weight": [
            0.011967901169171154,
            0.04635961996815727,
            0.01612043424447145,
            0.07094946976340388,
            0.0420110899234263,
            -0.00016290762761498847,
            0.011729208726927825,
            0.024426174638565633,
            0.046420462378464346,
            0.06633889873813026,
            -1.291901101133088,
            0.05026054091471282
        ],
        "bias": -0.1127481060340845
    },
    {
        "weight": [
            -0.0069944158745787795,
            0.0944779559261919,
            0.05884076161861432,
            -0.10123830184107815,
            -0.027380514578604454,
            0.03548155874570454,
            0.09365874553180738,
            0.0647711511293413,
            0.03101928016052451,
            0.002372949884119625,
            -0.2176274742275957,
            0.06161636697169937
        ],
        "bias": -0.17451583618917244
    },
    {
        "weight": [
            -0.21755012554995906,
            -0.1336989499953568,
            -0.21084238116097798,
            -0.1945048554504469,
            -0.11595547079984249,
            -0.15470923517894045,
            -0.19570426375456426,
            -0.21745020993631486,
            -0.169122126350808,
            -0.11868470967790459,
            -0.1867049104438175,
            -0.21505324498933817
        ],
        "bias": -0.13433926097385615
    },
    {
        "weight": [
            -0.016876961588116416,
            -0.003050194929608755,
            -0.04057951911153522,
            0.0002950253842356431,
            -0.00870383292234987,
            0.019533552361199483,
            -0.2909062376403731,
            -0.017880790915256475,
            -0.005867683934324186,
            -0.08646341836294247,
            0.8007315767964107,
            -0.08068326538506479
        ],
        "bias": 0.09611088572868808
    },
    {
        "weight": [
            -0.008160773885228519,
            0.06202625246747267,
            0.05080412084468189,
            0.08482310894363738,
            0.027097378953586142,
            0.01965002087063074,
            0.038664291824354574,
            0.05577936593277277,
            0.07019083030429413,
            -1.8475164640264898,
            0.07658500290548408,
            0.05740740563854619
        ],
        "bias": 0.05383343653722088
    },
    {
        "weight": [
            -0.014621097502781741,
            -0.09024019480279839,
            0.09195404726319802,
            -0.10014854504946338,
            -0.07507353645634535,
            0.0089546633611201,
            0.08692197645964884,
            -0.025775632985702273,
            -0.05976281991063184,
            0.019096024340324622,
            0.3069848601477907,
            -0.04097826995291376
        ],
        "bias": -0.022238411842018982
    },
    {
        "weight": [
            0.002427273695488578,
            0.06163762911588132,
            -1.8839724055644052,
            0.06916580935103267,
            0.027395250271739148,
            0.01826516214103392,
            0.04592667493227059,
            0.005482884811373166,
            0.05262950963965085,
            0.0699572714825765,
            0.059822326140110536,
            0.026747835819703625
        ],
        "bias": 0.12772744632265917
    },
    {
        "weight": [
            0.08428724023506613,
            -0.011979139007887194,
            -0.042425210726151664,
            0.06623077485404108,
            0.028950218899155927,
            0.015328993803277126,
            0.028224595178390613,
            -0.058170153193816895,
            -0.04203382978473285,
            0.20847336470852335,
            -0.1319439903251624,
            0.1415680918749916
        ],
        "bias": 0.05106925503198088
    },
    {
        "weight": [
            0.27332029582723394,
            0.18465242872773027,
            0.21511877111879601,
            0.20535129104827557,
            0.11530585994560369,
            0.20264298925373736,
            0.16841117215870655,
            0.16390039987599947,
            0.15705388640063045,
            0.12926462623679394,
            0.1492482174849695,
            0.2031234959618416
        ],
        "bias": -0.016943291923671
    }
]