[
    {
        "weight": [
            -0.0284270880418448,
            -0.0634293086548517,
            -0.14719675644932984,
            0.023109285341232345,
            -0.039316279804584985,
            0.09763402606538238,
            0.4548832134574624,
            -0.028919349800085446,
            -0.12039138625740813,
            0.13090117961813696,
            -0.2538033845041368,
            0.07044076993702299
        ],
        "bias": -0.18437535706163202
    },
    {
        "weight": [
            0.08721887245937783,
            -0.06993169679475608,
            -0.16223685797332288,
            0.04672607894512029,
            -0.0029118792423974754,
            0.014656468471307615,
            -0.10375980963594576,
            -0.08628611898349504,
            0.3802910822742013,
            -0.09182835118235314,
            0.13515717210993097,
            0.01680167483104598
        ],
        "bias": 0.09148740369112421
    },
    {
        "weight": [
            0.0024914003844453006,
            0.03487518776180598,
            -0.1272286595410134,
            0.6549155125425695,
            -0.15161507788129122,
            -0.06894485724266744,
            0.10515889623391622,
            0.08780997684301277,
            -0.24577140490656618,
            -0.14793321330905648,
            -0.1860901336868204,
            -0.05739760401166442
        ],
        "bias": 0.06784268183957975
    },
    {
        "weight": [
            0.007356200886147347,
            0.004368325814652876,
            -0.14032185075068224,
            0.3408590643036232,
            0.03819649083773969,
            0.059646722461135886,
            -0.000658440821158975,
            0.01420972803730667,
            -0.42576650877230793,
            0.05950999129523583,
            0.12125455031134481,
            0.026003075531650193
        ],
        "bias": -0.07542147803285282
    },
    {
        "weight": [
            -0.09763775652491982,
            0.015843306814584724,
            0.029536511211458293,
            0.09844389097792822,
            0.016816643154809532,
            -0.10881790679490629,
            0.29900685595952886,
            -0.02377929854019317,
            -0.007227555243841177,
            -0.03585530050533256,
            -0.34780970915860626,
            0.11959747642221934
        ],
        "bias": 0.16370344003085363
    },
    {
        "weight": [
            -0.18508484665582361,
            -0.2013662977901983,
            0.5837822507177772,
            -0.11767278974758846,
            0.02999112224499205,
            -0.1191241898600282,
            -0.1403223068048791,
            -0.03628123836314565,
            -0.06761505673871378,
            0.22595186681267734,
            0.1019779114321562,
            -0.0974774817967322
        ],
        "bias": -0.14964984179955756
    },
    {
        "weight": [
            -0.3083681448230441,
            -0.13850700449512568,
            -0.11476791043241574,
            -0.030471218935655554,
            -0.16851065589540384,
            -0.16692067900405733,
            -0.03267694328725294,
            -0.14031473258665209,
            0.00525032907931075,
            -0.014136896174174934,
            -0.019604129481428895,
            -0.028942013812412515
        ],
        "bias": 0.053013718077248285
    },
    {
        "weight": [
            0.0010306061385325616,
            0.08209684881489823,
            0.10981611130834901,
            0.0544692286655392,
            0.1782333825721919,
            0.029498938702553563,
            0.10224897448113189,
            -0.9334781299020317,
            -0.11859834448309942,
            0.09354495134492767,
            -0.12817381051746277,
            0.45007817252776955
        ],
        "bias": -0.13332453339373823
    },
    {
        "weight": [
            0.030528402236617982,
            -0.1659369176160875,
            0.05156862287810699,
            0.026256218576281125,
            0.012494069267117467,
            -0.015653873541996557,
            -0.003372965491289282,
            0.2690147011746875,
            -0.33036270820363994,
            -0.15469409992738536,
            -0.12191734643996396,
            0.5480899897816354
        ],
        "bias": 0.16860222076601344
    },
    {
        "weight": [
            1.1822275004975316,
            -0.051342563630354124,
            0.033073425354396245,
            -0.1356351999433098,
            -0.04222209460390013,
            -0.03606675975040086,
            0.09463477377546996,
            -0.006669193414879861,
            -0.2130320525291423,
            -0.14068211733792646,
            -0.1621635041493796,
            -0.11933280143607536
        ],
        "bias": 0.17369742654893172
    },
    {
        "weight": [
            0.05214901744097056,
            0.001562797536074583,
            0.15126894776002178,
            0.03035112949138193,
            -0.05317578292166204,
            0.07191931851498039,
            -0.6965256839900373,
            0.050732275416892354,
            -0.10831988327350484,
            0.13939320159038066,
            0.27557228230513797,
            0.011252156692385138
        ],
        "bias": 0.07404677090468303
    },
    {
        "weight": [
            -0.0009330341342729343,
            0.9009174777336643,
            -0.2541015523889489,
            -0.24707187175627535,
            -0.1291241248785541,
            -0.047057391727405085,
            -0.06587856809387398,
            -0.12079040528591896,
            0.05302992028581825,
            -0.1506977836939127,
            0.03062217879932102,
            0.03319337350203402
        ],
        "bias": 0.05855678465528343
    },
    {
        "weight": [
            -0.13771571054104428,
            0.17017233243208543,
            -0.5616080243580555,
            0.10111948753591,
            0.13471697509444844,
            -0.026325925297354256,
            -0.20136099054397066,
            0.013633954495188803,
            0.024087110211379666,
            0.22880351570656013,
            0.19859084079445646,
            0.014048470804329841
        ],
        "bias": -0.023414891491132305
    },
    {
        "weight": [
            0.06228181211209361,
            -0.24167419372448132,
            0.004033925049509014,
            0.03476337333257594,
            -0.13203080095800165,
            -0.011458167187442672,
            -0.05673886775884296,
            -0.05551859649663729,
            0.09387913775047978,
            -0.012073046993026674,
            -0.009090195541582382,
            0.26087419403022694
        ],
        "bias": -0.170187058925183
    },
    {
        "weight": [
            -0.14928355857945028,
            -0.07481681304458862,
            -0.09925022105371473,
            -0.007042483178733465,
            0.052287787342136065,
            -0.1357881333499164,
            -0.15080859308380437,
            -0.11623457298646023,
            -0.06280721590313391,
            0.1607109417705713,
            0.010857779087423176,
            -0.009377352355097854
        ],
        "bias": 0.1369384615266305
    },
    {
        "weight": [
            -0.10221260053328349,
            -0.08024933027820817,
            -0.03618161401793636,
            0.05555451183463287,
            -0.0013564530926136304,
            -0.0031001818518319965,
            0.03733405424275159,
            -0.09507667685109238,
            0.14087726282704333,
            0.015245655101306129,
            0.047179236750371584,
            -0.060317070016783166
        ],
        "bias": -0.16797284290020345
    },
    {
        "weight": [
            0.00558421717413227,
            0.0773246689964881,
            -0.019321087038379616,
            -0.0853605046388938,
            0.5343005513420357,
            -0.28491207254782935,
            -0.053788906325756204,
            0.03431873400856555,
            -0.11961137656438343,
            -0.025273177444760053,
            -0.006744132921438576,
            0.011211351372508123
        ],
        "bias": 0.16551395632221716
    },
    {
        "weight": [
            0.17222254810399812,
            -0.1459756107190357,
            0.12537908211670004,
            -0.5031735555432322,
            0.09556165046041391,
            0.031774503534355326,
            0.09894955530494623,
            0.1364115511222416,
            0.32446560832821963,
            0.049050420631855544,
            -0.18800251127504103,
            0.009402529406671627
        ],
        "bias": 0.17935499680700814
    },
    {
        "weight": [
            -0.09978629834699469,
            0.045881484947931636,
            0.22740481952751218,
            0.05334124292897643,
            -0.050232511852413855,
            -0.011908657890950941,
            -0.08109298399937093,
            0.005878281815808366,
            -0.08482855329550988,
            0.06549689991958436,
            -0.17705731639642489,
            -0.05443282628262166
        ],
        "bias": -0.12606327086331717
    },
    {
        "weight": [
            0.024436454774697736,
            -0.2616217674833142,
            0.08253072879541053,
            0.44757079392685833,
            0.06489240808993442,
            0.004288184391784822,
            -0.09157083155604194,
            0.005601713305409859,
            -0.0009543318244380559,
            0.040326880119720396,
            -0.20062663356864394,
            -0.06763350499716067
        ],
        "bias": -0.1256613927273525
    },
    {
        "weight": [
            -0.13896064970790206,
            -0.07371881494254648,
            -0.15861584458987896,
            0.10642173622777829,
            -0.16323540704569592,
            -0.0048133117096780245,
            -0.05357280930779379,
            -0.13808997440279264,
            0.058584370411641544,
            -0.06395719932512596,
            -0.020491066458680197,
            -0.06419614739103324
        ],
        "bias": -0.017090182837272018
    },
    {
        "weight": [
            0.08775254147449314,
            0.08462742119730582,
            -0.05707232578008468,
            -0.15509225487595735,
            -0.09457192219238315,
            -0.029652507067861406,
            -0.1811605024916669,
            -0.09943654435593711,
            0.24403262195017894,
            -0.03870684403236945,
            0.08292670191446562,
            0.19459149444011328
        ],
        "bias": 0.09369612473448082
    },
    {
        "weight": [
            0.04020012044399417,
            0.040761029857918345,
            0.13044217514254405,
            0.16826369762276586,
            0.032049485087502105,
            0.022491531459290663,
            0.07649799400574088,
            0.08275581086855906,
            -0.5419896005233734,
            0.047193446860413206,
            -0.053601779608813536,
            -0.031897082353505295
        ],
        "bias": -0.1281852438263189
    },
    {
        "weight": [
            -0.02090564830128455,
            0.11323186645686859,
            -0.08360353792553715,
            -0.12839161250028783,
            -0.015526365652844916,
            0.023231574991217734,
            0.11719093895013191,
            -0.1981887090055825,
            0.17420927655172339,
            0.11041601611050618,
            -0.07788638490488381,
            -0.0010605868348978916
        ],
        "bias": 0.020603051091440498
    },
    {
        "weight": [
            0.04914826043833171,
            0.21360112043170762,
            0.28807139018812045,
            0.12785649549988037,
            0.015600728667505368,
            -0.009891435747524954,
            -0.31212380136620155,
            0.07076935931146683,
            -0.14437634074234273,
            -0.11712550966960183,
            0.051638133402077686,
            -0.0954474234600248
        ],
        "bias": -0.14888373081673323
    },
    {
        "weight": [
            0.14302783389448886,
            -0.00271294547777446,
            -0.04070832199617499,
            0.04151363699635794,
            0.04043804871742416,
            0.15884206338603055,
            0.10950221710202993,
            0.05831121974697246,
            0.024502867739598793,
            0.11515940181788546,
            -0.7526036511682164,
            0.06283693208193908
        ],
        "bias": -0.15278947938118584
    },
    {
        "weight": [
            -0.0349366193078919,
            -0.07252086779649657,
            0.043303705955617236,
            -0.07983194074954035,
            -0.10409656251966455,
            -0.1112127785183485,
            -0.14097342243118463,
            -0.052359054702529016,
            -0.06401416863999597,
            -0.05023919940281874,
            -0.20056548145421452,
            0.8900613504458836
        ],
        "bias": 0.034631874848943464
    },
    {
        "weight": [
            0.029420704451322038,
            -0.16168027571721674,
            -0.09212658328984856,
            -0.1073850924912556,
            -0.04343539110236645,
            -0.034772675311942225,
            -0.11113239178075039,
            -0.08200679566923437,
            -0.09047055722918111,
            1.03736500380635,
            -0.09145521841694641,
            -0.0564738276986753
        ],
        "bias": -0.09566543480451738
    },
    {
        "weight": [
            -0.007970166505794355,
            -0.06296335178870541,
            -0.022901532005351936,
            -0.04605142992686019,
            -0.09149309946079306,
            -0.12576489820494852,
            0.24578467009379443,
            0.0975826305800532,
            -0.16316870565712532,
            -0.08450495278964408,
            0.38991068949823265,
            -0.18345504578788102
        ],
        "bias": -0.08432835373711772
    },
    {
        "weight": [
            -0.06029882295131574,
            0.014865401432744533,
            0.0008867358368305279,
            -0.0739032296802345,
            -0.16300303112830672,
            1.2450032713757089,
            -0.013932819354226219,
            -0.014257094570223198,
            -0.09237660465178227,
            -0.05594572858125268,
            -0.27820455455864823,
            -0.04212640183191811
        ],
        "bias": -0.06029952988108129
    },
    {
        "weight": [
            -0.08375104542531436,
            -0.1250792123154441,
            0.018701240062392162,
            -0.0810407193402097,
            0.889782891666702,
            0.05662854095564107,
            -0.009949713296356332,
            -0.13219559363578712,
            0.05485588213846103,
            -0.028327494958878534,
            -0.17659737693264915,
            -0.1498675334778292
        ],
        "bias": -0.017947113981890847
    }
]